<?xml version="1.0"?>
<opencv_storage>
<opencv_ml_svm>
  <format>3</format>
  <svmType>C_SVC</svmType>
  <kernel>
    <type>LINEAR</type></kernel>
  <C>1.</C>
  <term_criteria><epsilon>1.1920928955078125e-07</epsilon>
    <iterations>1000</iterations></term_criteria>
  <var_count>756</var_count>
  <class_count>2</class_count>
  <class_labels type_id="opencv-matrix">
    <rows>2</rows>
    <cols>1</cols>
    <dt>i</dt>
    <data>
      0 1</data></class_labels>
  <sv_total>1</sv_total>
  <support_vectors>
    <_>
      0.396319777 0.155369654 0.34391281 0.284766257 0.115032144
      -0.287990302 -0.448624492 0.208236143 0.175373733 0.0956090465
      -0.200536802 0.0184973497 -0.1218035 -0.283813387 0.044344686
      -0.121039152 0.21947886 -0.000505929405 0.441756517 0.16268295
      -0.233960405 -0.113816157 -0.104490109 -0.218384922 -0.184075102
      -0.261859626 0.133730814 0.0408904441 -0.00146947813 0.227348864
      -0.118352152 0.00543622766 0.000814210507 -0.109238677
      0.0734472051 0.225066736 -0.0130591281 -0.0642699301 0.0269232672
      0.172761351 -0.381051689 -0.148018628 -0.180878237 0.183310851
      0.207524255 0.0254711322 0.109981015 0.294188529 0.0692224801
      -0.199760869 -0.164571851 -0.239491493 0.166844487 0.269657701
      0.0953432918 0.0265540183 -0.0366551578 0.36046356 0.00712981308
      0.00426111324 -0.165098831 -0.0650530607 0.15099521 0.0611620471
      0.0297502186 -0.00949545763 0.54207772 -0.0540591478 0.311733305
      -0.357019305 -0.144651994 0.258136302 -0.0198212527 0.127565518
      -0.00523792021 0.127294928 -0.0139095224 -0.180131972 -0.306805998
      0.0563399196 0.0642037019 -0.215353981 -0.00378473382 -0.467468232
      -0.156994432 -0.0572435446 -0.323973507 -0.222999945 -0.231757447
      -0.0449927934 0.260755658 0.357910156 0.0120540597 0.277469784
      0.0203261655 0.0812126324 -0.0440917164 -0.0466811396 0.0358609073
      0.427046925 0.314082861 -0.318022579 -0.105061375 0.0587441437
      0.0900111198 -0.293896228 0.120074265 0.346494943 0.46752435
      0.456189126 0.102696761 -0.337287426 -0.263314426 -0.0256838705
      -0.158089697 -0.19285877 0.343658745 0.377293497 -0.050530389
      0.173627168 -0.0883097574 -0.0731337517 0.240703017 -0.259555221
      -0.304426968 0.303337961 -0.0452675708 0.427678347 0.475722969
      -0.269193083 -0.214387015 -0.0227629971 -0.139732361 0.218797505
      0.283513874 0.0568029284 0.0788038447 0.568240583 0.0530006625
      -0.0621302836 -0.123809129 -0.405671358 -0.24647437 -0.0589363389
      -0.0259789042 -0.143089592 0.167031735 0.251514852 0.292386025
      0.260663509 -0.0154343955 -0.215063155 -0.088277027 -0.0729934126
      -0.158605784 -0.215245917 0.449073285 0.122483015 0.417331189
      0.176140815 0.0781571865 -0.191844285 -0.577477157 -0.23504658
      -0.0695542619 0.332951367 -0.0864772797 -0.0640565977
      -0.0605023615 -0.242298067 -0.724310994 -0.114853337 0.112789437
      -0.360517561 0.530791938 -0.0692602322 0.290554643 0.238532826
      0.016836375 0.0146708935 0.181417599 0.000760301307 -0.183427244
      -0.00932763983 -0.146537051 -0.144053936 -0.0345742628
      0.0330838971 -0.111882515 0.450630516 0.146709666 0.0150302695
      -0.11104507 0.0207372643 -0.128132492 -0.448041677 0.222054482
      0.233602911 0.134320065 0.157531038 -0.360993981 -0.369743168
      -0.12698926 -0.181192741 -0.184526041 0.145171031 0.249768883
      0.123675287 0.124965146 0.09972471 -0.318141341 -0.029339755
      0.016575668 -0.0589580126 0.342201322 0.347677469 -0.13426964
      0.0862268731 0.0423934683 -0.173622116 -0.270924836 0.05097159
      -0.144403845 0.270685405 0.32250911 -0.274591476 0.169596493
      0.568154931 0.234967217 -0.216097698 -0.0574669875 -0.122097351
      0.0567946695 -0.0278266091 -0.178099021 -0.266617328 -0.188865393
      -0.384534657 -0.0560012907 -0.0354961641 -0.1410795 0.219971076
      0.253640115 -0.206034854 -0.154092789 0.196472451 -0.138221338
      -0.181897163 -0.0869155526 -0.0766405016 0.042161677 -0.209884271
      -0.395053029 0.0740815848 0.144784436 0.558798254 -0.240006417
      -0.0963962451 -0.0921329632 -0.0664959103 -0.491379827
      0.0747191384 0.302586734 -0.100647412 0.892902613 -0.225298941
      0.358708769 -0.0248849839 0.0841450021 -0.0955249816 -0.244601503
      -0.155030146 -0.112557784 0.0782886073 -0.10843157 -0.182168528
      -0.0288560707 -0.0487592816 -0.442023546 0.175410405 0.119608879
      -0.209030837 0.461193115 -0.225779921 -0.160610944 0.0962281451
      0.15335758 0.0598309673 0.0617743023 0.0872793421 -0.225965381
      -0.147694439 -0.118999138 0.22137095 -0.20871973 0.0347641595
      0.19378987 -0.177976951 -0.0165178422 0.0452804565 -0.203915715
      0.0186158866 0.282947958 -0.0823620409 0.0157451481 0.194945678
      0.173084602 -0.122587062 -0.517374158 -0.154729873 0.0204071403
      -0.0262583718 0.0126319258 0.0154897068 0.165359795 -0.0838249475
      -0.212862134 -0.169206589 -0.0988402739 0.0311379433 0.0969772041
      -0.0390116386 -0.104294673 0.0881780759 -0.245288193 -0.0229635555
      0.0807408839 -0.123560503 -0.191337287 -0.0577139184 0.0519145802
      0.0896873847 -0.0235855263 -0.239619121 -0.119795859 0.0690085888
      0.15001893 -0.0120265605 0.118625045 0.138889223 -0.0818717182
      -0.381264359 -0.272186607 0.229880452 0.0594274178 0.148215905
      0.128253832 0.256602913 0.0246340726 0.411795884 0.0598832592
      -0.721580267 -0.388580799 -0.425266236 0.12682651 0.125840828
      -0.0725374445 -0.0466120057 0.191928148 -0.693829775 0.0637242272
      0.0319365077 -0.0773292184 0.0718972906 -0.0191314798 0.103009924
      0.13650246 0.0671937391 -0.249970675 0.348639667 0.110110544
      -0.0846105218 0.344510734 -0.0308460072 -0.0394409187 0.296968937
      0.0341091119 0.0479647182 -0.319242895 -0.420593768 -0.458368033
      0.0953134373 0.16249831 -0.0205996893 0.198179916 -0.0929402113
      -0.844102561 0.0893137679 0.0909973755 -0.189249933 0.10874135
      -0.0176705774 -0.0857986212 -0.0249187797 -0.0503173657 -0.188979
      0.0717982873 -0.177567244 -0.329618335 -0.0115239313 0.150305852
      -0.209173605 -0.0355587639 -0.144719377 0.0904448256 0.0391848087
      -0.21931304 -0.197122365 -0.0105864285 0.218304813 0.16586709
      0.139101788 0.0600038841 0.0564051643 -0.0436237119 -0.0471556857
      -0.245033607 -0.393936336 -0.0766905472 -0.473303348 -0.468097538
      -0.143837169 0.0159051828 0.151831463 -0.132365093 0.0506938249
      0.263251215 0.138259232 0.299929082 -0.0664623231 0.184005678
      0.201120034 -0.132318169 0.256074905 0.0874393508 -0.0737683997
      0.0418760441 -0.197937548 -0.251077265 0.266103208 0.038512066
      -0.707280457 -0.0623490401 -0.305722266 0.219975099 0.155651197
      -0.151865795 -0.134884611 0.058057759 -0.641622424 -0.0183541011
      0.414427608 0.143756658 -0.0991372615 0.0971442387 -0.297568351
      0.401843607 0.335038543 -0.0920491517 -0.333510458 0.548983455
      0.0110135041 0.345038086 0.157179639 -0.041897621 0.109226115
      0.36702773 -0.442395478 -0.335364729 -0.403060764 -0.370192289
      0.325374573 0.0690014213 -0.0484513603 0.177217796 -0.0164496452
      -0.514644623 -0.00373867829 -0.0493075401 -0.187764272
      -0.0831072703 -0.126798823 0.180489436 -0.0150694391 -0.0209895596
      0.0690442547 -0.00990940817 0.0838147849 -0.0211811811 0.530277252
      0.122000702 0.0865040347 0.000357047422 0.497529566 0.030229548
      0.235155493 0.0566378497 0.119955577 0.052391734 -0.112406276
      0.350841463 0.0121949706 0.0138143981 0.108310133 0.195032164
      0.0416505523 -0.0631857291 -0.246011838 -0.303557456 -0.0143171819
      -0.142384589 0.0941165686 0.221991718 0.349434584 -0.11611665
      0.124754041 0.469255596 -0.136214808 0.193495184 -0.00949799083
      0.212935299 0.267798126 0.0607415102 0.199467883 -0.0370423757
      -0.151300684 -0.162269905 0.0711266473 -0.016663041 -0.285497397
      -0.330482751 -0.0637122691 -0.0182019491 0.17701067 0.172801003
      -0.23951757 -0.189224988 -0.123616055 0.0385380238 -0.240506396
      -0.0114211431 0.23898077 0.0281763151 -0.188279927 0.105446167
      -0.122702703 0.299717844 0.374481678 0.0297887605 0.0250595957
      0.190830424 -0.493429542 0.139623702 -0.0760043338 -0.0974346176
      0.262248814 0.552402377 0.119875759 -0.227835119 0.202824265
      0.124905914 0.0722893402 0.0457223132 0.0391060449 0.189112201
      0.13804695 -0.218620181 -0.187069312 0.165696189 -0.223486289
      0.337093711 0.00577966264 -0.308043122 -0.143299147 -0.233274162
      -0.0517313182 -0.285007447 -0.0533200949 -0.54159081 -0.0502180569
      -0.0393048599 0.0668939203 0.100460671 0.478114188 -0.0513703674
      -0.390618294 0.0469550267 -0.139589682 -0.028043326 -0.120989949
      0.174121022 -0.0767858475 0.122332171 -0.336003691 -0.120231986
      0.0582859218 -0.279272288 0.219206825 0.229985178 -0.0460445657
      0.0975160822 0.0828190222 0.310060561 -0.144145697 0.250488013
      0.234924108 0.21262224 0.0952930748 0.169403926 0.266696721
      0.149878576 0.0435805134 -0.324890643 0.0975058898 -0.024282163
      -0.162515342 -0.00161017291 -0.122902617 -0.0513159409
      -0.223402157 -0.59218055 -0.311502039 0.101969562 0.257747233
      0.140552267 0.0798274875 -0.325325638 0.0734219402 0.165279195
      -0.498346865 -0.237901777 -0.14932169 0.053767547 0.278139263
      -0.0298216864 0.020339299 -0.0289174356 -0.143032655 -0.351405859
      -0.0759063438 -0.0152320843 -0.0528162681 0.430820912 0.0661953837
      -0.0236983523 -0.0362206176 0.0464670397 -0.0293861646
      -0.544500053 0.0141379843 0.190770224 0.0278211422 0.172668144
      -0.257193863 -0.0494503044 -0.273489207 -0.499497473 -0.0863435417
      0.234882921 0.191610277 0.174482793 0.164921641 -0.529985189
      -0.178337038 -0.377976775 -0.0832635015 -0.297481 -0.253909737
      -0.287187099 -0.00424830988 0.0662577376 -0.199866101 0.0385034755
      0.205045924 -0.284558296 0.066092588 0.332304329 0.241378635
      0.205945119 0.184519947 -0.0306540355 -0.0808083117 0.361453384
      0.126312241 -0.273605585 0.136895105 0.165466338 -0.102722645
      -0.114010505 -0.539569616 0.0343736 -0.12696521 0.179946363
      0.0513093956 0.0819240361 0.146661684 -0.0991604179 0.100742362
      -0.0236058198 0.267625332 -0.0191512536 0.221797004 0.208659485
      0.700274587 -0.00319550908 -0.419569492 -0.19246392 -0.214168727
      0.230498016 0.434005946 0.3912884 0.175912231 0.486064732
      0.0647409558 -0.577539265 -0.0692899674 0.0551983677 0.189978659
      0.0655720755 0.217518717 0.0246883929 0.066284433 0.324389845
      0.473148972 -0.0639642999 0.332999498 0.412814707 0.0287499167
      -0.0856913775 -0.106506184 0.0967217013 0.0487175211 0.333354205
      0.103097364 -0.0794692636 0.0134297321 -0.182285219 -0.00522601791
      0.0952257663 0.0854456127 0.193884671 0.0121007292 -0.0125947818
      0.0815850645 0.178413913 -0.175540477 0.184680372 -0.241693065
      -0.239987135 0.02407635 -0.116372094 0.0884524062 -0.251043677
      -0.197427347 -0.604502618 -0.459340394</_></support_vectors>
  <uncompressed_sv_total>102</uncompressed_sv_total>
  <uncompressed_support_vectors>
    <_>
      0.0337590575 0.0678325742 0.102645218 0.157017723 0.257199615
      0.238938168 0.107412368 0.0419194549 0.0681118295 0.0282990579
      0.0280907135 0.0760058686 0.243081033 0.296476245 0.296476245
      0.124499477 0.0661781505 0.0726818368 0.0405098721 0.0627719909
      0.121558629 0.160191029 0.281079531 0.27694872 0.176393703
      0.0810709521 0.0484604239 0.0114842784 0.0329765752 0.0767627731
      0.296476245 0.296476245 0.296476245 0.151904389 0.0987439975
      0.0460706614 0.0244961604 0.0249867178 0.0915598348 0.296942145
      0.296942145 0.296942145 0.0658823699 0.0369866118 0.0409795456
      0.0614501536 0.0922293961 0.10803128 0.166566864 0.264155239
      0.153973535 0.0869191065 0.0594605766 0.0506592803 0.0613178089
      0.0406923667 0.0532890968 0.296942145 0.296942145 0.296942145
      0.139742762 0.0986695811 0.0611613579 0.188780561 0.0888764486
      0.0486331694 0.154652297 0.222038776 0.247636706 0.175912663
      0.158973143 0.119276114 0.123939626 0.169272736 0.116015598
      0.0717029199 0.126701444 0.124425747 0.132169679 0.117273785
      0.112669304 0.14178355 0.0808860883 0.114662439 0.139637858
      0.233050466 0.214274049 0.233050466 0.219642699 0.0885783359
      0.233050466 0.148858413 0.0738310218 0.0538371429 0.126172259
      0.21894744 0.20667395 0.170723215 0.209563509 0.233050466
      0.102167256 0.101907939 0.233050466 0.233050466 0.233050466
      0.233050466 0.101663187 0.15002878 0.0197307821 0.0344727077
      0.0765336901 0.17080164 0.193208754 0.152735069 0.0919058919
      0.0611190237 0.0427932702 0.0864180848 0.0949116424 0.0883224234
      0.226151019 0.277628511 0.277628511 0.123101473 0.208131909
      0.109510615 0.01259764 0.0334843658 0.112828135 0.219096795
      0.234574333 0.155404106 0.0831939355 0.0431632213 0.0535488389
      0.167189762 0.181522325 0.23876448 0.200578943 0.277628511
      0.277628511 0.242339909 0.194999054 0.154957622 0.20779261
      0.0711879879 0.0554154143 0.0658835843 0.161430255 0.115162648
      0.0538770705 0.0964019448 0.114793532 0.265700996 0.0733201355
      0.0291296802 0.0284977909 0.0363396034 0.0512505583 0.0624143556
      0.0990085602 0.206664234 0.265700996 0.193034485 0.198101908
      0.0969063118 0.265700996 0.16482234 0.181669936 0.107421458
      0.18609412 0.265700996 0.213472486 0.154183373 0.128120631
      0.192493364 0.121505737 0.24808684 0.255449057 0.265700996
      0.267056614 0.0560598522 0.0178365838 0.0285914391 0.0523775779
      0.06507992 0.0759260356 0.107276797 0.221506849 0.181612298
      0.0365337655 0.0405503921 0.0974092707 0.143462807 0.101786263
      0.0768173113 0.0450111665 0.0832834393 0.267056614 0.1197953
      0.180095419 0.148281664 0.267056614 0.212594762 0.267056614
      0.267056614 0.267056614 0.184141815 0.0408076011 0.187822968
      0.226472616 0.267056614 0.252413988 0.135748267 0.0618070476
      0.0847033784 0.00572921103 0.0150862914 0.0816714391 0.140685886
      0.178942695 0.113384485 0.0601480603 0.0354674198 0.0140069313
      0.0554189682 0.0582713895 0.204793662 0.178045258 0.355735928
      0.242716432 0.156853765 0.0396248773 0.0432884917 0.133194402
      0.0650884435 0.164185271 0.280307144 0.355735928 0.135973439
      0.100984782 0.101986095 0.130216956 0.0531893224 0.028549375
      0.128359675 0.299656093 0.355735928 0.238683686 0.120536834
      0.0704951286 0.0559555069 0.132251531 0.0850739032 0.162286222
      0.0893522352 0.255472779 0.0976979956 0.160076827 0.0476792529
      0.0807239339 0.255472779 0.139081895 0.156660125 0.104139619
      0.241242245 0.115873389 0.255472779 0.171929583 0.189082935
      0.123222299 0.0551676601 0.106990457 0.0913330391 0.255472779
      0.125658244 0.150690347 0.0758224055 0.0816366524 0.255472779
      0.124827839 0.181156501 0.0534083582 0.255472779 0.179570138
      0.255472779 0.166422054 0.213976368 0.145167783 0.108573817
      0.175729275 0.132414863 0.291341931 0.178084433 0.257711887
      0.16169329 0.121966951 0.0307953618 0.029755339 0.10880363
      0.184380949 0.291341931 0.175995484 0.124766275 0.0259567779
      0.0220067333 0.149281666 0.118417442 0.169536322 0.0969573557
      0.291341931 0.242145136 0.257899731 0.129109576 0.147183374
      0.0326045752 0.0376618728 0.042830836 0.173157737 0.291341931
      0.250838995 0.0697017163 0.0284898318 0.030898653 0.070149377
      0.0499246009 0.135545075 0.204948574 0.388988376 0.0703198686
      0.0427704379 0.0554293245 0.0678676888 0.0256554596 0.00707380893
      0.0203885138 0.0998348743 0.388988376 0.0972593948 0.0274530966
      0.0243177246 0.0280380603 0.0179123748 0.0421504341 0.169489279
      0.388988376 0.388988376 0.214031339 0.0407930873 0.0292565301
      0.0195402149 0.0240522176 0.00947376061 0.0134099023 0.149311289
      0.388988376 0.177054763 0.0149612231 0.0093871681 0.0171062145
      0.147889256 0.0182151683 0.0195713658 0.0659621358 0.286873877
      0.106520511 0.0953842178 0.0528050326 0.130797699 0.278227568
      0.0817163438 0.0913075432 0.0304821488 0.286873877 0.127535254
      0.244521305 0.117213413 0.286873877 0.193126976 0.0268433057
      0.0290196296 0.0843643621 0.286873877 0.124707639 0.0335896239
      0.0198181085 0.174556181 0.286873877 0.18160674 0.120378539
      0.0734921619 0.286873877 0.105869509 0.0925965533 0.0667305663
      0.286873877 0.177447394 0.10916511 0.136294961 0.0741365701
      0.260883242 0.23576422 0.1948459 0.112660646 0.191664681
      0.0561537631 0.0354573801 0.050898876 0.141199395 0.260883242
      0.240574494 0.0455290116 0.0356146395 0.0324981436 0.260883242
      0.215039879 0.159874454 0.133246645 0.260883242 0.260883242
      0.0863598362 0.08780507 0.260883242 0.0904971361 0.0437306426
      0.0796700418 0.157046869 0.260883242 0.260883242 0.0493362695
      0.034706898 0.0613973066 0.00444152486 0.0123317512 0.0552772135
      0.372567892 0.374546498 0.220672235 0.0942797363 0.0251477249
      0.00872429181 0.0115885995 0.0141855814 0.0157695673 0.160927877
      0.374546498 0.13258177 0.0166267809 0.00840227213 0.00820223335
      0.0704781637 0.00664818194 0.0944174603 0.288018376 0.374546498
      0.182947427 0.0711117983 0.0345666669 0.117512345 0.016686257
      0.0143962447 0.0356446765 0.154135168 0.374546498 0.115440749
      0.0156974681 0.0229217783 0.0170981232 0.0872828737 0.0755685791
      0.106720187 0.0625246316 0.283328474 0.0898109302 0.038012214
      0.0236074924 0.0835693181 0.194285661 0.263970047 0.283328474
      0.054429587 0.283328474 0.0670653731 0.0420049801 0.054789532
      0.194969758 0.0709541515 0.112818502 0.197210312 0.0692898259
      0.283328474 0.0842923597 0.0515594818 0.0508451797 0.0796185434
      0.239738509 0.283328474 0.283328474 0.0578536876 0.283328474
      0.0806744918 0.0855663717 0.0788383707 0.266245276 0.171031386
      0.244356439 0.2399223 0.112012714 0.271100998 0.186463416
      0.0136352889 0.0867641717 0.169334441 0.0423134081 0.0381633379
      0.0425236784 0.123502985 0.271100998 0.248815015 0.0286461469
      0.0342687964 0.0431506932 0.235207304 0.184485197 0.271100998
      0.141900569 0.271100998 0.162647381 0.0867695436 0.0925682783
      0.271100998 0.0359600931 0.0188802835 0.0194658637 0.205182254
      0.271100998 0.189854547 0.0430664904 0.0427457094 0.0641421676
      0.161154181 0.023509074 0.15028201 0.264399856 0.363354176
      0.164931536 0.0473187007 0.0491669923 0.207485572 0.0420285948
      0.0272985101 0.0628528371 0.259240001 0.363354176 0.215897515
      0.0535566248 0.0524036288 0.0340149514 0.0288817622 0.0399784893
      0.0591604486 0.0972717106 0.2112654 0.151572838 0.0850456506
      0.0342833549 0.0150696319 0.0515616685 0.0429433584 0.114981182
      0.26124081 0.363354176 0.278267801 0.135129347 0.0717462376
      0.0294688046 0.0724673197 0.0943153203 0.182521388 0.0984440967
      0.267057151 0.0978445485 0.0471193828 0.0312930197 0.0787816644
      0.266348392 0.184133694 0.267057151 0.0980444774 0.267057151
      0.0987224951 0.1390443 0.0550537109 0.267057151 0.115572669
      0.0572305284 0.139002234 0.164053366 0.267057151 0.137823239
      0.111981705 0.0482427478 0.117553629 0.267057151 0.0843069181
      0.215566844 0.140134454 0.247168005 0.0872260705 0.141674474
      0.0534573793 0.267057151 0.243770495 0.0856277794 0.231824875
      0.193731442 0.27865392 0.157898441 0.145035937 0.0738827214
      0.262922853 0.0335450619 0.0204881169 0.0380646177 0.203454435
      0.27865392 0.179341674 0.0339775234 0.0345943868 0.0408591963
      0.27865392 0.0567407869 0.186298281 0.18034327 0.27865392
      0.0983103961 0.0751926452 0.0887749791 0.27865392 0.0330801569
      0.0362785123 0.0546311662 0.180386975 0.27865392 0.187076658
      0.0138685787 0.0479048491 0.0556843802 0.0234489534 0.0390941799
      0.0850966945 0.132579863 0.227711469 0.212439999 0.114200942
      0.0299240034 0.0165292192 0.100107953 0.0533130504 0.179038912
      0.31290856 0.322305202 0.322305202 0.191502631 0.0519255586
      0.0872574523 0.0304502677 0.0536076277 0.0649781451 0.139181107
      0.247364491 0.21326229 0.0981361493 0.0441441946 0.0278401058
      0.0656661168 0.0386383496 0.0578633286 0.278538495 0.322305202
      0.322305202 0.104186557 0.0335801803 0.0906303599 0.205985636
      0.0751678497 0.17474179 0.231433436 0.289461821 0.194545671
      0.164273754 0.0642068014 0.252091497 0.289461821 0.11162585
      0.180339918 0.160782725 0.220852479 0.0876116306 0.117620409
      0.115773007 0.289461821 0.0854840502 0.0393165983 0.0378092714
      0.137868285 0.289461821 0.152277082 0.0587770157 0.0407760143
      0.156029537 0.181975409 0.0614067167 0.0413241051 0.0680000857
      0.124874882 0.0589350425 0.0633091331 0.103567228 0.289461821
      0.276566386 0.110460028 0.156596258 0.136582687 0.276566386
      0.0655240268 0.0620726757 0.205198631 0.276566386 0.0739935786
      0.136753291 0.161609128 0.236245945 0.276566386 0.1623355
      0.0308183283 0.132239163 0.155826271 0.211513937 0.124108009
      0.0912829563 0.0597958304 0.116190225 0.0386451595 0.0896214172
      0.17739132 0.276566386 0.121822715 0.185124949 0.190142408
      0.138317943 0.23442091 0.0441604778 0.0463575087 0.130998001
      0.163795263</_>
    <_>
      0.0140881836 0.00214867364 0.0735789314 0.178848833 0.422050804
      0.142785326 0.0531463102 0.00157787127 0.0183720943 0.0245825779
      0.0371052735 0.0549579524 0.127777144 0.422050804 0.15908654
      0.0577852502 0.0444146618 0.0172206908 0.00264453376 0.0050603142
      0.0162959117 0.2313281 0.422050804 0.124098167 0.0190371256
      0.00390989706 0.00171574357 0.0429701991 0.0431459099 0.0635484681
      0.224011123 0.422050804 0.171335876 0.0664134249 0.0780009106
      0.0500482321 0.0701896101 0.0716094375 0.0979517102 0.22343795
      0.301909268 0.118487485 0.151821911 0.15174453 0.0340901203
      0.0344937891 0.0224418156 0.148583487 0.301909268 0.301909268
      0.0916852355 0.108970225 0.0912709907 0.0115137519 0.0624655969
      0.0708496794 0.156773075 0.301909268 0.301909268 0.17356506
      0.143753171 0.149713635 0.083084777 0.0306973327 0.0277124718
      0.159182653 0.301909268 0.301909268 0.151096731 0.0938702673
      0.0523740798 0.0230781585 0.0145567106 0.0278120581 0.161001861
      0.244332209 0.258238524 0.112053245 0.0333397016 0.0172852911
      0.0192816053 0.130160913 0.143017799 0.210259289 0.258238524
      0.258238524 0.180005416 0.120695233 0.0827048272 0.103852995
      0.0265162587 0.0225675516 0.103896685 0.258238524 0.258238524
      0.167272314 0.0646529496 0.015506234 0.0180401802 0.186678603
      0.0884459838 0.156424612 0.258238524 0.258238524 0.246944979
      0.240813404 0.112917162 0.19967477 0.00482377596 0.00373727595
      0.0106557207 0.12815997 0.355178207 0.0637409762 0.0208076444
      0.00205743616 0.00291275745 0.120705478 0.0848563239 0.0988482833
      0.127692983 0.355178207 0.118959799 0.103954352 0.10874176
      0.15165253 0.00524638733 0.00617381278 0.0368108414 0.225468993
      0.355178207 0.0756093934 0.0207013059 0.000793984276 0.0038070078
      0.210336164 0.120325111 0.220263422 0.301276654 0.355178207
      0.151238024 0.138511091 0.096895501 0.235085458 0.15850392
      0.0838429332 0.0858226344 0.0952457637 0.299078315 0.121833853
      0.148082271 0.163926467 0.230711952 0.0528730042 0.0182329919
      0.0288006812 0.108240314 0.299078315 0.117086314 0.0744486749
      0.039257165 0.0656188354 0.271602511 0.0922682509 0.120037213
      0.249150321 0.299078315 0.192105502 0.168848038 0.155434221
      0.299078315 0.064027518 0.017818585 0.0410274565 0.200700507
      0.299078315 0.190096065 0.0656069592 0.040502876 0.0820702463
      0.00737637188 0.0232317708 0.0634739548 0.252807468 0.252807468
      0.166276246 0.0382963531 0.012528752 0.00974218268 0.115720049
      0.0902117863 0.165355444 0.252807468 0.252807468 0.172914505
      0.144103929 0.0923821256 0.143865734 0.0042981063 0.0459491946
      0.141798526 0.252807468 0.252807468 0.243375167 0.0354377143
      0.0145925861 0.0136242509 0.122039706 0.216744125 0.223302543
      0.252807468 0.252807468 0.252807468 0.15678072 0.123824053
      0.15728943 0.00153929077 0.00163931341 0.0158282835 0.227206066
      0.3797023 0.0838949829 0.00209739082 0.000948335743 0.00130584976
      0.093443349 0.0355632864 0.0857780799 0.28974402 0.3797023
      0.120870955 0.0686837956 0.0439005233 0.0958390012 0.00406557042
      0.000287491974 0.00649863854 0.240774497 0.3797023 0.115186729
      0.0105121434 0.0037385961 0.00395931071 0.090491727 0.0429567434
      0.0501298755 0.271252692 0.3797023 0.235130757 0.0603230521
      0.0745366365 0.082442522 0.129747927 0.039747104 0.0715923011
      0.246878892 0.356402129 0.173626944 0.0833824575 0.0626872703
      0.147178978 0.0254921298 0.0222508758 0.0570818782 0.185249195
      0.356402129 0.156206876 0.0241600648 0.0167642459 0.0319037549
      0.102506481 0.0819754153 0.121892937 0.226571813 0.356402129
      0.290617377 0.0398428962 0.0614443198 0.094576031 0.0180385262
      0.0616917349 0.117072798 0.160993159 0.356402129 0.220634475
      0.0257644188 0.0173179824 0.0241001379 0.00961932447 0.0286274962
      0.105932735 0.179115519 0.253370792 0.15529269 0.0535918288
      0.0180918239 0.0054890872 0.119828716 0.168111682 0.157090813
      0.253370792 0.253370792 0.219780937 0.139243692 0.0813134611
      0.101677537 0.0361300744 0.082051374 0.17933692 0.216570482
      0.253370792 0.183082014 0.112374872 0.0274065044 0.0215794202
      0.203413099 0.203908175 0.253370792 0.253370792 0.253370792
      0.253370792 0.160448939 0.0720849261 0.109680831 0.0119428402
      0.00334754679 0.0359922759 0.203843832 0.33235845 0.128640369
      0.0178016592 0.00373770297 0.013770761 0.19188711 0.102059446
      0.131942138 0.242543817 0.33235845 0.209635213 0.05286856
      0.102195844 0.199931547 0.0129190832 0.0083365906 0.0365981199
      0.218516678 0.33235845 0.138774455 0.00840430427 0.000803859555
      0.0197059214 0.196015432 0.155570939 0.155968279 0.22232458
      0.33235845 0.141285449 0.0138261532 0.0440523103 0.215901032
      0.213949054 0.146676496 0.122266039 0.223078504 0.287023991
      0.216615066 0.0251226034 0.0951493979 0.224476755 0.0491106175
      0.0777518004 0.0898574293 0.181415096 0.287023991 0.168900236
      0.0227176547 0.0290270559 0.0494395867 0.241586342 0.200975358
      0.152382478 0.226425037 0.287023991 0.119645186 0.0199726503
      0.0486477613 0.271525949 0.0689630434 0.0851008072 0.0746663436
      0.20158346 0.287023991 0.123884209 0.059356343 0.0269000791
      0.0705421716 0.0508478172 0.116377987 0.150885746 0.229694113
      0.23744528 0.107908376 0.0636173338 0.0159921702 0.021853691
      0.150904104 0.170873225 0.23744528 0.23744528 0.23744528
      0.199141279 0.0697237551 0.0196794383 0.0897576734 0.104554109
      0.158292443 0.114404753 0.23744528 0.23744528 0.154515684
      0.104144365 0.0371739045 0.0294717979 0.234169424 0.23744528
      0.23744528 0.23744528 0.23744528 0.23744528 0.118360378
      0.0536214784 0.0816338062 0.0109936586 0.00775070023 0.0121674817
      0.123081692 0.448114127 0.138937533 0.00508726621 0.000478976348
      0.0119772609 0.039820943 0.0533669665 0.0491213053 0.121254511
      0.448114127 0.200696409 0.0186560545 0.00854718126 0.0476637408
      0.0271837972 0.00972425565 0.0194969792 0.109947279 0.448114127
      0.160359547 0.0122468658 0.00417694217 0.0247331187 0.035824798
      0.0307078846 0.0162380263 0.072860457 0.448114127 0.198860601
      0.0400836058 0.0202925485 0.0605574921 0.095279403 0.133828446
      0.119739801 0.246898174 0.282626063 0.282626063 0.0612015687
      0.0291581508 0.107448943 0.042634543 0.09001939 0.102531947
      0.2089746 0.282626063 0.233227238 0.121042378 0.0531221591
      0.0460545756 0.113553017 0.112268403 0.0521161519 0.137811422
      0.282626063 0.282626063 0.0937064737 0.0824225619 0.145407766
      0.0447875559 0.0610061251 0.0933117419 0.244571805 0.282626063
      0.282626063 0.103622161 0.0942843035 0.0609304681 0.0790187418
      0.0803070664 0.0919552594 0.194280908 0.242047265 0.192817032
      0.102050304 0.0553187728 0.0408014283 0.168482736 0.144383416
      0.236687943 0.242047265 0.242047265 0.219562009 0.115100734
      0.0930759087 0.0842475593 0.0580308586 0.030968044 0.109030843
      0.208841041 0.242047265 0.242047265 0.0950796083 0.0561531074
      0.0267567113 0.19164744 0.0853927657 0.23900038 0.242047265
      0.242047265 0.242047265 0.216055125 0.0928993896 0.0775475577
      0.0174369868 0.00313424878 0.00531669706 0.141288504 0.43490845
      0.0878574178 0.0039698272 0.00326712732 0.0137496516 0.0549426712
      0.0312382057 0.021233907 0.0768448859 0.43490845 0.111902602
      0.0352097414 0.0238452833 0.0741411224 0.0208204631 0.00871693343
      0.0133035863 0.221678942 0.43490845 0.132381007 0.000867870345
      0.00115613395 0.015329103 0.111810707 0.0926501527 0.125771686
      0.168688387 0.43490845 0.190129578 0.0774752125 0.024657622
      0.0703409538 0.123213053 0.106712483 0.0462103523 0.104127675
      0.289660066 0.176276013 0.0786289871 0.064893648 0.150848672
      0.0833009183 0.0693604648 0.0505988412 0.220533997 0.289660066
      0.192333817 0.0639021546 0.0572208464 0.0784566402 0.16407083
      0.196886823 0.221904397 0.163663253 0.289660066 0.289660066
      0.21851562 0.0623373725 0.0885908976 0.087495707 0.10837806
      0.10878066 0.198083326 0.289660066 0.253932863 0.134383768
      0.054990869 0.0560348891 0.0371042341 0.0226491522 0.0805443749
      0.226676941 0.255265564 0.255265564 0.0511923395 0.0373414531
      0.0306204297 0.182506979 0.0751060471 0.157081544 0.255265564
      0.255265564 0.255265564 0.103199437 0.0393929929 0.111593746
      0.0177105479 0.024022473 0.171754107 0.255265564 0.255265564
      0.255265564 0.0653922334 0.0420799553 0.0313031375 0.11780712
      0.0629582554 0.217564106 0.255265564 0.255265564 0.255265564
      0.0453543738 0.0983805358 0.115597129 0.0153916143 0.00737249991
      0.0198669862 0.239248976 0.382819116 0.0870992914 0.00427940674
      0.00050175318 0.0170952361 0.112758242 0.0663322657 0.120029524
      0.213703007 0.382819116 0.15166083 0.103475325 0.0182379261
      0.069842197 0.0181827508 0.00257420144 0.0463752337 0.368510544
      0.382819116 0.119957291 0.0305640753 0.00122967653 0.0160148405
      0.10009174 0.0191563535 0.0586965717 0.193678454 0.382819116
      0.100083567 0.0743874386 0.0217222814 0.0825079679 0.123489767
      0.0897189081 0.152081847 0.105203554 0.262375206 0.262375206
      0.262375206 0.0568125099 0.0893710777 0.0349704064 0.0465909876
      0.116129816 0.108004376 0.262375206 0.262375206 0.139832526
      0.0473656543 0.0675227046 0.116459295 0.0357352458 0.0666129515
      0.0489778072 0.262375206 0.262375206 0.209472716 0.081471771
      0.191536188 0.0521752313 0.0332132019 0.252976984 0.154792458
      0.262375206 0.262375206 0.14794676 0.067614235 0.164553225
      0.0132344821 0.0273614675 0.271454066 0.271454066 0.271454066
      0.143810645 0.0336907804 0.0319240391 0.0225452036 0.0757189766
      0.0606042966 0.261008024 0.271454066 0.271454066 0.168634713
      0.0293681212 0.105507776 0.0542965457 0.0278815404 0.0386982672
      0.271454066 0.271454066 0.271454066 0.129075378 0.0513850674
      0.0485091396 0.0559755787 0.0643673539 0.131401569 0.271454066
      0.206546709 0.271454066 0.0811818093 0.0539443493 0.099874109
      0.0680161193</_>
    <_>
      0.000406396284 0.000117495729 0.000608508883 0.00260130526
      0.0229638778 0.000174210305 3.58157668e-05 1.19689985e-05
      0.000382049911 0.0209542084 0.125698566 0.393828958 0.367166907
      0.393828958 0.051517345 0.0230010338 0.00396147743 0.0157863963
      0.00212180451 0.0377337448 0.0407860428 0.041104544 0.106377862
      0.00512001058 0.00137599232 0.000357852055 0.00127111294
      0.0209322516 0.191979557 0.393828958 0.393828958 0.393828958
      0.107575223 0.0197680853 0.00368491048 0.0112817343 0.095906049
      0.105312653 0.298228651 0.188524544 0.252006531 0.0807285011
      0.052691143 0.0426299684 0.0748198926 0.153179958 0.133316651
      0.200481072 0.208763137 0.303991377 0.129878834 0.12207891
      0.0956273749 0.218020782 0.111499138 0.0591324009 0.155167997
      0.283907682 0.303991377 0.0667715073 0.0209845509 0.0221597441
      0.0526019 0.143079087 0.0702683479 0.0706860423 0.303991377
      0.303991377 0.0998887792 0.0511464328 0.0687569603 0.111256756
      0.0630966723 0.0604876168 0.0576728433 0.155280292 0.354236603
      0.0815153718 0.192307144 0.165714428 0.168543294 0.0930735245
      0.00547449756 0.00745137688 0.106736772 0.354236603 0.209673733
      0.218133599 0.195314452 0.16838412 0.0602078997 0.0307904035
      0.034413442 0.196922749 0.354236603 0.0782348886 0.0688268617
      0.0648345426 0.0873676464 0.0873029307 0.00116910704 0.0158406254
      0.0452530086 0.354236603 0.285366774 0.0629879832 0.0502922498
      0.129162371 0.00702825328 0.0589971468 0.0919867679 0.0308352485
      0.135074347 0.0232044589 0.00184019585 0.000645362306
      0.000746084959 0.0336340405 0.20059441 0.308010489 0.254991204
      0.321279138 0.127274305 0.0109521765 0.00383463944 0.00594314514
      0.0417061262 0.114509434 0.321279138 0.161653847 0.262233287
      0.0405727141 0.0012666774 0.00198542769 0.0139005883 0.185009927
      0.256009489 0.321279138 0.302054703 0.321279138 0.173591018
      0.00967362709 0.0190880354 0.0368243568 0.0986923054 0.0984567404
      0.11350061 0.246823654 0.31473738 0.0875625461 0.00967384502
      0.00775836874 0.0430429205 0.156600952 0.137013629 0.05978911
      0.273874134 0.31473738 0.104257591 0.0141250221 0.0693568736
      0.049494531 0.133822247 0.206926256 0.176851749 0.227614895
      0.31473738 0.105873644 0.0147245256 0.0588582493 0.0283704065
      0.170365885 0.265194058 0.0756827295 0.24795559 0.31473738
      0.113762662 0.0640481487 0.117635332 0.0233565271 0.0966767371
      0.0603506118 0.0425470434 0.144303754 0.453287512 0.0698879212
      0.00953921955 0.0407933481 0.042639032 0.111836083 0.00131624378
      0.0109502003 0.0443456881 0.453287512 0.192092851 0.00616653636
      0.0007619721 0.0810630471 0.0944285169 0.0702974126 0.0238047112
      0.0921811759 0.453287512 0.0758971646 0.0908434317 0.0852268189
      0.0328216478 0.0968516991 0.00133152527 0.00296786451 0.0403168239
      0.453287512 0.100417033 0.0368433446 0.021528786 0.0566751994
      0.0169755723 0.104233049 0.288570315 0.130172148 0.288570315
      0.026784813 0.00279171579 0.00479062088 0.0129287727 0.0769150704
      0.182026118 0.288570315 0.22489962 0.288570315 0.103141144
      0.00436357548 0.0125343725 0.0315216705 0.0692391172 0.100629486
      0.288570315 0.205561772 0.288570315 0.0374574289 0.0424584188
      0.0402675197 0.0710262358 0.111166164 0.200063035 0.288570315
      0.202574223 0.288570315 0.145362452 0.0491024889 0.0636960566
      0.11143595 0.140566573 0.205902264 0.25221926 0.2505292 0.25221926
      0.100521155 0.0114378007 0.0659649372 0.051438231 0.127544329
      0.184084162 0.188755333 0.204142958 0.25221926 0.0754222274
      0.0681724325 0.114471987 0.036384698 0.131955981 0.217714742
      0.25221926 0.25221926 0.25221926 0.178363711 0.0329355225
      0.0393264033 0.0699419752 0.075352557 0.113527156 0.25221926
      0.222392216 0.25221926 0.132891178 0.0384477675 0.0434885323
      0.0314082801 0.0787105858 0.0444083437 0.0385298878 0.099725157
      0.333264649 0.077808544 0.205396354 0.134668589 0.0389758088
      0.0896061882 0.00254141982 0.0136224208 0.0839693174 0.51894182
      0.0660322532 0.116793834 0.049639646 0.0359274186 0.0298607852
      0.0317407995 0.106829725 0.172684893 0.32011795 0.0912560299
      0.0996630639 0.0656838641 0.027273966 0.0200746506 0.00850252248
      0.0482718311 0.20699501 0.51894182 0.0404455513 0.0605604537
      0.0238397103 0.0133753642 0.086732991 0.042354431 0.262230873
      0.262230873 0.262230873 0.0913490206 0.0404224619 0.0393225737
      0.101645157 0.131288931 0.124904297 0.262230873 0.262230873
      0.262230873 0.136849537 0.0574706309 0.0808474422 0.168504313
      0.0885734335 0.0111353733 0.132350758 0.223345831 0.262230873
      0.173362687 0.0525222085 0.0201811269 0.0834795311 0.16100733
      0.0675964206 0.245227426 0.244599983 0.262230873 0.166248262
      0.0479055345 0.0562480912 0.164843678 0.106756188 0.208422169
      0.235555321 0.235555321 0.235555321 0.186559796 0.0727876574
      0.0459515303 0.0876236185 0.0531312414 0.115978107 0.202648565
      0.15348281 0.235555321 0.180278659 0.0479613915 0.0282335039
      0.0378563516 0.123048171 0.218089759 0.235555321 0.235555321
      0.235555321 0.167344794 0.0797122568 0.0422541164 0.132034525
      0.134238988 0.235555321 0.235555321 0.194909588 0.235555321
      0.169389158 0.0615158863 0.0717000812 0.101081252 0.0179011188
      0.0356260501 0.099649854 0.101645887 0.225366712 0.0854293406
      0.0434719585 0.0383782685 0.0296834949 0.0100893844 0.0104063731
      0.037318971 0.296184719 0.40464592 0.0210247952 0.0165226795
      0.0139426617 0.0211240947 0.228367463 0.193129972 0.224260598
      0.126816869 0.181011528 0.0751431137 0.0790995657 0.148296669
      0.184185237 0.104307674 0.0642135516 0.0739038736 0.40464592
      0.40464592 0.0687054396 0.0981108099 0.127505213 0.149651229
      0.0880939662 0.0119280415 0.0312890895 0.0744861066 0.394246697
      0.0943060517 0.0331113078 0.0142237814 0.0699896142 0.167782575
      0.0718689337 0.120242827 0.146863088 0.394246697 0.114741936
      0.0536607951 0.0367682502 0.123945557 0.0982449725 0.0263479371
      0.0227077007 0.177410096 0.394246697 0.0852554962 0.0209674593
      0.0177485943 0.113837175 0.14240554 0.101366296 0.166514367
      0.278986514 0.394246697 0.139949203 0.0335277356 0.027569931
      0.147690505 0.0714629889 0.116911709 0.209080428 0.231033579
      0.261389405 0.170007095 0.0857855603 0.0230662283 0.0625767037
      0.182994977 0.19006449 0.254757434 0.206151873 0.261389405
      0.199609429 0.139799401 0.147278771 0.165521607 0.0434260517
      0.0732771307 0.1658476 0.261389405 0.261389405 0.171007946
      0.057870321 0.0135247726 0.0281288419 0.111628607 0.0312842838
      0.0804365575 0.179303274 0.261389405 0.202137589 0.135711074
      0.112594999 0.146151468 0.265782356 0.159601852 0.191087842
      0.13795054 0.131846413 0.0463678874 0.12522392 0.174160138
      0.16966103 0.165853813 0.084919177 0.085752219 0.322479516
      0.322479516 0.0514112934 0.104006991 0.135231808 0.0866599455
      0.187516883 0.0735869333 0.0888207927 0.132705241 0.266454667
      0.0666271746 0.101213679 0.126732901 0.195482388 0.149768621
      0.0635627434 0.0501048118 0.322479516 0.322479516 0.0293303113
      0.04241018 0.0816543996 0.0956301317 0.0670534149 0.0134972818
      0.00539434515 0.130432978 0.290436268 0.162976235 0.104877345
      0.0462694205 0.123057105 0.0968884677 0.0475865938 0.0599124655
      0.162982166 0.290436268 0.146895662 0.0508646034 0.0535111688
      0.176209733 0.0933288559 0.00860481896 0.000897121616 0.0468792468
      0.290436268 0.290436268 0.290436268 0.145693347 0.123469129
      0.157917559 0.0275205579 0.0143164238 0.108756341 0.290436268
      0.290436268 0.250781417 0.209654406 0.195316747 0.0508512855
      0.062281087 0.117367327 0.336508751 0.353396595 0.120085187
      0.0420293175 0.039799381 0.0944264308 0.0317972675 0.0112503562
      0.0355845094 0.226049989 0.353396595 0.0953264236 0.0357367769
      0.0282570887 0.0711426437 0.0935694203 0.0380665921 0.0600671656
      0.304399192 0.353396595 0.186287701 0.135265499 0.165121391
      0.155773878 0.039374955 0.0165216383 0.048531387 0.201817945
      0.353396595 0.0589670278 0.0276456382 0.0359795652 0.0746607333
      0.0378089435 0.01227492 0.00614601141 0.104132697 0.391733259
      0.0606739856 0.0115533983 0.0281073339 0.0751687363 0.0313751362
      0.00975859258 0.00389535213 0.391733259 0.391733259 0.0281845164
      0.0021263971 0.0189279225 0.0509286933 0.0461547859 0.00206157914
      0.00661632093 0.191953227 0.391733259 0.0435472801 0.00722631067
      0.0090407012 0.056726329 0.0343194976 0.00139124843 0.00132527447
      0.391733259 0.391733259 0.025850568 0.00429702876 0.00573723717
      0.0402592421 0.0563011169 0.0100391796 0.000511486374 0.0100609399
      0.196523696 0.28816098 0.28816098 0.214221835 0.0553819984
      0.147382736 0.0286941398 0.0203105342 0.0854664445 0.28816098
      0.28816098 0.28816098 0.28816098 0.11879655 0.0110595757
      0.00113970286 0.000337638892 0.00125027122 0.049429588
      0.0938473344 0.213613167 0.0900562927 0.0126544638 0.0794432834
      0.0279035605 0.0307506844 0.0680758655 0.200454667 0.264938444
      0.28816098 0.283344328 0.10923256 0.0569339097 0.0219452661
      0.0436696559 0.120258234 0.249590144 0.126219884 0.156064034
      0.133039758 0.0594892874 0.0945453122 0.0511651859 0.0373263955
      0.0619998835 0.249590144 0.046027638 0.0322721787 0.0442560688
      0.112833798 0.122458741 0.0765344352 0.0922078118 0.145053983
      0.249590144 0.183292657 0.249590144 0.222524881 0.222707659
      0.249590144 0.212614313 0.249590144 0.14713639 0.249590144
      0.165567681 0.249590144 0.207872033 0.249590144 0.119230635
      0.023895612 0.0133403474 0.211832941 0.302382857 0.039730899
      0.0115371216 0.0404824242 0.176137149 0.0595364273 0.00329551636
      0.00390051748 0.302382857 0.302382857 0.0261597 0.00468218187
      0.0217058025 0.096040085 0.23534967 0.110893153 0.183822632
      0.270864725 0.302382857 0.100331336 0.105321087 0.1666044
      0.277688354 0.08577694 0.016558012 0.0596169308 0.302382857
      0.302382857 0.0385236628 0.0205058157 0.0870493129 0.136533737</_>
    <_>
      0.144009084 0.0605437495 0.0719966292 0.182773203 0.2154589
      0.203160301 0.137605563 0.130759835 0.216455325 0.111450396
      0.0718836635 0.0294962227 0.183996767 0.216455325 0.201750845
      0.124750793 0.167100891 0.159573168 0.163604274 0.139626801
      0.093832776 0.20451732 0.216455325 0.200251833 0.136177868
      0.216455325 0.0943020135 0.200835809 0.118406214 0.0613638982
      0.216455325 0.216455325 0.216455325 0.195969582 0.210252136
      0.126546606 0.0558067299 0.0756561011 0.0375382751 0.180051327
      0.248924538 0.248924538 0.248924538 0.190360129 0.0587356128
      0.0956793875 0.120174579 0.0560358725 0.177081987 0.248924538
      0.248058453 0.248924538 0.159966901 0.101082407 0.0659687072
      0.0644517541 0.0428644642 0.163335711 0.248924538 0.248924538
      0.248924538 0.0975240916 0.112090327 0.0714090317 0.0779622272
      0.0604357645 0.0941638052 0.19472301 0.248924538 0.248924538
      0.116489708 0.0762253404 0.086868085 0.138612077 0.0934481919
      0.167245761 0.186007723 0.168291003 0.201828659 0.123580664
      0.156672701 0.159473121 0.144428924 0.103860028 0.12707606
      0.19037962 0.144127339 0.189492449 0.209752783 0.209752783
      0.12560983 0.153579652 0.165613189 0.147798166 0.147731438
      0.209752783 0.209752783 0.165626347 0.103112429 0.16805461
      0.117011108 0.189745948 0.17738983 0.209752783 0.168320075
      0.174871743 0.209752783 0.209752783 0.102749221 0.0994721204
      0.0555172116 0.0771014467 0.253536791 0.127561137 0.13201721
      0.182215765 0.0765701756 0.115808353 0.0543503202 0.0810803324
      0.133017257 0.232013017 0.166872069 0.148701265 0.195398748
      0.112003826 0.148767859 0.0947450772 0.0686511025 0.0587123185
      0.25495097 0.165886089 0.190302968 0.211296678 0.234026939
      0.222054541 0.0849051476 0.0937669203 0.144415721 0.25495097
      0.195957765 0.25495097 0.220901892 0.25495097 0.0947999805
      0.0313539617 0.0803520605 0.140351444 0.263890356 0.263890356
      0.186473012 0.164969951 0.168707386 0.0388944261 0.0347266458
      0.0520768426 0.0802885592 0.234949306 0.263890356 0.153154925
      0.0698232055 0.052564349 0.218710437 0.064746432 0.0724029467
      0.209147111 0.263890356 0.263890356 0.184198841 0.184631988
      0.255753964 0.0558910146 0.0393869095 0.05422787 0.168699339
      0.263890356 0.263890356 0.0963406861 0.050647378 0.0527944677
      0.0660121515 0.0995230451 0.130538091 0.148801953 0.221973658
      0.221973658 0.102368355 0.150230423 0.0977065563 0.109709211
      0.0718928427 0.172200337 0.141045541 0.221973658 0.218624204
      0.126107424 0.196975276 0.206099048 0.0903265625 0.0965419784
      0.154133961 0.221973658 0.221973658 0.221973658 0.0951021165
      0.142037466 0.0931316167 0.166803911 0.121600568 0.215943649
      0.221973658 0.162116081 0.221973658 0.156005323 0.221973658
      0.166053101 0.149376154 0.0715489462 0.0250704512 0.0509616248
      0.287038088 0.130877987 0.162070528 0.130052835 0.195285246
      0.213528469 0.0533575043 0.0177902505 0.0874373093 0.287038088
      0.140616611 0.172675669 0.120916158 0.228184491 0.17705825
      0.0755096897 0.0255802292 0.0606765486 0.287038088 0.263006926
      0.263736486 0.115328446 0.174614057 0.155029237 0.0549543165
      0.049552884 0.101587959 0.287038088 0.198640004 0.173990488
      0.0983086079 0.150497824 0.159265012 0.028364893 0.00897240173
      0.158023521 0.345876545 0.261787146 0.117128961 0.0760183632
      0.149578929 0.0235693734 0.0149802212 0.0271035768 0.167506099
      0.345876545 0.326061577 0.0705321357 0.0188706554 0.0232914686
      0.0470947027 0.0261680875 0.0356854759 0.17449975 0.345876545
      0.265018553 0.0739084631 0.0520557463 0.0651029795 0.00340181892
      0.00623137131 0.0390678383 0.205346435 0.345876545 0.224571481
      0.054581698 0.0127004273 0.00670079235 0.0762258992 0.0449122787
      0.105636358 0.241172671 0.241172671 0.241172671 0.1297995
      0.104297146 0.062332835 0.136695206 0.139829591 0.177894443
      0.241172671 0.144598559 0.165614963 0.15001981 0.181746364
      0.11647363 0.0513014123 0.0354778543 0.12853314 0.241172671
      0.241172671 0.241172671 0.161549449 0.0880090818 0.0472643673
      0.179273605 0.127289668 0.17128095 0.241172671 0.241172671
      0.148439482 0.182112053 0.14068532 0.164405867 0.264565855
      0.117700376 0.0674940571 0.0721043423 0.264565855 0.264565855
      0.214427337 0.0910367146 0.264565855 0.210706994 0.18120347
      0.170941189 0.145391718 0.264565855 0.182795271 0.138877049
      0.100268245 0.200491026 0.203767568 0.0779044032 0.0697581917
      0.0900007337 0.263030291 0.0752640069 0.0555957444 0.0553202517
      0.186878622 0.160483927 0.154841408 0.138578624 0.15280588
      0.184221119 0.0826542154 0.043766398 0.0630886331 0.153402895
      0.0182184111 0.108900495 0.101065464 0.171117932 0.356173366
      0.232472584 0.0492938422 0.0498109609 0.0525236353 0.00506637245
      0.029025184 0.0689579993 0.216593757 0.356173366 0.231758863
      0.03331035 0.0073375823 0.00894863997 0.0895119086 0.133129746
      0.102756262 0.205098718 0.356173366 0.199407101 0.0197791308
      0.0336857401 0.0772080123 0.0262751002 0.0452272184 0.109728925
      0.25398007 0.356173366 0.248699307 0.0324590243 0.00752610015
      0.0160404686 0.0496897772 0.0817348734 0.135738894 0.233396977
      0.236455753 0.202986345 0.0684300289 0.0469579883 0.0600609742
      0.18036361 0.106949165 0.134186506 0.208098769 0.236455753
      0.202723771 0.108307377 0.0984733999 0.16838184 0.0742559731
      0.113235094 0.183923304 0.236455753 0.236455753 0.214306429
      0.0806013271 0.0693136379 0.061984852 0.188842282 0.167163327
      0.211174011 0.236455753 0.236455753 0.236455753 0.112823904
      0.143470973 0.14699012 0.137673944 0.0857641846 0.118149303
      0.141722992 0.238561705 0.103422925 0.0433203205 0.0835439116
      0.106694937 0.126624495 0.0630404204 0.107278824 0.185342267
      0.238561705 0.157148167 0.0556836054 0.0699169561 0.107912838
      0.238561705 0.228751913 0.220067844 0.174646586 0.238561705
      0.189823762 0.173016921 0.191225857 0.238561705 0.132692069
      0.101034522 0.203032702 0.185046449 0.238561705 0.238561705
      0.113191314 0.126652464 0.178377911 0.0703959242 0.0445386358
      0.0568371005 0.203708261 0.342356414 0.134336963 0.0173125435
      0.0258357171 0.054129675 0.0254176166 0.0377319083 0.124157391
      0.264463872 0.342356414 0.140485957 0.0287172794 0.0342514738
      0.0184943154 0.0370382071 0.0863999426 0.189640552 0.269184917
      0.342356414 0.147264972 0.0437079594 0.0423599705 0.0584699661
      0.0281352233 0.0955562815 0.189552426 0.342356414 0.342356414
      0.166867509 0.0391898975 0.0707087293 0.0335081033 0.0591079034
      0.0705287531 0.199573293 0.215239316 0.222051531 0.158659309
      0.114290468 0.0794614404 0.0564347208 0.109934852 0.10085725
      0.193442762 0.208932713 0.187422767 0.172480077 0.131772146
      0.132992432 0.0982733443 0.0966951028 0.175443217 0.222051531
      0.222051531 0.222051531 0.222051531 0.117697462 0.0896050408
      0.13289088 0.145867139 0.15205878 0.164169073 0.222051531
      0.222051531 0.222051531 0.212280884 0.107219346 0.201167211
      0.158336297 0.160881624 0.158234909 0.153867304 0.238765031
      0.169859409 0.193417698 0.139888227 0.238765031 0.121864654
      0.179299071 0.238765031 0.212703392 0.238765031 0.185511559
      0.106830731 0.139883667 0.103216119 0.100437492 0.136879966
      0.190240756 0.238765031 0.14603591 0.125953376 0.0697383732
      0.0554924384 0.0939947218 0.136711359 0.238765031 0.238765031
      0.238765031 0.163434729 0.0972295776 0.0625397414 0.0933556557
      0.0359244645 0.0629075989 0.12412452 0.235886365 0.279399246
      0.302996606 0.105607249 0.0367442779 0.0508631468 0.0232857428
      0.0478052273 0.098353982 0.14050214 0.302996606 0.302996606
      0.12334951 0.0189249068 0.036783319 0.0388430618 0.0803909674
      0.121106923 0.246952474 0.302996606 0.302996606 0.0778706893
      0.0232875403 0.0467401072 0.0136759859 0.0484430641 0.100235
      0.141226053 0.302996606 0.302996606 0.10110911 0.0131785907
      0.0234403014 0.0332951732 0.118810788 0.188026905 0.154673442
      0.234180972 0.234180972 0.154539496 0.0446632057 0.0476391688
      0.12914592 0.142619208 0.187746838 0.0988485962 0.234180972
      0.218893111 0.214552805 0.170972928 0.0827054307 0.197217256
      0.113011487 0.15716964 0.174337149 0.234180972 0.234180972
      0.0885064304 0.0521715768 0.0414002575 0.0919887051 0.140443534
      0.130860656 0.156661421 0.234180972 0.178055823 0.234180972
      0.197185293 0.0873197243 0.181879953 0.160121426 0.0945572555
      0.191393897 0.2264788 0.131478101 0.167123392 0.0652570948
      0.0427870043 0.0948204026 0.177064463 0.137040958 0.2264788
      0.2264788 0.147865951 0.117642403 0.0550209358 0.0344860032
      0.0702992454 0.2264788 0.101233482 0.187955633 0.2264788
      0.206944346 0.156311467 0.184606358 0.194071949 0.212589681
      0.2264788 0.128640026 0.181621522 0.2264788 0.2264788 0.152573168
      0.0619294979 0.0563786067 0.2264788 0.0883211046 0.0569138378
      0.132202432 0.316691488 0.316691488 0.0614409111 0.034968622
      0.0425024927 0.0266796984 0.0491181202 0.0730568916 0.0988344327
      0.316691488 0.316691488 0.0577682965 0.0327688418 0.0660966262
      0.0220830645 0.128383219 0.0620146878 0.163887367 0.316691488
      0.316691488 0.0933726504 0.0470288172 0.0475879237 0.0926509053
      0.0623035282 0.0391361862 0.154477969 0.316691488 0.316691488
      0.061104998 0.0515313521 0.146391794 0.07487306 0.187426969
      0.143695086 0.177915245 0.229950428 0.229950428 0.0721491873
      0.0509606972 0.108741716 0.0629259422 0.222432047 0.105223618
      0.165536717 0.229950428 0.141415417 0.159082726 0.153351486
      0.0795796737 0.123485871 0.21328029 0.0851010382 0.141468167
      0.218459636 0.229950428 0.0920634568 0.0637468472 0.229950428
      0.160563976 0.229950428 0.0885225683 0.123348907 0.221035644
      0.216374025 0.129668072 0.122519329 0.201134801 0.203154966</_>
    <_>
      0.165213421 0.043714907 0.0445826016 0.144178122 0.225000188
      0.225000188 0.162434548 0.137607813 0.161614388 0.0781170428
      0.0658980608 0.0321042351 0.0874077231 0.225000188 0.216994315
      0.160397202 0.130478561 0.126585513 0.225000188 0.0367603526
      0.0670258477 0.170618832 0.225000188 0.225000188 0.219374359
      0.138518333 0.225000188 0.192025661 0.0678205639 0.0431188419
      0.14815633 0.225000188 0.225000188 0.22407335 0.159191862
      0.225000188 0.104112625 0.0977693424 0.123633504 0.0733458251
      0.195888177 0.137358159 0.167077556 0.174019083 0.156350046
      0.215730831 0.207460806 0.215730831 0.0830002278 0.215730831
      0.13117741 0.147085369 0.179761186 0.159274265 0.170975834
      0.102055535 0.108181119 0.110872313 0.215730831 0.19480361
      0.157766089 0.153811425 0.185767233 0.215730831 0.20192571
      0.167221054 0.131516978 0.215730831 0.215730831 0.164953262
      0.1260584 0.175735757 0.209161595 0.182681307 0.11698626
      0.0816188976 0.219638705 0.190865532 0.109125234 0.144551963
      0.102726139 0.197568014 0.10026592 0.0880804732 0.13655819
      0.219638705 0.219638705 0.183775231 0.219638705 0.206557229
      0.219638705 0.219638705 0.107157573 0.142040193 0.219638705
      0.189957455 0.117598899 0.140291303 0.146761179 0.14777036
      0.147777438 0.0901375785 0.116449662 0.219638705 0.160305247
      0.0991910025 0.195603505 0.144015387 0.157318741 0.0677431896
      0.0671811998 0.12000604 0.227886543 0.227886543 0.170388326
      0.197592661 0.158904567 0.161869809 0.0635345504 0.0331283063
      0.0992804915 0.227886543 0.227886543 0.154868737 0.16971314
      0.190298647 0.122892477 0.220358774 0.10426908 0.159109414
      0.227886543 0.227886543 0.227886543 0.227886543 0.145652562
      0.0894644409 0.112651214 0.0790993497 0.123737633 0.227886543
      0.227886543 0.0919734016 0.151386321 0.109206706 0.109600589
      0.0607560836 0.0730528012 0.135777965 0.231883436 0.220018789
      0.170118675 0.114881136 0.134489536 0.146265253 0.0960011929
      0.0486676954 0.22388351 0.274217099 0.228194699 0.158627808
      0.138505459 0.187706411 0.049761001 0.0534906387 0.16637525
      0.170217127 0.274217099 0.247785583 0.0968787745 0.0745840669
      0.0583052598 0.116523027 0.0363817252 0.0912806541 0.274217099
      0.274217099 0.25355354 0.126431465 0.108974509 0.150746077
      0.106836207 0.099577114 0.0566977412 0.174589768 0.321867198
      0.108126171 0.0914878622 0.142423034 0.150926948 0.109820642
      0.0791434571 0.0804562196 0.0961326286 0.321867198 0.0899861753
      0.0899846107 0.153949887 0.120329931 0.112141073 0.0647982284
      0.0703520328 0.26994887 0.321867198 0.189452827 0.0981281176
      0.0983226448 0.136001557 0.174255967 0.119421422 0.0843144804
      0.2263906 0.321867198 0.190164879 0.152172327 0.126853853
      0.170720398 0.146722928 0.205937982 0.110475756 0.119640149
      0.16546154 0.17535466 0.221074298 0.14409788 0.149268329
      0.0623531453 0.100551777 0.0906265229 0.125259221 0.234845266
      0.210399687 0.0486268699 0.0662060827 0.0687935501 0.234845266
      0.135790631 0.138989285 0.173604116 0.234845266 0.200545549
      0.160709232 0.172635093 0.234845266 0.234051615 0.103060499
      0.100366466 0.200072765 0.234845266 0.154688731 0.171594813
      0.117425427 0.203293264 0.023773076 0.0342782103 0.0897448286
      0.129301652 0.281384408 0.192948118 0.0320229903 0.0325656869
      0.0238571968 0.0533950515 0.0603312254 0.0902128443 0.211529762
      0.281384408 0.20034042 0.0323631875 0.0460570864 0.0409149453
      0.258288085 0.0904654637 0.0499217287 0.159888431 0.281384408
      0.190602049 0.281384408 0.181043804 0.146079943 0.073183611
      0.117150933 0.149433017 0.220754832 0.281384408 0.260312319
      0.172639877 0.209908053 0.07336054 0.094347015 0.12024565
      0.131615177 0.24291952 0.293061912 0.195413932 0.0437353328
      0.0414012931 0.0619985498 0.133077785 0.192395642 0.150211498
      0.293061912 0.293061912 0.168715477 0.0738621727 0.0421229117
      0.110750355 0.1085454 0.152254388 0.219019502 0.157021165
      0.293061912 0.191571131 0.0418927483 0.128426984 0.0895887166
      0.119345866 0.163380146 0.194562882 0.137466595 0.293061912
      0.113257669 0.0365783386 0.0644876435 0.10232453 0.222465381
      0.0712471455 0.0932015851 0.11954122 0.213838875 0.162887603
      0.0763353184 0.0852798223 0.222465381 0.222465381 0.0838834196
      0.0871918425 0.122789256 0.198731735 0.100115679 0.171628907
      0.117703684 0.215710029 0.222465381 0.0919356272 0.188228965
      0.21351108 0.222465381 0.180482849 0.101403855 0.0986309126
      0.191136241 0.222465381 0.0474975705 0.106462009 0.162006497
      0.222465381 0.157087505 0.174506903 0.21403335 0.222465381
      0.16139701 0.066974178 0.0837644711 0.120236412 0.164376751
      0.0912573561 0.21843937 0.185373634 0.114610948 0.0976748839
      0.156042501 0.21843937 0.21843937 0.21843937 0.170239091
      0.21843937 0.183720663 0.087810427 0.100420155 0.0565742254
      0.0962473378 0.161249906 0.21843937 0.113851734 0.164188147
      0.203268245 0.112283155 0.145534292 0.146284193 0.173007607
      0.21843937 0.21843937 0.168828622 0.21843937 0.21843937 0.19509092
      0.100187264 0.13699317 0.221736893 0.221736893 0.221736893
      0.14609094 0.0844236985 0.120605648 0.109856375 0.108562358
      0.0948762074 0.104893953 0.116255827 0.221736893 0.0847989395
      0.0612590984 0.0895755216 0.108686112 0.181298733 0.167864591
      0.157636806 0.171500996 0.155261397 0.118667625 0.199200824
      0.211685434 0.221736893 0.221736893 0.221736893 0.151088417
      0.144928128 0.221736893 0.218912199 0.18445386 0.177587882
      0.221736893 0.151935056 0.0762179792 0.219664499 0.252015233
      0.254767746 0.1286598 0.0437633432 0.0670026392 0.126774445
      0.131833717 0.0178173035 0.0741876811 0.178300261 0.254767746
      0.191632047 0.0904597715 0.114428647 0.147875577 0.128714532
      0.124288745 0.205874696 0.234374166 0.254767746 0.192364037
      0.0891006663 0.196424156 0.0914020017 0.121756613 0.11354278
      0.0930259973 0.198086008 0.254767746 0.254767746 0.0918534845
      0.20316872 0.10881535 0.139552221 0.0634962246 0.0792594999
      0.245635137 0.245635137 0.245635137 0.177948117 0.19729653
      0.173633352 0.155977562 0.120446466 0.121795751 0.121447131
      0.139971927 0.110323519 0.224084631 0.209615156 0.23707068
      0.150200561 0.149829805 0.12814711 0.245635137 0.245635137
      0.245635137 0.127498597 0.129481703 0.160318345 0.147483408
      0.143354237 0.166313112 0.164098024 0.0763024241 0.0796840191
      0.0787058622 0.0720024854 0.117743827 0.169182003 0.158815786
      0.10688097 0.0913774222 0.154478401 0.0924042985 0.160901278
      0.16171214 0.249495894 0.25285846 0.25285846 0.176843166
      0.189396068 0.25285846 0.25285846 0.207081214 0.154673085
      0.25285846 0.085167706 0.12138059 0.119562201 0.098736681
      0.170008853 0.0681596771 0.0954357609 0.0714713261 0.0697820932
      0.0795579553 0.0597196706 0.15192686 0.232527047 0.25285846
      0.204846427 0.125743806 0.0824897885 0.0964318812 0.152056187
      0.0902525261 0.132358059 0.189293355 0.290647 0.161858797
      0.127446324 0.183148801 0.0708189234 0.130735084 0.110561311
      0.0714955628 0.156242624 0.290647 0.128264621 0.130187109
      0.207365677 0.0727472976 0.117513947 0.0442761183 0.239523456
      0.278755844 0.290647 0.251819462 0.118895076 0.0585097559
      0.0608527176 0.100141585 0.0384652801 0.113238297 0.244560897
      0.290647 0.128812119 0.0997199938 0.0598772131 0.0570924282
      0.17574288 0.175346732 0.141806364 0.263060391 0.278032213
      0.206449986 0.128226325 0.165232077 0.105857067 0.159310475
      0.149010226 0.145732701 0.159788892 0.116747469 0.139737219
      0.0831885636 0.12613669 0.121605337 0.15054515 0.141550392
      0.147805557 0.278032213 0.278032213 0.141034827 0.101900868
      0.0895128921 0.0780911744 0.164969742 0.176366314 0.158044815
      0.10918539 0.180060074 0.142992124 0.143520236 0.195299163
      0.189508095 0.0948739797 0.124715671 0.123586476 0.0944566205
      0.224451408 0.0973817781 0.12515904 0.121870048 0.068724893
      0.0630711466 0.0678476766 0.162383601 0.303643733 0.338646799
      0.169687718 0.104906902 0.0838516653 0.0482240319 0.0807649419
      0.0980333686 0.141362458 0.0957277641 0.261799783 0.125742331
      0.14780131 0.141329676 0.121020973 0.150525093 0.127431512
      0.233733296 0.27894628 0.338646799 0.26096943 0.0805089399
      0.0855588317 0.0880517587 0.101131998 0.0456518717 0.12013194
      0.297600299 0.30194208 0.24639231 0.0929452628 0.0332450792
      0.0548309311 0.0802266598 0.038730979 0.0748280361 0.30194208
      0.30194208 0.137200236 0.0575187616 0.0240279157 0.0493405871
      0.175736889 0.0772773325 0.0823041499 0.282722265 0.30194208
      0.183298945 0.038513191 0.0112017477 0.140788555 0.106740229
      0.0612924807 0.0582213961 0.298957974 0.30194208 0.125211805
      0.0406154655 0.0395380221 0.0910633579 0.0915122777 0.09240821
      0.0877408534 0.287319154 0.287319154 0.153427154 0.0608875342
      0.0476277135 0.0940249041 0.110874772 0.123080805 0.105511568
      0.109944694 0.22653763 0.125873372 0.0893575549 0.0834103003
      0.123583451 0.147576123 0.0917791426 0.0723031014 0.287319154
      0.287319154 0.274113476 0.0722302571 0.112468153 0.185564548
      0.167022884 0.190987706 0.151811644 0.216168478 0.287319154
      0.212409869 0.0549291968 0.0492704287 0.160555944 0.081281364
      0.0955606326 0.102000751 0.0779068321 0.224880785 0.126367822
      0.110049255 0.105657808 0.117204227 0.108234279 0.0886542574
      0.12940304 0.153679416 0.302484065 0.302484065 0.10578917
      0.129441544 0.129696339 0.173448294 0.204418883 0.172828987
      0.119692348 0.248767301 0.144457474 0.10602504 0.0498844646
      0.144712836 0.0989810526 0.0990399197 0.125017568 0.164453477
      0.302484065 0.302484065 0.263733923 0.094055146 0.127860844</_>
    <_>
      0. 0.0143842036 0.0978383124 0.346023023 0.397449285 0.0954643041
      0.00750107178 8.37154803e-05 0. 0. 0.00817617681 0.0227259509
      0.227421224 0.397449285 0.118997909 0.00309685036 7.4717791e-05 0.
      0.0240300819 0.00833829865 0.0182079934 0.265709639 0.397449285
      0.147326708 0.0157422684 6.51120354e-05 0.0228216648 0.0020188028
      0.00776870176 0.0244299676 0.219468519 0.397449285 0.126932666
      0.00288597378 0.00297699869 0.000531932805 0.0110527184
      0.0321751088 0.0319230519 0.202782169 0.407335967 0.157494023
      0.0233560391 0.00122982066 0.000268809206 0.0280563831
      0.0711988062 0.0365210585 0.140466094 0.407335967 0.205829486
      0.067893602 0.00876841508 0.00105938071 0.0126581024 0.027493678
      0.0959797055 0.234602094 0.407335967 0.159452975 0.0147948107
      0.0111075481 0.00316960481 0.00760010211 0.00969542563 0.106708765
      0.220627308 0.407335967 0.193930104 0.0284268837 0.00560713187
      0.00321815768 0.00600646995 0.00680487556 0.00413998123
      0.0899200737 0.467821985 0.0488816872 0.00995743088 0.00820149761
      0.0153216952 0.0157928281 0.0018391927 0.00288891955 0.188017666
      0.467821985 0.0652630553 0.00091574277 0.0288778748 0.066109322
      0.0304703992 0.0024911596 0.00968581066 0.0775105581 0.467821985
      0.053709127 0.00466466229 0.00858415104 0.0197286401 0.130842209
      0.0101420125 0.0110129472 0.15719679 0.467821985 0.0541175008
      0.000374225638 0.0367540158 0.0842945948 0.0396998525 0.0150262751
      0.0173708964 0.135543793 0.456539214 0.146352649 0.0427115336
      5.20970534e-05 0.0410643145 0.00411138637 0.00713195652
      0.0203630645 0.123632036 0.456539214 0.100835517 0.00560778426
      0.00779312802 0.00325704599 0.0134179806 0.00591385644
      0.0154856853 0.165357322 0.456539214 0.141751289 0.0204784591
      0.000781455776 0.0153144347 0.0038854864 0.0040034093 0.0120232143
      0.175088823 0.456539214 0.101509154 0.00967319775 0.0153401503
      0.0165452529 0.0196682997 0.0347763151 0.0782994181 0.116161548
      0.383872926 0.170603082 0.0229067877 0.0219724756 0.00964985695
      0.0097224107 0.0218009781 0.0711492822 0.146844864 0.383872926
      0.238272846 0.0399962664 0.00610365113 0.00339026027 0.0168776121
      0.0350203738 0.0334414802 0.197181523 0.383872926 0.217736229
      0.04553077 0.0435743891 0.0482986383 0.0104493527 0.0398956835
      0.0193566345 0.230135277 0.383872926 0.330739588 0.0946263373
      0.0261089504 0.0200182088 0.0206998717 0.00232253922 0.00969450362
      0.0724582672 0.433840185 0.060762994 0.00759123592 0.00146054174
      0.00281773927 0.0888914093 0.00499223405 0.0430208184 0.225548878
      0.433840185 0.0718812644 0.00235334621 0.00509999786 0.0120228203
      0.00134851795 0.00371599104 0.00953206699 0.0899415463 0.433840185
      0.0994510502 0.0167357791 0.00264024711 0.000648332818
      0.00325934915 8.7281318e-05 0.128305808 0.30294323 0.433840185
      0.201331809 0.0104959765 2.95113205e-05 0.000529615558
      0.00120861211 0.000407168671 0.00576459011 0.145983458 0.462119579
      0.0923578739 0.00131553388 0.000971739297 0.00151609408
      0.00266714022 0.00557543011 0.00993674807 0.189598769 0.462119579
      0.0642048046 0.0064788633 0.00845265668 0.0101329274 0.00118980126
      2.7144577e-05 0.00448246393 0.133169666 0.462119579 0.116137356
      0.00173796376 0.00107278477 0.00131627545 0.00566951279
      0.00763782347 0.0418127552 0.158178508 0.462119579 0.112258069
      0.0104633579 0.00558615895 0.00330601027 0.021866668 0.0423838533
      0.043646995 0.205850944 0.389663041 0.115743935 0.0490511619
      0.0384775363 0.0607967079 0.0190566201 0.0355538763 0.044358179
      0.227530524 0.389663041 0.163812473 0.0983314365 0.04082454
      0.0530324653 0.0327032655 0.0448591672 0.112010904 0.204270273
      0.389663041 0.158642665 0.0483750068 0.0364012681 0.0421036966
      0.0252100695 0.0311824791 0.0648147389 0.3283391 0.389663041
      0.129841655 0.0585461706 0.0314297751 0.0450207815 0.000760882627
      0.00122214097 0.0091208769 0.0881940499 0.454893112 0.0650232434
      0.0136619695 0.00389004126 0.00289983884 0.000305518915 0.
      0.0862860754 0.237311542 0.454893112 0.112929285 0.00563572021
      0.000127311345 0.000322444597 0.000873046985 0.000491783139
      0.00507323677 0.183039218 0.454893112 0.0260002539 0.00512010464
      0.00158084941 0.00256231427 0.000379877805 0. 0.0104154916
      0.204851002 0.454893112 0.0508077331 0.000944423955 0.000364489679
      0.000453222397 0.00103403477 0. 0.00441694772 0.110934496
      0.448417634 0.0949834958 0.00144664291 0.000583388377
      0.00172281393 0.0135247773 0.0131130107 0.0284823924 0.180566147
      0.448417634 0.140638813 0.0177562181 0.00223436253 0.00628534472
      0.000961935613 0.00298722461 0.00865853298 0.166792408 0.448417634
      0.111144364 0.0019507925 0.00242977683 0.00170206826 0.0108764349
      0.0104627414 0.00847457163 0.236125946 0.448417634 0.139464304
      0.0111463573 0.00223981868 0.00623293966 0.0628152713 0.0431517437
      0.0741033927 0.226419494 0.373250574 0.164511979 0.0273598544
      0.0105150072 0.0236994866 0.0532934852 0.025676664 0.0445035398
      0.286558479 0.373250574 0.110751271 0.00972907897 0.00662750192
      0.0181870386 0.0767625198 0.046253521 0.0375857353 0.272767693
      0.373250574 0.18976 0.0297466759 0.0138618704 0.0355470255
      0.0761749446 0.0364501141 0.0366404727 0.2806122 0.373250574
      0.19138065 0.0219328217 0.0104747275 0.0315507911 0.00358639588
      0.00139855675 0.00349170901 0.224079728 0.417249352 0.0311239399
      0.000979613978 4.24363097e-05 0.00102938979 0.000398337201
      4.85292821e-06 0.00210444094 0.19246982 0.417249352 0.0719051361
      0.00273215794 0.000655851443 0.000425299542 0.00548735913
      0.00253703562 0.00863837078 0.218864545 0.417249352 0.060487587
      0.00210949453 0.000195744215 0.00201923912 0.000616341073
      0.000609766634 0.0308373403 0.373253345 0.417249352 0.118511878
      0.00334530114 0.000675940595 0.0002005274 0.00248436863
      0.00346752093 0.00562853785 0.111915238 0.461480051 0.13796176
      0.0124558443 0.00310179801 0.00136209466 0.00486559235
      0.00300813327 0.00215414981 0.127282515 0.461480051 0.0729928538
      0.00894718803 0.00588810537 0.0039878157 0.00318336254
      0.0153908301 0.0339820944 0.126553088 0.461480051 0.187407583
      0.0540028885 0.00876838248 0.00648780307 0.0148697225
      0.00597528694 0.00547351083 0.171828434 0.461480051 0.0660672635
      0.0146695739 0.00594610209 0.00786802545 0.0412780344 0.0224842113
      0.0175214615 0.180727437 0.428951472 0.106439061 0.0357802361
      0.0483436026 0.05462832 0.0365288667 0.0183649864 0.0298554767
      0.214091927 0.428951472 0.154847547 0.0347038768 0.0393971093
      0.0558125935 0.0564651787 0.0226954278 0.0287232809 0.177133054
      0.428951472 0.0820454434 0.0258878134 0.0420176126 0.0503946394
      0.0280327424 0.0162411667 0.0604198687 0.228054166 0.428951472
      0.143543646 0.0242283996 0.033425767 0.0416076928 0.00255867536
      0.00129164604 0.0116665596 0.138930961 0.437573433 0.0623382069
      0.00260936143 0.000781849434 0.0038777655 0.00142548245
      0.00169947639 0.0388526954 0.350424826 0.437573433 0.119999155
      0.00317281275 0.000113574053 0.00026764386 0.00294468109
      0.00204194919 0.0109900543 0.104817651 0.437573433 0.0708409771
      0.00236936798 0.00099213561 0.00350843742 0.0138499662
      0.00310792378 0.0168094262 0.194908425 0.437573433 0.112669811
      0.0179603323 4.16130388e-05 0.00473265536 0.00545291929
      0.0233912542 0.0480307192 0.147028074 0.453365713 0.0988053456
      0.0351936929 0.0363057703 0.0273629241 0.0131035978 0.0115486896
      0.00918641035 0.185975522 0.453365713 0.0531624593 0.00836496893
      0.0086793676 0.0138882669 0.0222191531 0.0133526772 0.0377923325
      0.167838976 0.453365713 0.136365771 0.0841167197 0.0567682907
      0.028838113 0.00837720372 0.0116532976 0.00941901933 0.171333417
      0.453365713 0.0857363194 0.0150819281 0.0148050589 0.0125276921
      0.050957717 0.0482570529 0.0454936661 0.145402551 0.445282519
      0.119595215 0.0235974919 0.0343606994 0.0535223931 0.0214366317
      0.0338174552 0.0704609901 0.174111441 0.445282519 0.124128364
      0.0174650848 0.0133746536 0.0197718255 0.0365209244 0.054459542
      0.0435113087 0.152322024 0.445282519 0.133798748 0.02303092
      0.0329698212 0.0477241464 0.0273372866 0.0363883488 0.0661748275
      0.185127929 0.445282519 0.0958992764 0.0248148423 0.0121146217
      0.0190932844 0.00426936941 0.00300812745 0.00895435177
      0.0779111311 0.483817071 0.0467893928 0.00176774815 0.000574552047
      0.00177023443 0.0363949724 0.0067317239 0.0107665556 0.127415121
      0.483817071 0.0627436861 0.00958350673 7.3870302e-05 0.00858338177
      0.00543105975 0.00316824019 0.00930010434 0.078375943 0.483817071
      0.0487486199 0.00388854044 0.000982481637 0.00205275114
      0.0244629476 0.00693162996 0.0100385882 0.118965469 0.483817071
      0.0712156296 0.000472397485 0.000307142065 0.00426598638
      0.0304604154 0.0250207689 0.041208785 0.143489033 0.376067638
      0.211735666 0.140743285 0.0716647208 0.0101935733 0.00563450158
      0.00524845067 0.0102984244 0.232685402 0.376067638 0.138078809
      0.0339571424 0.0222305264 0.00386297028 0.047596395 0.0462309383
      0.0704190359 0.168160766 0.373068005 0.206796035 0.112386286
      0.0601790473 0.0294070151 0.0100866808 0.0212414451 0.0429592393
      0.361974806 0.376067638 0.169157818 0.0590488501 0.0193838421
      0.0245560613 0.0120135695 0.0242562573 0.0389695168 0.234459564
      0.380400628 0.0867526084 0.0166759156 0.0141955409 0.0110987453
      0.0166071989 0.0249053314 0.086086683 0.179463729 0.380400628
      0.0581730902 0.036138989 0.0149975279 0.0134107005 0.0446959734
      0.135471955 0.10085129 0.380400628 0.380400628 0.114990778
      0.0364559107 0.0154937766 0.036411576 0.0601771548 0.138131261
      0.110762373 0.219230756 0.380400628 0.148265034 0.0839453042
      0.0332117565 0.0437318906 0.00306888158 0.00390699785 0.0137532288
      0.0806628093 0.478626162 0.0448628999 0.00674842903 0.00247610221
      0.00249591679 0.00220208778 0.00319689745 0.00447866321
      0.117632695 0.478626162 0.0600690991 0.00111898524 0.000346437504
      0.000680512167 0.00485337898 0.00866579078 0.0115379011
      0.116211206 0.478626162 0.0624463372 0.0166411307 0.00575866643
      0.00441689463 0.00022153795 0.000266986404 0.00395947322
      0.169712648 0.478626162 0.0750825629 0.0119026145 0.00711875223
      0.000361513084</_>
    <_>
      0.0744588152 0.0298860315 0.115640298 0.266119838 0.282360911
      0.128290102 0.122302435 0.0556120612 0.099192217 0.136035815
      0.0278033521 0.130214378 0.172489747 0.282360911 0.202918395
      0.072097823 0.041429054 0.0846987814 0.0786358789 0.044269789
      0.125259697 0.248103991 0.282360911 0.241574556 0.143266276
      0.0771058872 0.0927470401 0.119893149 0.0860219672 0.215044931
      0.282360911 0.282360911 0.261313409 0.0588482544 0.122925259
      0.0928115249 0.200534865 0.0288901404 0.0731729716 0.11428085
      0.259527206 0.233511657 0.066026561 0.0619548447 0.121975288
      0.216022 0.0443160608 0.0175353643 0.0922906771 0.259527206
      0.251725793 0.113363102 0.123165414 0.213209808 0.232559204
      0.152260393 0.20954968 0.259527206 0.259527206 0.222918138
      0.082021229 0.128098696 0.145954341 0.195997059 0.0644827634
      0.0882592648 0.127943575 0.222975329 0.073377125 0.0947286338
      0.104564726 0.198924005 0.0824168548 0.0337251015 0.0169489626
      0.0942380503 0.373578995 0.214105695 0.13255091 0.0907611474
      0.131195545 0.0184849706 0.00833181478 0.0232451186 0.354106545
      0.378075898 0.163246825 0.081256479 0.0273434035 0.0325823463
      0.0574794859 0.0425697789 0.0408273265 0.117286764 0.280841351
      0.0759110823 0.062134698 0.0793313757 0.137665614 0.0286583733
      0.0167806335 0.0416656323 0.378075898 0.378075898 0.117678203
      0.063388668 0.0477987863 0.0566101335 0.0383024365 0.0703804567
      0.0854540169 0.227057457 0.302375615 0.109776452 0.0548399836
      0.0207940526 0.028904669 0.0432386734 0.0952639058 0.116639808
      0.310235828 0.310235828 0.209160656 0.0848930851 0.0577691719
      0.0358943455 0.0622019097 0.0893482789 0.0849738941 0.273431718
      0.310235828 0.170408711 0.0495370179 0.0339313 0.0380719528
      0.0506857038 0.0955732688 0.122012421 0.310235828 0.310235828
      0.253382951 0.147636071 0.118182033 0.0895276442 0.0936130732
      0.097828947 0.0942263454 0.160453498 0.217049971 0.120696001
      0.0919726193 0.066835843 0.0870438144 0.131895885 0.0824442506
      0.112221144 0.0541890003 0.0835532546 0.0858314931 0.0953585654
      0.0858591124 0.15977855 0.121525683 0.17718415 0.208220229
      0.201993406 0.241777286 0.156563312 0.234862283 0.199502647
      0.16230914 0.206346318 0.241777286 0.241777286 0.121159911
      0.241777286 0.182071313 0.241777286 0.221574396 0.241777286
      0.0974509493 0.0613361523 0.0498775914 0.103960708 0.16946514
      0.0876389667 0.0989092737 0.0750522166 0.170911923 0.0304775629
      0.0167001318 0.0143538639 0.192891717 0.310047269 0.0441972762
      0.0576922558 0.0420274362 0.0690383464 0.175112411 0.194182649
      0.264218628 0.285470635 0.310047269 0.24146679 0.209316581
      0.132658303 0.280898511 0.0562239252 0.047341004 0.0467972495
      0.310047269 0.310047269 0.101947345 0.0797557235 0.0494706742
      0.0963182002 0.119988918 0.0437893718 0.045070637 0.18189612
      0.301161647 0.193587124 0.0359787084 0.0448096506 0.0535895154
      0.0702036768 0.0551967621 0.148347795 0.301161647 0.301161647
      0.188784227 0.0948988348 0.105362184 0.154381126 0.136907682
      0.052744057 0.0680295005 0.184604153 0.301161647 0.170542419
      0.0861305371 0.0958728045 0.0823602527 0.100781225 0.0397997461
      0.183186322 0.301161647 0.301161647 0.182267249 0.153697684
      0.100476258 0.152339578 0.0912222788 0.102475122 0.176776692
      0.163052604 0.243207693 0.0820423365 0.118392877 0.101203121
      0.10542997 0.150994018 0.177211642 0.243207693 0.118783936
      0.243207693 0.116743416 0.176509932 0.15691328 0.173322424
      0.117040083 0.061969094 0.159236744 0.183595181 0.243207693
      0.0955825672 0.103389241 0.0869154185 0.152224883 0.243207693
      0.0936748162 0.184977815 0.145367965 0.243207693 0.0972206518
      0.235540345 0.201956689 0.243207693 0.0935733095 0.120213397
      0.257708967 0.215062127 0.343402117 0.188331008 0.0935380384
      0.0852034017 0.15120016 0.0318849646 0.0180326384 0.0236704126
      0.248484477 0.343402117 0.0770175979 0.025039684 0.0147230225
      0.0535624065 0.182151839 0.0378066562 0.114153028 0.209802553
      0.343402117 0.106774107 0.124352984 0.101647042 0.212084442
      0.0365231223 0.00604120549 0.0191633161 0.246153593 0.343402117
      0.0480917953 0.0122534139 0.00648917118 0.0519480482 0.0313398838
      0.0430992655 0.0728862435 0.201894373 0.309299529 0.128976747
      0.0564134903 0.0482152589 0.038910225 0.0262688082 0.0151967807
      0.0970861092 0.335734755 0.335734755 0.149792269 0.0954236463
      0.0389520489 0.0430483148 0.0428229235 0.0485381484 0.0814659223
      0.335734755 0.335734755 0.149607956 0.0414838977 0.0217376463
      0.036046084 0.0501680374 0.0256965607 0.12097124 0.335734755
      0.335734755 0.19681409 0.110531531 0.0155301709 0.0336892232
      0.0938678607 0.0729097724 0.139885813 0.173897803 0.248285964
      0.0887427554 0.0851297453 0.0487804189 0.120477699 0.248285964
      0.116017327 0.168666109 0.0770527795 0.248285964 0.075697355
      0.194376215 0.123779945 0.248285964 0.189669028 0.102916725
      0.183895797 0.158445165 0.248285964 0.0895987079 0.118882984
      0.0473952815 0.151321456 0.248285964 0.168927565 0.20258224
      0.0828943849 0.248285964 0.0849415436 0.204258576 0.153432235
      0.248285964 0.21583958 0.0480821431 0.0900406018 0.153062493
      0.33052811 0.0853254646 0.120059825 0.0848930106 0.220983446
      0.0417272449 0.0077151903 0.0266188197 0.215549335 0.33052811
      0.0598585494 0.0125079313 0.0161722545 0.0448423848 0.221402109
      0.0796702951 0.0885691196 0.215928823 0.33052811 0.165682375
      0.205904454 0.141482219 0.213029116 0.0846469551 0.0150024649
      0.0284725428 0.240480989 0.33052811 0.150312826 0.0632615313
      0.0497971661 0.0797533169 0.0539957806 0.0235537365 0.0433838964
      0.261089951 0.290551513 0.123140156 0.0365745723 0.0512775928
      0.074156031 0.0752849951 0.0251803808 0.0656336099 0.290551513
      0.290551513 0.228237793 0.187549591 0.061075367 0.0765318945
      0.0590975173 0.0169644449 0.0376564823 0.134655476 0.290460289
      0.273855954 0.105078548 0.0726479217 0.0816048309 0.0812017173
      0.0471048318 0.173269674 0.286656082 0.290551513 0.289009243
      0.1359341 0.106166467 0.117667973 0.204238117 0.0632489324
      0.0999074876 0.13134782 0.233974919 0.100038327 0.176953927
      0.0935761407 0.190649435 0.233974919 0.154954985 0.188705266
      0.109392084 0.233974919 0.0615061373 0.167062297 0.15245612
      0.233974919 0.167402029 0.071300216 0.218802631 0.164956555
      0.233974919 0.0997119322 0.0698312446 0.111371011 0.173932493
      0.233974919 0.141377866 0.233974919 0.133702308 0.233974919
      0.0562155098 0.0336062573 0.106056027 0.233974919 0.159169763
      0.127045304 0.132554546 0.271713078 0.306818545 0.155505493
      0.177328676 0.1169964 0.193419531 0.0929217339 0.0693174005
      0.0202922784 0.24286522 0.306818545 0.141855255 0.0845905468
      0.0492064841 0.0810428038 0.2139685 0.100488111 0.151452139
      0.239513129 0.306818545 0.1238482 0.0267565623 0.0617159121
      0.191142559 0.0996767581 0.0992848277 0.0172560178 0.179875791
      0.306818545 0.106381364 0.0581663288 0.043414332 0.100329712
      0.0470112786 0.0285470337 0.0464190654 0.138034865 0.258970439
      0.240011171 0.119841598 0.060778603 0.0381888524 0.0396450199
      0.0443887189 0.152638271 0.289012402 0.294594169 0.275272548
      0.0999781489 0.112141103 0.0821318477 0.0342593342 0.0291469209
      0.0828317851 0.246330902 0.294594169 0.21916917 0.0737265944
      0.050946299 0.0424487032 0.0607450642 0.0190386549 0.0488044098
      0.294594169 0.294594169 0.294594169 0.118638329 0.140511155
      0.107535794 0.116492756 0.0963323787 0.23946166 0.205758959
      0.23946166 0.161032021 0.0448170565 0.0854318216 0.176022887
      0.23946166 0.154723465 0.23946166 0.134193331 0.23946166
      0.0898992866 0.0262257624 0.0551872477 0.174312398 0.159636602
      0.0709087178 0.13066335 0.167684898 0.23946166 0.191568419
      0.101062648 0.113183491 0.235218361 0.23946166 0.134437174
      0.235443041 0.0849738419 0.220418736 0.0807660297 0.0501244999
      0.0702278763 0.215925634 0.224708036 0.102293134 0.263840348
      0.267691195 0.287948042 0.15602693 0.0434205942 0.0553997941
      0.120919019 0.0906632766 0.0608110502 0.0656788573 0.1886217
      0.287948042 0.130117863 0.0558869354 0.0404233895 0.082886681
      0.244310796 0.182723284 0.229580387 0.199569598 0.287948042
      0.158408001 0.0575990789 0.0812057108 0.153976485 0.0795269683
      0.100179233 0.102203526 0.203489766 0.287948042 0.138647109
      0.0473871008 0.0259762965 0.0653312802 0.0410224982 0.0447637923
      0.0983477011 0.289352089 0.289352089 0.231184334 0.0597667471
      0.0622229278 0.0531952493 0.0627690628 0.0255065449 0.0815218911
      0.289352089 0.289352089 0.289352089 0.0800302923 0.105322212
      0.0882606953 0.0395353213 0.0412158594 0.0517650694 0.276845247
      0.289352089 0.192710415 0.0903626308 0.104781948 0.0589866713
      0.0306558516 0.0209630355 0.0794123039 0.289352089 0.289352089
      0.189526603 0.085506089 0.127759144 0.0642132014 0.245217115
      0.0770446658 0.0914171785 0.21930021 0.245217115 0.207299218
      0.123629063 0.148220763 0.245217115 0.245217115 0.100046411
      0.104324922 0.0726808161 0.169833556 0.0909643769 0.0764517933
      0.117237605 0.245217115 0.163685203 0.0874549747 0.245217115
      0.245217115 0.245217115 0.116237812 0.0780255795 0.0495968275
      0.0979468822 0.162818089 0.13192828 0.245217115 0.204988763
      0.245217115 0.0987964496 0.058537364 0.0400184914 0.0626265332
      0.185005128 0.142316312 0.120669983 0.182336599 0.299007326
      0.135591507 0.0546618439 0.0736548156 0.131726101 0.14283222
      0.12955752 0.129942611 0.251984328 0.299007326 0.135947153
      0.136957347 0.0755126774 0.161797434 0.0324965492 0.0467599481
      0.0862591043 0.266588867 0.299007326 0.095311068 0.0347491242
      0.0250174999 0.0228393711 0.0997159407 0.0527063943 0.0957208648
      0.299007326 0.299007326 0.0765695497 0.196142301 0.133436143
      0.199108735</_>
    <_>
      0.00153703371 0.00105408824 0.023452742 0.115751214 0.37392211
      0.187065586 0.0779274777 0.0118626961 0.0149557535 0.013624493
      0.0106424093 0.0557959899 0.183237433 0.37392211 0.180944681
      0.113931626 0.0178674124 0.0085770255 0.00276550581 0.00946176052
      0.032927081 0.222588852 0.37392211 0.207159504 0.146852866
      0.0144657185 0.00850708224 0.028510699 0.0071925763 0.0399834327
      0.165249228 0.37392211 0.30029285 0.247645482 0.0359609239
      0.0212396085 0.0300756637 0.0407283604 0.138894677 0.276388377
      0.276388377 0.208263308 0.168767378 0.0200422052 0.00356068742
      0.0226395391 0.0368138328 0.109245203 0.276388377 0.276388377
      0.154189453 0.137206957 0.0162973721 0.0085712811 0.0405116305
      0.0178955309 0.0855593756 0.255553305 0.276388377 0.27538383
      0.276388377 0.0580402762 0.0355863199 0.027551664 0.0243073255
      0.0926688761 0.236711442 0.276388377 0.175778195 0.240370855
      0.0348599367 0.026748782 0.0242539402 0.0389441997 0.0795061663
      0.205489799 0.389544398 0.160117269 0.0743732154 0.0396084152
      0.0269313529 0.0172847006 0.0182436537 0.0364374518 0.137071699
      0.455085009 0.0996861756 0.0341041014 0.0319816731 0.0215404294
      0.0871323347 0.0492822155 0.122527145 0.220027655 0.384171933
      0.161445364 0.118671671 0.037663769 0.0305253435 0.0634310395
      0.0379312485 0.044741191 0.165425852 0.455085009 0.101785198
      0.051680807 0.0224355552 0.0125840902 0.0030222144 0.0141369253
      0.0437220335 0.132964328 0.369431585 0.161341488 0.125717074
      0.022726696 0.00513213873 0.0222120918 0.0107137077 0.0666719675
      0.149423808 0.369431585 0.244849637 0.153249562 0.0405688919
      0.0342836715 0.0128426012 0.00726042269 0.021053236 0.0791818202
      0.369431585 0.204515636 0.165657938 0.0632598922 0.033542648
      0.0364975035 0.0127494996 0.161316097 0.235503092 0.369431585
      0.25553441 0.177524254 0.0745712891 0.088843219 0.030068785
      0.0125665814 0.101608813 0.206148267 0.280201554 0.182550043
      0.121304065 0.0490091331 0.0613995045 0.0409662053 0.0187390652
      0.0866176859 0.206741452 0.280201554 0.12402045 0.0664631799
      0.0254199132 0.0521019101 0.0422769599 0.0408196412 0.262883216
      0.280201554 0.280201554 0.256715924 0.177113324 0.056365665
      0.0851117969 0.109042414 0.107708223 0.17579785 0.280201554
      0.280201554 0.251892984 0.167537242 0.0816584527 0.0987792537
      0.111705884 0.031867139 0.0684628561 0.0978954136 0.243767694
      0.0741206706 0.0295758098 0.030235976 0.0853506401 0.0573981851
      0.0273585673 0.0254509952 0.0682217404 0.362494648 0.0513261594
      0.012205584 0.0144647183 0.0373575762 0.248639345 0.0799722001
      0.11314898 0.217305526 0.362494648 0.352886558 0.179589942
      0.171528727 0.276271641 0.091329582 0.0241689812 0.0235420149
      0.1101382 0.362494648 0.210535973 0.0964750946 0.0613727607
      0.130011752 0.0309849288 0.0167465806 0.0179170836 0.058371339
      0.378270358 0.0893338248 0.0902669132 0.0404019877 0.0445588231
      0.0540777333 0.0317826606 0.119763568 0.200442582 0.378270358
      0.238459319 0.085006617 0.0399557948 0.0779569 0.0566466376
      0.0838443339 0.0347558819 0.0820093974 0.378270358 0.12871626
      0.08184883 0.02159537 0.0273580533 0.0918662995 0.157204136
      0.162345007 0.154493764 0.378270358 0.364115953 0.0944833085
      0.015900502 0.0338059887 0.0311106425 0.0325028598 0.129053608
      0.233216107 0.299060166 0.269394964 0.113053136 0.0209922176
      0.0511089191 0.053268753 0.0742072985 0.121735767 0.220057294
      0.299060166 0.299060166 0.154571831 0.0781253129 0.0636288375
      0.0521787927 0.0521653108 0.102281064 0.148540542 0.299060166
      0.299060166 0.0501072556 0.0190955903 0.0598996952 0.0706409961
      0.0327199101 0.0594758578 0.154477954 0.299060166 0.299060166
      0.111502118 0.0832971856 0.0811001584 0.0473415293 0.0297118984
      0.0737368464 0.139622569 0.364881098 0.291000187 0.152469695
      0.0921573266 0.0639324412 0.0151319997 0.00607575197 0.00995137542
      0.0618728586 0.364881098 0.172840312 0.085936442 0.020972576
      0.027562961 0.0299777165 0.0135161653 0.0366459079 0.134694144
      0.364881098 0.364881098 0.135859147 0.055753082 0.0237317141
      0.00429620035 0.0049238205 0.00491590146 0.05458536 0.364881098
      0.295415461 0.0795986205 0.00766024599 0.00635432545 0.0571715645
      0.087359786 0.0604070686 0.0853344649 0.298262805 0.180626735
      0.125180066 0.0416382551 0.0506359823 0.054152891 0.139191061
      0.197497979 0.211706668 0.298262805 0.254729658 0.13323544
      0.0361893624 0.022379104 0.153169572 0.17202279 0.108432293
      0.155893326 0.298262805 0.123563431 0.122602895 0.0572051965
      0.113714531 0.101463646 0.202634245 0.226871178 0.298262805
      0.298262805 0.0984269977 0.11460036 0.112849273 0.114942499
      0.0590178668 0.0493826382 0.170597866 0.242674589 0.319701046
      0.180464983 0.0533913411 0.0386522226 0.0526891872 0.115406945
      0.0267067794 0.0637711361 0.154914305 0.319701046 0.250780195
      0.145411342 0.101368435 0.0859254375 0.0466612913 0.0622671284
      0.164036617 0.319701046 0.319701046 0.128729865 0.065232113
      0.0580695979 0.0579906739 0.046529565 0.0186801031 0.0802375525
      0.260432422 0.319701046 0.240821406 0.102898888 0.0289872102
      0.0405137688 0.0431440882 0.017447466 0.00921100564 0.0586534999
      0.386489958 0.320647597 0.13115406 0.0323128179 0.0173965786
      0.00222963491 0.00157501793 0.000430528831 0.027073713 0.386489958
      0.255634815 0.0557245351 0.00136128929 0.00207960326 0.0196612012
      0.0161968172 0.0187894143 0.0768248439 0.386489958 0.312247336
      0.0990342349 0.00864367001 0.00867206976 0.000969038054
      0.00395617494 0.0029705558 0.0355636142 0.386489958 0.287674576
      0.0630776212 3.53489195e-05 0.000191006213 0.117038287 0.133885235
      0.0811501741 0.186783463 0.277450651 0.0750165358 0.10728927
      0.0483192876 0.0680553615 0.0875782743 0.172276706 0.183154747
      0.277450651 0.277450651 0.0693126023 0.129974455 0.157280698
      0.114276342 0.0782873183 0.0557204895 0.0507195182 0.230530813
      0.277450651 0.132963598 0.125063077 0.058548402 0.0409224145
      0.172809944 0.201900557 0.19660534 0.277450651 0.277450651
      0.147650346 0.203369945 0.143892556 0.106043212 0.0496946089
      0.0741494969 0.136374131 0.272298455 0.272298455 0.105454817
      0.0493533686 0.0832347125 0.0756261647 0.0430195741 0.0671615973
      0.201056764 0.270399988 0.272298455 0.193639621 0.0436370261
      0.0187479295 0.0454187654 0.143695369 0.150946528 0.183135003
      0.272298455 0.272298455 0.10492263 0.0709865838 0.0765649304
      0.115056381 0.144542679 0.143248022 0.272298455 0.243357092
      0.272298455 0.165286273 0.0613267869 0.0570932403 0.12912406
      0.0240248963 0.0794418976 0.203482375 0.0855802149 0.385842264
      0.198850468 0.0454218425 0.00663696835 0.0249269605 0.00772353122
      0.0280971918 0.0542424172 0.0659262985 0.385842264 0.195327148
      0.0499163121 0.00166374911 0.00691421283 0.115078233 0.132643417
      0.385842264 0.118036695 0.382904828 0.114795446 0.0554024875
      0.0281485971 0.101506732 0.0519410148 0.0411108844 0.116257332
      0.105597347 0.385842264 0.0668450445 0.0293148309 0.00463754544
      0.0282005891 0.0473508723 0.0267268755 0.0360694155 0.134036601
      0.32166177 0.16486682 0.112230711 0.0602813959 0.0238228645
      0.17699337 0.113656618 0.0841820389 0.189084351 0.32166177
      0.254033983 0.249761999 0.201755702 0.0878271013 0.00699098688
      0.0341876671 0.0676827505 0.0879756659 0.32166177 0.172316119
      0.119317479 0.0474956594 0.0139680468 0.0693768263 0.0352258757
      0.0817407444 0.170979947 0.32166177 0.275641054 0.183508545
      0.188862294 0.0842104256 0.139261141 0.100877203 0.111434989
      0.239183784 0.253835291 0.137482703 0.115528695 0.1056609
      0.0963101983 0.0869749635 0.0936696976 0.253835291 0.253835291
      0.253835291 0.135581225 0.0977205187 0.05985355 0.103395097
      0.0980140716 0.078805849 0.126699001 0.253835291 0.253835291
      0.153159186 0.11042174 0.16899994 0.131172389 0.0937572494
      0.138190612 0.244563207 0.253835291 0.253835291 0.103322022
      0.123475939 0.126056373 0.169642791 0.087133497 0.0965882242
      0.322089165 0.2585195 0.280616522 0.0875515416 0.0623092465
      0.0342684239 0.0984168872 0.0421317033 0.0354062691 0.193050712
      0.166399658 0.322089165 0.0364868678 0.0195939038 0.00262150541
      0.0208604857 0.0909911171 0.112993866 0.279703081 0.322089165
      0.280414164 0.0554994121 0.0427813195 0.0377073288 0.0730837137
      0.0492967926 0.0685045123 0.269326091 0.237914473 0.322089165
      0.0280921683 0.00100882538 0.000139481053 0.0112200817
      0.00555338478 0.0484451838 0.0759042427 0.108788855 0.398869425
      0.131815702 0.0626885816 0.0265081916 0.00640431326 0.0305185784
      0.0631032288 0.089759618 0.268672436 0.398869425 0.171168193
      0.0677858517 0.0718500614 0.0507574975 0.0117541617 0.0353829004
      0.031960275 0.0959342644 0.398869425 0.16538389 0.0626135319
      0.0201760754 0.011380516 0.0531119816 0.0746274665 0.0806072056
      0.250833124 0.398869425 0.244281307 0.0861934051 0.0481403656
      0.0129867224 0.0870148763 0.13690789 0.137749255 0.25676322
      0.25676322 0.127158701 0.0778404251 0.118689172 0.112504691
      0.212276608 0.225387752 0.25676322 0.25676322 0.25676322
      0.150539413 0.0973861292 0.108125702 0.192364231 0.0581897534
      0.0793657899 0.104592189 0.25676322 0.25676322 0.25676322
      0.10486079 0.0647298545 0.0146587407 0.138116851 0.0881941319
      0.158474013 0.115830019 0.25676322 0.155272692 0.0385109037
      0.0169167034 0.0763752684 0.310508966 0.242750168 0.310508966
      0.273546547 0.310508966 0.10761711 0.0339049622 0.0339251049
      0.129703745 0.171654329 0.0967753902 0.200209662 0.243753672
      0.310508966 0.0666930974 0.000670462439 0.00168938492 0.0490024574
      0.198448196 0.131052241 0.22741732 0.0742133558 0.237256467
      0.0666873157 0.0114006158 0.00692041637 0.0858580247 0.0807867199
      0.0389246605 0.0529704019 0.0765904337 0.310508966 0.0718340278
      0.00382829388 0.00536549836 0.0344641767</_>
    <_>
      0.00929723028 0.0128852986 0.00613533147 0.0592989475 0.414705575
      0.242607027 0.0337427408 0.0160753857 0.00384105952 0.157000586
      0.0595075488 0.0239500795 0.0614638105 0.364261776 0.11838273
      0.0931480005 0.0831934884 0.144123003 0.028555559 0.0482404418
      0.0592806116 0.124574438 0.414705575 0.166285157 0.0281225797
      0.00983578339 0.00574765122 0.203230187 0.193580225 0.118361823
      0.100664049 0.414705575 0.150200143 0.0982628465 0.0634712055
      0.101572417 0.237847954 0.100214519 0.076763168 0.123146042
      0.167210296 0.0715770423 0.0923917517 0.137916192 0.237847954
      0.180810228 0.106885955 0.0950326174 0.143106937 0.237847954
      0.135677785 0.0741564408 0.0835721865 0.237847954 0.237847954
      0.173873857 0.200429678 0.192669258 0.162205979 0.119838029
      0.162369445 0.120302103 0.237847954 0.189723119 0.126775011
      0.207113385 0.168158635 0.234751612 0.105954379 0.153562874
      0.150198966 0.19282952 0.0291458964 0.0251597632 0.0120997662
      0.0304447636 0.345176786 0.345176786 0.0788298324 0.0290302113
      0.0157507192 0.0428021029 0.00500707049 0.0021412021 0.0235809609
      0.345176786 0.345176786 0.0527955778 0.0302106626 0.0227907617
      0.0237540882 0.0494531281 0.0330499187 0.0627553985 0.345176786
      0.345176786 0.083651416 0.0681605488 0.0317405052 0.0393994078
      0.00659774663 0.00175398588 0.027877789 0.345176786 0.345176786
      0.0478329994 0.0315336101 0.0229638685 0.0184653569 0.0435992964
      0.0498777404 0.0615371205 0.342456847 0.219744056 0.0448305197
      0.0142684709 0.00852588657 0.119472116 0.148742393 0.118270285
      0.147230878 0.342456847 0.201880395 0.153172091 0.0858919621
      0.118038975 0.00933371484 0.0293811839 0.0769925863 0.0593627803
      0.342456847 0.342456847 0.0529521257 0.0121817188 0.0088277543
      0.0677747801 0.0826182216 0.0799210891 0.13113755 0.342456847
      0.282109618 0.199861199 0.120647557 0.104843199 0.17263326
      0.115610786 0.177617937 0.210987255 0.159924224 0.110917337
      0.169010758 0.101358868 0.190054551 0.0942312852 0.0786934495
      0.181841254 0.218501762 0.231434181 0.141377211 0.160794541
      0.136362195 0.12748307 0.135421976 0.122988179 0.116129912
      0.189465031 0.231434181 0.150561005 0.231434181 0.167506933
      0.165340155 0.0852521434 0.113557078 0.131257132 0.231434181
      0.231434181 0.231434181 0.192316949 0.147058964 0.103730477
      0.0111498376 0.0438317321 0.0562790409 0.127097934 0.334153146
      0.328728974 0.0915325209 0.0918689668 0.0383077227 0.00683434214
      0.00717195589 0.00316345575 0.0266919844 0.334153146 0.334153146
      0.0310239196 0.0274857506 0.00614799187 0.0199004989 0.0513338074
      0.0569468662 0.173183054 0.334153146 0.334153146 0.0942309797
      0.0974819809 0.0378530249 0.00249889749 0.0102717634 0.00698215421
      0.0616324507 0.334153146 0.334153146 0.040824648 0.0545654222
      0.00876997598 0.00191482867 0.0223950185 0.0659919232 0.0739727914
      0.409603208 0.285252571 0.0278503075 0.00326899718 0.00275630201
      0.0263628587 0.0728769526 0.10987822 0.112447806 0.409603208
      0.152707234 0.089914687 0.0624825917 0.0554402322 0.00202411204
      0.0138174035 0.0215158481 0.0983536988 0.409603208 0.240208656
      0.0514506325 0.00429666834 0.00236263196 0.0333414413 0.0724674836
      0.132495761 0.108451344 0.409603208 0.168485314 0.138201594
      0.0445728451 0.0857426822 0.0851335973 0.113822453 0.104001381
      0.133911595 0.251646847 0.114642076 0.153612867 0.130615562
      0.0955956429 0.0882006884 0.118439533 0.0755889043 0.192076981
      0.251646847 0.220153153 0.202266768 0.178284153 0.0672737136
      0.125881493 0.156321555 0.19197613 0.125868022 0.251646847
      0.131349012 0.162797198 0.121218018 0.181117326 0.134616986
      0.140961304 0.152797356 0.127268538 0.251646847 0.243912861
      0.251646847 0.186080903 0.151560277 0.0317305513 0.0474041216
      0.044206012 0.161376998 0.31540817 0.288798302 0.162005946
      0.120123677 0.0310452282 0.00306238746 0.0040455577 0.0117936321
      0.0951101333 0.31540817 0.31540817 0.0848318264 0.0380947404
      0.00808182172 0.0340319574 0.0651816428 0.0989703238 0.161071196
      0.31540817 0.294980526 0.22963579 0.113431044 0.0513348058
      0.0029063744 0.00639257021 0.0167552978 0.122276627 0.31540817
      0.31540817 0.113787815 0.0301788021 0.0142243523 0.00107334647
      0.00246683927 0.00496607693 0.0743433759 0.423325211 0.205516085
      0.0308893323 0.00328323292 0.00121743476 0.0334304348 0.0370658748
      0.0941550657 0.0650128201 0.423325211 0.224851996 0.0900454894
      0.0412423834 0.0508189015 0.000702637364 0.00176195812
      0.00477010664 0.0614009425 0.423325211 0.188509449 0.00619035214
      0.00182382681 0.000898680359 0.0357206911 0.0582697093 0.147498325
      0.107461959 0.423325211 0.261077702 0.0298974663 0.0532131642
      0.0492129102 0.128771633 0.101251543 0.215615183 0.0947579294
      0.205019698 0.112412915 0.116977818 0.0860665664 0.146136999
      0.151802003 0.0931929424 0.180111945 0.122717105 0.215615183
      0.204659164 0.148379982 0.103938468 0.182114482 0.130903035
      0.17257902 0.215615183 0.178536266 0.215615183 0.132612273
      0.106337644 0.0907148272 0.13368085 0.180011064 0.175255373
      0.215615183 0.215615183 0.215615183 0.215615183 0.191751257
      0.177661017 0.201638669 0.044622004 0.0378806368 0.0855079591
      0.179944873 0.312825412 0.294445366 0.12270695 0.0649205968
      0.0706169456 0.00263813464 0.00443969155 0.0125188716 0.129359528
      0.312825412 0.312825412 0.0878293291 0.0256165247 0.0113893859
      0.0836997628 0.0734226555 0.0836818293 0.181352973 0.312825412
      0.312825412 0.150311589 0.158137172 0.109679647 0.02292406
      0.0221749377 0.00849227514 0.0939333439 0.312825412 0.312825412
      0.0951802731 0.035302598 0.0150815221 0.00135749334 0.0061592008
      0.00938241463 0.0529163368 0.428745568 0.118490599 0.003441585
      0.00322123175 0.00178268587 0.0229855161 0.0775718316 0.127976835
      0.113979481 0.428745568 0.174141169 0.0437703133 0.0545729026
      0.0329473093 0.00349851465 0.00835858844 0.00822912157
      0.0345012844 0.428745568 0.250204861 0.00472150231 0.00690987473
