<?xml version="1.0"?>
<opencv_storage>
<opencv_ml_svm>
  <format>3</format>
  <svmType>C_SVC</svmType>
  <kernel>
    <type>LINEAR</type></kernel>
  <C>1.</C>
  <term_criteria><epsilon>1.1920928955078125e-07</epsilon>
    <iterations>1000</iterations></term_criteria>
  <var_count>756</var_count>
  <class_count>2</class_count>
  <class_labels type_id="opencv-matrix">
    <rows>2</rows>
    <cols>1</cols>
    <dt>i</dt>
    <data>
      0 1</data></class_labels>
  <sv_total>1</sv_total>
  <support_vectors>
    <_>
      0.900681794 0.40014258 0.56307739 0.626195908 0.165686205
      -0.155725375 -0.654317319 0.0781732798 0.473827511 0.0493792109
      -0.305276483 -0.0480162799 0.0840154961 -0.454835087 0.0326719955
      -0.433697611 0.316489398 0.162731379 0.359824598 0.0162168201
      -0.408651531 0.32009393 0.0983091369 -0.316577137 -0.538006425
      -0.0158858933 0.106756084 -0.0947341472 0.155763358 0.0719206259
      0.376623601 0.132246062 0.420424908 -0.311260372 0.325439811
      0.191087574 0.237839073 -0.030561693 -0.0526276343 0.147869021
      -0.690185547 0.179928362 0.100582227 0.19860062 0.052558586
      0.747682095 0.251629382 0.382783413 -0.00280246628 -0.502924979
      -0.242422551 -0.12296956 0.0407678708 0.440808237 0.27742669
      0.0764408484 -0.0846283957 0.478475839 -0.127442002 0.295776457
      -0.090530999 -0.272886693 -0.191345066 0.359900385 0.0765226185
      -0.236343294 0.035508927 -0.0653789639 0.435440391 -0.0245150309
      -0.0505739786 0.363621861 0.356255651 0.0218278728 0.213873491
      -0.17062895 0.182825848 -0.0490749627 -0.354107976 0.301322252
      0.0565192625 0.263599277 -0.245104566 -0.460216433 -0.0987113565
      -0.0495064519 0.00782100018 -0.358449727 -0.129251689 0.192606255
      -0.0234653726 0.13164106 -0.104331613 0.0907418281 -0.123035714
      0.434227437 0.345635831 0.266636282 -0.119448818 0.623457134
      0.30537504 -0.54320699 0.239063442 -0.0956405923 0.142209902
      -0.341671944 -0.00629377784 0.0895568058 0.313176244 0.543375254
      0.197223872 0.232564479 -0.104333922 0.231096402 -0.0453089885
      -0.320505768 0.183215067 0.537920833 -0.231480271 -0.0226359647
      0.146439612 -0.0105212787 0.641381562 0.207249165 -0.209648356
      0.225506037 -0.0182791185 0.424598157 0.151291803 -0.0246245619
      -0.157797351 0.317691833 0.0343368538 -0.049596101 -0.159346759
      0.516342521 -0.0452349707 0.318658918 0.206919596 -0.0916681513
      0.214184791 -0.0511590429 -0.46608305 -0.195877507 0.163766041
      -0.308250219 0.0242383759 0.531874418 0.0169283804 0.203292251
      0.203711525 -0.279441535 -0.192822531 0.109843291 -0.0647259653
      -0.249150351 0.3880108 -0.124911278 0.144580752 -0.167903364
      0.0550872795 -0.103286251 -0.0640397668 -0.362072468 -0.10578654
      0.439432561 -0.216377288 -0.172059223 0.00543292332 -0.165718958
      -0.563079953 0.43437624 0.137485966 -0.410479039 0.35410592
      -0.495889723 0.0322988816 -0.0674681962 0.096506536 -0.0569110401
      0.116338462 0.0250261463 -0.20676145 0.0725404695 -0.436373919
      -0.021433251 -0.325169235 -0.190980896 -0.110658891 0.382284969
      0.0345557779 -0.20778507 0.178243294 0.313717574 0.365686834
      -0.358827233 0.124729306 -0.194004953 0.699043453 0.404242039
      -0.384695917 -0.174320206 -0.360315442 0.193411067 -0.36790663
      0.26424554 0.193717405 -0.187540412 -0.131780431 0.042836912
      -0.227030799 0.162396789 0.564816177 0.280602098 0.334204018
      -0.097771816 0.102769725 0.0960302651 -0.374497652 -0.331740111
      -0.249385014 0.496539652 0.228438705 0.282502353 0.318954021
      0.0661391765 -0.15181452 0.0171256587 0.0798201934 -0.162231207
      0.139320537 -0.122855254 0.168136954 -0.144642383 -0.271029383
      -0.157423109 -0.229030132 -0.170186192 0.218398988 0.348910481
      -0.220956713 -0.260932118 0.0536086448 0.26853925 0.170104146
      0.354181945 -0.121597707 -0.164844856 0.381111175 -0.209096804
      -0.163580343 0.184027717 -0.149288893 -0.177994803 -0.0475786701
      0.578730524 -0.0717007816 -0.0269159898 -0.0459919609 -0.252361655
      -0.385415405 0.24442707 0.471182674 -0.0495208502 0.625960946
      -0.422254741 0.339815617 -0.62175703 -0.239345565 -0.0621405728
      -0.156104669 -0.173746228 -0.0678137615 0.0030536626 0.0174098462
      0.373359531 -0.0156110674 -0.185405344 -0.342543304 -0.0733477175
      -0.0389071703 -0.15726544 0.459009528 -0.118595503 0.0991132557
      0.0813431367 -0.255542547 -0.285971075 0.359777242 0.462346435
      0.0542046838 0.0202423949 0.0458870158 0.216936305 -0.6321069
      0.1490964 0.277408153 -0.440963447 0.112518474 -0.129405022
      -0.237920702 0.670023322 0.391052455 -0.269061178 -0.0959107652
      -0.0716075376 0.20145905 0.248616129 0.0981144384 -0.228467941
      0.085812211 0.0385419689 -0.300123096 -0.12014202 0.0698125288
      -0.183918625 -0.0215242635 -0.139774084 -0.2921215 0.281488329
      0.0903861672 -0.54806906 -0.32152611 -0.248257965 -0.303522646
      -0.0600793399 0.189584494 -0.100932673 0.243297905 0.18494314
      -0.398365229 -0.5431692 -0.272835851 0.028987579 0.0527940877
      0.335921228 0.342896461 0.122265637 0.294696718 -0.0126391277
      -0.455691785 0.00223043282 0.0347464606 0.0269096941 0.0429189131
      -0.00619749073 0.357129008 0.689872742 0.00232722634 0.275803924
      0.030900294 -0.382983029 -0.41741538 -0.595114291 -0.0355304927
      0.0811322257 -0.115244977 0.120126076 0.0727532357 0.0138201043
      0.14828676 -0.0667245612 -0.0451395139 0.185084254 0.0633593947
      0.420431316 0.00891800132 -0.0651047155 -0.116566122 -0.441394538
      -0.0857050791 -0.0474177338 0.307625234 -0.0533083417 0.266516894
      0.343892545 -0.291083276 -0.407701194 -0.508903801 -0.362831682
      -0.457363635 0.0682012737 0.158365697 0.108607352 0.286107421
      -0.358397841 -0.576005399 -0.433835298 0.226335108 -0.140798762
      0.289615601 -0.160734758 -0.00123678136 -0.293321997 -0.132658824
      -0.328608572 -0.452104717 0.113536239 0.0342175812 0.000421506731
      0.326034755 -0.1011547 -0.0472454838 -0.234853446 -0.13522166
      -0.204288602 -0.187886715 -0.332978427 -0.194746956 0.626694798
      0.143361568 -0.132521749 -0.10116259 -0.25479573 -0.528660476
      0.166376814 -0.128775805 -0.312621415 0.0243761707 -0.411811143
      -0.28033188 0.193018258 0.0561465584 -0.421185851 -0.326294988
      -0.241249323 0.120189115 0.528326094 0.101324655 -0.154736325
      -0.0527245142 -0.0306837689 -0.206576064 0.0101297274
      0.00718440302 -0.201516673 0.337542653 0.360239834 -0.0780808032
      0.362904251 -0.198517159 -0.17106998 -0.138184533 -0.41111958
      0.10230016 0.0838405192 0.329818755 -0.0215365682 0.0677057728
      -0.0521374978 -0.0972158909 -0.0190805197 0.0183474645
      -0.259306908 0.351079583 0.120544121 0.158683568 0.322262675
      -0.291000366 -0.0618414916 0.445282489 0.131375045 0.294161499
      0.144179687 0.0926065668 -0.11452049 0.154153317 -0.362589806
      -0.337078869 -0.413426578 -0.583987594 0.187600285 0.123082541
      0.633542478 0.21407038 -0.2680206 -0.123562597 -0.0272469148
      -0.0474151112 -0.192118585 -0.0814230219 -0.387193024 0.754280269
      0.235213548 0.243393555 0.602763593 -0.0790957063 0.112106197
      -0.123124592 0.721421063 -0.0767559037 0.0449630804 -0.063173458
      0.136351272 -0.112583376 0.172853664 -0.23000738 -0.174548328
      0.0804543719 -0.363045245 0.288956255 0.115682334 0.221333534
      0.387522936 0.364551902 -0.0193896592 -0.0318734162 -0.117751487
      -0.42930305 0.0562064797 -0.000473125663 0.412838101 0.691037714
      0.137829289 -0.206542641 0.172352359 0.332357287 0.115512155
      -0.308029026 -0.0872898474 -0.0811111629 0.0370173939 0.305184007
      0.011583711 0.0767030045 -0.0869382843 0.150512055 -0.0744977519
      0.205206022 0.0067652599 0.0753465742 -0.392055959 -0.00251168269
      0.455203652 0.537168324 0.181410536 -0.670649707 -0.368808836
      -0.221679568 -0.573000073 -0.0345568024 -0.0900062472 -0.187484398
      -0.395393282 0.514097393 0.20200932 -0.0187095553 0.470206469
      0.0434950367 0.435918361 0.403308541 0.11769513 0.0291981325
      -0.103347018 -0.239308804 0.000834258797 0.654458284 0.257854581
      -0.142622665 0.107091844 -0.134784356 0.102661975 0.0406904966
      0.300612688 0.334199965 0.248119369 -0.105169885 -0.225945488
      -0.0487854928 -0.256784588 0.258302033 0.0207902659 -0.379841089
      0.182225972 0.139179051 -0.294138342 -0.097694546 -0.090944536
      -0.49735266 0.195596412 0.0137596261 -0.000981247285 0.239253879
      0.549883425 0.0432576984 -0.320957661 -0.176739931 -0.550711334
      0.0679249689 -0.108501092 0.0495472811 -0.300685048 0.246961653
      -0.414788455 -0.258534074 -0.315183848 -0.213908881 0.308776796
      0.552759528 0.0726125613 0.410980523 0.287882626 0.335531622
      -0.114568993 0.305918217 -0.233311668 0.247395575 0.23493503
      -0.130475849 0.129835472 0.212782189 -0.137194484 -0.360070884
      0.165945068 -0.0818924159 -0.331591308 0.120100506 -0.357516795
      0.0229959264 -0.0127059938 -0.477128804 -0.745045185 0.192845747
      0.390233785 0.438935012 0.255781591 -0.525941849 -0.0312050525
      0.00560140144 -0.582734883 -0.225633085 0.263948798 0.181473672
      0.0871877745 0.13902913 -0.133255675 0.222161546 0.192080513
      -0.284387439 0.0047302274 0.291030705 0.0718420222 0.103255585
      0.101987146 -0.145436689 0.0316643491 0.278235108 0.0498162545
      -0.352326959 -0.147891939 -0.313206136 -0.0781125724 -0.0569042377
      0.0211186484 -0.139552489 -0.1071226 -0.137427196 -0.186632663
      -0.100847118 -0.368638009 0.293975502 0.242889568 -0.4938429
      -0.497679889 -0.399785012 -0.181086883 0.108007632 -0.228752866
      -0.36452961 0.092053093 -0.144979939 -0.199013472 0.0578061976
      0.51346004 0.596625268 0.425578147 0.348798633 0.135020956
      0.57579273 -0.132850096 -0.0561109148 -0.125632003 0.312434435
      0.265757918 -0.400231034 0.0833717436 0.190220132 0.398084253
      0.286505371 -0.32786423 0.0480099134 0.0191003866 0.125341669
      0.190259203 0.274722606 -0.0126661025 0.100815259 -0.141095087
      -0.0683529973 0.314203799 0.211794153 0.0851555541 0.395614803
      0.851098716 0.262513995 -0.0445916057 -0.211441621 -0.0444226265
      0.385270506 0.368611634 0.546392441 0.338917524 0.291968316
      0.137125626 -0.657700598 -0.625891924 0.206556112 -0.0702770874
      0.260044515 0.635848463 0.156257033 0.394170284 0.575516045
      0.292833775 0.0611926168 0.436442286 0.768469989 0.239246994
      0.0528149121 0.14777495 0.378442049 0.370265752 0.173681304
      -0.213094205 0.174380243 -0.0350067168 0.0281222425 -0.186901525
      0.0772046968 0.22821027 0.463373959 0.284548163 0.00624829112
      0.0741473436 0.00513258064 0.15853852 0.221561849 -0.476086408
      0.0520168804 0.368900537 -0.123556919 -0.0952086896 -0.205301613
      -0.146919802 -0.205692649 -0.444893241</_></support_vectors>
  <uncompressed_sv_total>174</uncompressed_sv_total>
  <uncompressed_support_vectors>
    <_>
      0.10672126 0.0273985025 0.0379436091 0.0908686668 0.175030947
      0.090457961 0.0545012727 0.0564535409 0.106553048 0.147357002
      0.111697651 0.0637416542 0.274832815 0.316986799 0.238187745
      0.131801188 0.0931892693 0.0560439229 0.101876669 0.0398584902
      0.0521950088 0.208876371 0.241097525 0.115885966 0.0450159125
      0.0527891032 0.115237601 0.310985327 0.116728373 0.136939734
      0.316986799 0.316986799 0.316986799 0.173211023 0.0625147969
      0.0778166056 0.110292971 0.129726887 0.0720476955 0.0938522369
      0.231096417 0.160531029 0.0817186311 0.0447136387 0.0683271363
      0.124239907 0.179104865 0.102539688 0.0512012616 0.180658638
      0.207143545 0.0936114788 0.0561263114 0.217958927 0.196733624
      0.109220318 0.187036276 0.209286824 0.231096417 0.231096417
      0.161815032 0.0489954501 0.0783544853 0.183610037 0.192412227
      0.231096417 0.215911567 0.231096417 0.231096417 0.231096417
      0.105962262 0.231096417 0.120674647 0.136004284 0.0548050702
      0.0440743454 0.118358456 0.152715832 0.0773692876 0.0506266318
      0.180280939 0.10338074 0.0792312101 0.0382537469 0.0608580895
      0.185101032 0.0862654671 0.0530283339 0.0414876863 0.0813869163
      0.203332677 0.23029685 0.171804577 0.187781572 0.23029685
      0.223608345 0.228563577 0.23029685 0.23029685 0.23029685
      0.23029685 0.105214372 0.163241729 0.23029685 0.23029685
      0.188970089 0.23029685 0.21724622 0.0430597402 0.0293591935
      0.0339194648 0.155557454 0.184326023 0.0766861662 0.0253837742
      0.0264909286 0.0457070507 0.204865873 0.074781239 0.0846194774
      0.280420542 0.314752847 0.311407268 0.103370927 0.0271320604
      0.0403279215 0.232558638 0.102865674 0.0565916039 0.116003603
      0.214515895 0.0945254564 0.106807999 0.121275954 0.192047343
      0.206417099 0.210329413 0.0813695565 0.181880161 0.314752847
      0.314752847 0.221376508 0.0733506754 0.0685491115 0.153222993
      0.0500868857 0.109620683 0.140200898 0.251679301 0.169225976
      0.117805324 0.0351793654 0.0667443946 0.164399862 0.0538555607
      0.161199003 0.195056543 0.251679301 0.102907933 0.170878589
      0.134702727 0.226691559 0.123624869 0.0875190943 0.0654009953
      0.0834960863 0.251679301 0.227735072 0.159690544 0.0418124758
      0.0851776004 0.240845472 0.157648265 0.165785074 0.126430407
      0.251679301 0.127038822 0.251679301 0.212726489 0.251679301
      0.133713067 0.0810098872 0.0738754794 0.132612795 0.221404269
      0.0697023347 0.132765487 0.201685205 0.222389936 0.17789498
      0.126797959 0.0773489848 0.111446291 0.222389936 0.168293923
      0.132008672 0.176949248 0.188932449 0.180468738 0.148367822
      0.104030259 0.0803525895 0.185876966 0.082591705 0.222389936
      0.222389936 0.222389936 0.111804575 0.100384444 0.172616318
      0.135149702 0.222389936 0.222389936 0.222389936 0.210285902
      0.188353166 0.141389936 0.0631855056 0.0190572813 0.0445815139
      0.174054489 0.105471157 0.1214839 0.112934686 0.169572011
      0.0627507344 0.140884906 0.0436823256 0.0928973034 0.284806311
      0.284546643 0.160939991 0.0479399413 0.0378279313 0.114382401
      0.0556222349 0.0457259901 0.190325081 0.284806311 0.236848205
      0.284806311 0.19745338 0.182463899 0.047035791 0.178536206
      0.116251171 0.284806311 0.284806311 0.268349349 0.13136439
      0.0475463681 0.0252618864 0.0861235633 0.0895897523 0.056295462
      0.0610769689 0.254999906 0.202611834 0.181475431 0.0541142486
      0.134305134 0.254999906 0.165289983 0.120868482 0.0500906482
      0.19603157 0.104072101 0.236384869 0.210226253 0.254999906
      0.104985259 0.0995894 0.101265408 0.197259009 0.254999906
      0.107806064 0.155546293 0.105940886 0.165707737 0.230312899
      0.057411354 0.0620112568 0.0670804679 0.141775832 0.0964180529
      0.239894107 0.254999906 0.254999906 0.156225353 0.124313258
      0.0744987354 0.0520895086 0.0985785276 0.0671245083 0.212826595
      0.227003217 0.227003217 0.0876727924 0.0808458105 0.205370843
      0.184796512 0.227003217 0.188903973 0.139936224 0.190868542
      0.178603902 0.156202272 0.0348598398 0.0661964342 0.11378032
      0.192313582 0.127694994 0.149161085 0.227003217 0.227003217
      0.154276282 0.0829345286 0.227003217 0.227003217 0.227003217
      0.195560753 0.0861052573 0.131716788 0.227003217 0.123277187
      0.0598389767 0.10012386 0.250436485 0.250840396 0.134606495
      0.116399147 0.0974634737 0.1228422 0.110975452 0.148262128
      0.183892682 0.250840396 0.250840396 0.183927402 0.0462197997
      0.0253804512 0.0270517021 0.175443143 0.0943993181 0.1500815
      0.250840396 0.250840396 0.109418035 0.0554512925 0.0688870102
      0.114905305 0.202179402 0.148009092 0.240581915 0.250840396
      0.250840396 0.211221129 0.179188982 0.0610006526 0.0865714401
      0.12063016 0.0987322032 0.209225819 0.190280497 0.186969072
      0.0594822802 0.0874435827 0.0678587407 0.116256796 0.169563398
      0.069322072 0.104494765 0.0660006255 0.109910965 0.0571807139
      0.23339808 0.194710165 0.23593317 0.212345093 0.121650137
      0.23593317 0.147580892 0.213672176 0.106184013 0.23593317
      0.11777097 0.218332514 0.23593317 0.127674386 0.219452024
      0.0529977791 0.135998443 0.0612576455 0.23593317 0.22110118
      0.23593317 0.102622576 0.0381074995 0.0717767328 0.113432884
      0.20262827 0.137740016 0.213179708 0.178467423 0.213179708
      0.124182716 0.0927765965 0.213179708 0.213179708 0.213179708
      0.166122094 0.120642692 0.108712621 0.128751472 0.213179708
      0.124300204 0.213179708 0.105067298 0.213179708 0.115303695
      0.213179708 0.172528908 0.213179708 0.134948626 0.156734601
      0.213179708 0.2014222 0.213179708 0.198362783 0.109689124
      0.127716944 0.124392539 0.126844674 0.0745652616 0.0972618982
      0.203006804 0.248458058 0.114046775 0.071723111 0.0709298924
      0.0648701191 0.164863095 0.130140245 0.178490132 0.224743962
      0.248458058 0.196624219 0.18308945 0.0955171436 0.0955631062
      0.137346819 0.0622465722 0.103302829 0.193270415 0.248458058
      0.195189834 0.102753446 0.0881902352 0.0656453595 0.244180009
      0.133011207 0.133042544 0.176889509 0.248458058 0.248458058
      0.248458058 0.173180476 0.150625899 0.141646728 0.145494252
      0.211179778 0.0894289315 0.192926601 0.118392728 0.210350141
      0.11704874 0.150579184 0.212997869 0.148243845 0.212997869
      0.0556737632 0.150547728 0.0985438675 0.192879483 0.134439319
      0.212997869 0.199781552 0.186764523 0.211556539 0.0937417597
      0.18642354 0.115757808 0.194937572 0.13669382 0.168609634
      0.202448636 0.175702199 0.212997869 0.091770798 0.184298947
      0.132028788 0.172815219 0.112721898 0.205259189 0.227620602
      0.1543466 0.227620602 0.120144553 0.227620602 0.159249023
      0.13972339 0.0886814445 0.216549516 0.132925615 0.142258197
      0.194907501 0.21072194 0.227620602 0.212414473 0.0678690746
      0.0666056126 0.112466961 0.151813552 0.102811664 0.227620602
      0.177625462 0.227620602 0.222321019 0.118460305 0.0391856693
      0.131023735 0.0817617327 0.0966999903 0.227620602 0.227620602
      0.227620602 0.197370261 0.0254158638 0.0233045984 0.0538998581
      0.193405986 0.042500075 0.0782537386 0.174296573 0.253832787
      0.185245812 0.137718335 0.11203827 0.108002812 0.253832787
      0.0999546796 0.0757891461 0.192537174 0.253832787 0.217183545
      0.253832787 0.194768786 0.253832787 0.138534844 0.0196572617
      0.0381048247 0.184158728 0.253832787 0.0763345361 0.0659126639
      0.080534339 0.161216006 0.253832787 0.0536260121 0.0239722133
      0.0996658057 0.218239844 0.0475539863 0.137828171 0.105014883
      0.253832787 0.232336387 0.142822295 0.14915815 0.136748031
      0.190442324 0.101241492 0.194014013 0.177548334 0.232336387
      0.22005485 0.16250439 0.232336387 0.178930685 0.232336387
      0.149081975 0.162081033 0.167232245 0.232336387 0.207319096
      0.0661382601 0.0543090962 0.0636513233 0.0804501921 0.0300533734
      0.0665653273 0.124823518 0.232336387 0.211352527 0.177615568
      0.191113427 0.137031659 0.14611432 0.0486805774 0.0446871668
      0.143170536 0.232336387 0.182888582 0.143079832 0.232981369
      0.232981369 0.232981369 0.187445626 0.0859795213 0.0473534167
      0.195090681 0.0719845667 0.109381407 0.232981369 0.232981369
      0.232981369 0.141704828 0.0221224464 0.0122890519 0.0321530737
      0.215614185 0.232981369 0.232981369 0.232981369 0.229684174
      0.0725201964 0.0450202599 0.0627952218 0.209433362 0.0682372898
      0.165447056 0.175790131 0.232981369 0.232981369 0.0797348619
      0.0232794676 0.00564482249 0.0271616559 0.102018923 0.0348492227
      0.102718391 0.333572686 0.333572686 0.133775264 0.0632731766
      0.0836081952 0.206420735 0.311319649 0.0815569162 0.0926897302
      0.125456467 0.229708582 0.0464754887 0.075171791 0.119821556
      0.321016759 0.0548423566 0.028741071 0.0751900524 0.333572686
      0.333572686 0.12020611 0.0661403388 0.0172724295 0.0469056368
      0.122011155 0.0394321457 0.0852708369 0.135530844 0.22437501
      0.0999483168 0.0793520436 0.0860698968 0.0713730231 0.111289978
      0.102461293 0.0835231841 0.0633145645 0.0696141124 0.030003164
      0.0281538945 0.0712277964 0.155390725 0.153739735 0.275666207
      0.275666207 0.24063541 0.275666207 0.0952210948 0.138641223
      0.135330141 0.210236475 0.0403181911 0.0840685219 0.132795677
      0.203548566 0.262829065 0.0711272061 0.0419112146 0.0434649363
      0.0314741284 0.054485999 0.220029235 0.275666207 0.275666207
      0.275666207 0.213657036 0.218703911 0.083465457 0.0309895519
      0.0954715982 0.246214643 0.263891071 0.263891071 0.263891071
      0.0626364276 0.0955020338 0.0666347891 0.0729622245 0.0373878144
      0.135072961 0.241706043 0.263891071 0.263891071 0.0754088461
      0.0151235741 0.00754108606 0.0203497484 0.0256626718 0.0927739218
      0.263891071 0.263891071 0.263891071 0.113596417 0.118905142
      0.0374374427 0.00616889074 0.0330380313 0.0507158451 0.263891071
      0.263891071 0.263891071 0.111325391 0.0214896519 0.00228856551
      0.00854059961</_>
    <_>
      0.0683803707 0.0189790372 0.0176530257 0.044579681 0.0293929186
      0.0561190173 0.195066914 0.200605124 0.121898808 0.0866301879
      0.0760279819 0.143701524 0.319395363 0.388592988 0.189396217
      0.165936738 0.130251735 0.103820376 0.101943254 0.0484624952
      0.0443737023 0.0631809086 0.050356023 0.0647136867 0.13648133
      0.0848522186 0.121977627 0.0824339986 0.135331422 0.147223979
      0.388592988 0.388592988 0.241082206 0.130821288 0.0661738217
      0.137749046 0.0286285542 0.0455675572 0.127499014 0.193911046
      0.2571024 0.0758275613 0.0244471747 0.0147176543 0.0270840209
      0.159808159 0.161497474 0.2571024 0.152144983 0.2571024
      0.0906307995 0.203534648 0.158831224 0.21592167 0.0118595231
      0.0510649718 0.10685353 0.200104311 0.2571024 0.140612945
      0.071168825 0.0137978317 0.0246753488 0.196878582 0.135248259
      0.2571024 0.150846824 0.2571024 0.229518443 0.2571024 0.188808933
      0.162574396 0.211483032 0.144938216 0.1708588 0.053371612
      0.0768033788 0.0382646136 0.201857015 0.15154624 0.223946244
      0.169082746 0.069309637 0.0802169964 0.0458710194 0.150959834
      0.0750277042 0.223946244 0.164725706 0.223946244 0.223946244
      0.126260981 0.189294234 0.0701118484 0.177838534 0.081738621
      0.223946244 0.210256934 0.213426337 0.19612211 0.104099236
      0.175164297 0.110920854 0.223946244 0.140234888 0.223946244
      0.19075197 0.21741733 0.0992276371 0.0298222508 0.0307658128
      0.0401305072 0.0894536898 0.0700533763 0.0758646801 0.0539185293
      0.119443499 0.06113993 0.0679821149 0.0496653765 0.374929607
      0.374929607 0.193292454 0.0716398284 0.0376817994 0.0975464284
      0.139234573 0.0328313448 0.0419722721 0.060946811 0.128292695
      0.138745323 0.161975831 0.0811569765 0.181894064 0.110499971
      0.175609961 0.135575578 0.374929607 0.374929607 0.300513953
      0.133550689 0.0524954945 0.143842384 0.0283732843 0.0232323501
      0.0333356559 0.195241794 0.297926545 0.125675485 0.0646652281
      0.0237112511 0.040750917 0.162682578 0.0464584604 0.111293599
      0.13140136 0.297926545 0.188852355 0.277384013 0.203417838
      0.207682312 0.0448918678 0.0752592236 0.0591623448 0.296353787
      0.297926545 0.125409409 0.0276529081 0.0179640111 0.0323388837
      0.0917743295 0.0712466016 0.213182077 0.297926545 0.297926545
      0.169893622 0.0890695527 0.0854352415 0.123069011 0.189291924
      0.0741774738 0.113533609 0.0546428002 0.147731259 0.0633284971
      0.213989735 0.213989735 0.180288672 0.20106934 0.147132665
      0.190814734 0.159473777 0.210260972 0.077681765 0.193818912
      0.160846218 0.138273209 0.156293511 0.0861822814 0.213989735
      0.157626078 0.213989735 0.0895990133 0.145215631 0.133272648
      0.169045106 0.213989735 0.127710521 0.15771237 0.149275437
      0.213989735 0.153382257 0.213989735 0.200282499 0.213989735
      0.0817332566 0.0378982052 0.0537661761 0.056311395 0.0863647386
      0.0903338566 0.125301838 0.0845953524 0.105571374 0.0459822789
      0.167132363 0.176538706 0.349919468 0.362548679 0.228936464
      0.121330082 0.0533847474 0.0671373382 0.10472443 0.0725502297
      0.0429180786 0.0759119466 0.143038988 0.0853841901 0.171009257
      0.145297796 0.0923714116 0.0644900724 0.126426697 0.166193515
      0.362548679 0.362548679 0.280716628 0.166436389 0.118258603
      0.0371641666 0.046483282 0.0752179399 0.0701017156 0.272317976
      0.272317976 0.0995896906 0.0569627099 0.0190049615 0.0457719266
      0.16191566 0.0612310395 0.17776832 0.272317976 0.272317976
      0.124576427 0.148888901 0.0615480542 0.236001387 0.0754360333
      0.0329525843 0.0682545379 0.24629572 0.272317976 0.122005299
      0.068915911 0.0438737385 0.0812359229 0.272317976 0.065847531
      0.113714233 0.178345412 0.272317976 0.124238998 0.173586845
      0.148437694 0.272317976 0.117810421 0.0553707443 0.251269877
      0.177610844 0.251269877 0.14255245 0.0930804387 0.0533472262
      0.152406558 0.120500132 0.0729318708 0.251269877 0.197019011
      0.251269877 0.205872282 0.201436833 0.109744072 0.116053596
      0.169602111 0.0841016993 0.167748779 0.174518913 0.251269877
      0.144681647 0.0667195395 0.0914779902 0.205487221 0.0858536065
      0.092212759 0.251269877 0.244824782 0.251269877 0.152497023
      0.0452967994 0.0913017169 0.0706162006 0.0660116225 0.0439698622
      0.0240694396 0.0708993822 0.114741646 0.0643232688 0.123274483
      0.098657012 0.109498419 0.106504209 0.0884681866 0.105940916
      0.335065573 0.335065573 0.207695559 0.0828726292 0.0978807136
      0.0693676546 0.0979912803 0.0640835389 0.0634661317 0.174793288
      0.251275271 0.0976219252 0.0570621081 0.0723466799 0.104754023
      0.129453138 0.148120672 0.293996155 0.335065573 0.335065573
      0.335065573 0.0345589779 0.0677316189 0.055324506 0.0788263306
      0.0297984667 0.0864343643 0.176462039 0.260096192 0.114526242
      0.0588243268 0.069934614 0.0973017067 0.170573413 0.0357402451
      0.096926026 0.14070347 0.260096192 0.109482788 0.204826742
      0.204687655 0.260096192 0.11846932 0.0749183297 0.190863147
      0.224174976 0.260096192 0.235592768 0.0704913586 0.0421292707
      0.0935112983 0.185353264 0.0423500687 0.143897638 0.178295836
      0.260096192 0.181277156 0.209068745 0.13004759 0.260096192
      0.172727555 0.060752593 0.0651116446 0.143616751 0.246418878
      0.100840703 0.167586133 0.153299794 0.247863561 0.133731321
      0.0605727136 0.147778884 0.195018053 0.247863561 0.103923179
      0.134010807 0.108645856 0.192864642 0.185952231 0.0375939123
      0.0515337549 0.0617523007 0.161080018 0.0665122196 0.232463807
      0.140113905 0.247863561 0.247863561 0.0536981039 0.129879892
      0.159628198 0.247863561 0.0819746926 0.247863561 0.170180246
      0.247863561 0.0631515756 0.0422739945 0.0420506336 0.133153185
      0.280898631 0.0806084946 0.0345566943 0.0389902294 0.057364203
      0.0431506112 0.0770590752 0.19428882 0.284983397 0.383045644
      0.258641422 0.033462774 0.0262112767 0.0146169178 0.0520831533
      0.0452356078 0.0270513855 0.161555782 0.334732205 0.105600536
      0.0472326279 0.0369894579 0.0476715676 0.0304994471 0.0329753868
      0.0938576236 0.383045644 0.383045644 0.257873684 0.051411204
      0.0309413467 0.0453392938 0.120673336 0.0636075586 0.123763114
      0.19274573 0.290871918 0.206231371 0.0883073807 0.0332632251
      0.117114462 0.290871918 0.0741463751 0.0616473742 0.118992105
      0.237344742 0.143116757 0.124546275 0.122982919 0.290871918
      0.132857487 0.0355058908 0.0796586946 0.16985552 0.290871918
      0.140062615 0.0778622925 0.045022212 0.233741075 0.290871918
      0.151086763 0.042838078 0.0465435758 0.146026507 0.0617613308
      0.0994930714 0.154926196 0.290871918 0.218263775 0.0684411153
      0.0315492377 0.0341342054 0.112077005 0.0540544167 0.107517578
      0.093744792 0.24843213 0.247400671 0.0835083723 0.0887502059
      0.0911065713 0.255616754 0.114777595 0.259372443 0.142246857
      0.259372443 0.259372443 0.163851127 0.0238056015 0.0247586668
      0.0499553271 0.0430609621 0.0842326507 0.0957772136 0.259372443
      0.259372443 0.12109676 0.0796323791 0.101686187 0.25156185
      0.162170231 0.259372443 0.147569492 0.259372443 0.0268935114
      0.0305827204 0.0321408585 0.154912576 0.287717432 0.0821553618
      0.0300430711 0.0299173947 0.03678618 0.0814960524 0.05084664
      0.0816600472 0.33025974 0.33025974 0.144695476 0.0382793546
      0.0291766915 0.0403105728 0.0209621768 0.0689343512 0.0451601185
      0.196802616 0.33025974 0.139024779 0.0530315191 0.279148698
      0.140154406 0.122535348 0.183810756 0.117125414 0.33025974
      0.33025974 0.227174044 0.0554417446 0.0720462725 0.0559998117
      0.106544703 0.0377280936 0.0718432367 0.108688563 0.280008167
      0.0676380396 0.0810158849 0.0893100426 0.183646381 0.280008167
      0.126157597 0.0495310314 0.0185283404 0.158842891 0.0626339391
      0.189769566 0.149674773 0.280008167 0.148534 0.0760344267
      0.0553834029 0.092870459 0.280008167 0.0844055191 0.169156998
      0.19357188 0.212177068 0.280008167 0.0747223124 0.0294164736
      0.0155684426 0.118871406 0.0500836708 0.280008167 0.280008167
      0.280008167 0.2527242 0.153860822 0.0754396394 0.0350732431
      0.107147172 0.0676921532 0.131081209 0.0666354373 0.2527242
      0.2527242 0.10246437 0.16309008 0.0952220708 0.2527242
      0.0873926952 0.16372472 0.0628311932 0.243385658 0.2527242
      0.0767323226 0.0689912513 0.0302399136 0.194322243 0.0695269182
      0.2527242 0.2527242 0.2527242 0.174206108 0.0586152039 0.113325372
      0.0596225262 0.2527242 0.0789337158 0.2527242 0.147096887
      0.120419778 0.0124593619 0.0528335646 0.0228520818 0.141756266
      0.382629037 0.182901338 0.040329244 0.205313861 0.0978114977
      0.0735508725 0.0988171622 0.0412227362 0.242304102 0.382629037
      0.146827191 0.0643569753 0.0581945181 0.0481348298 0.0127192354
      0.0231672954 0.0144135216 0.185187235 0.382629037 0.252802104
      0.0194205903 0.0683456063 0.0466427468 0.0410133786 0.0426735841
      0.0195375066 0.218709543 0.382629037 0.166118652 0.0551954024
      0.0331708416 0.0583996326 0.201154485 0.0576345287 0.0202818215
      0.0758349448 0.273752302 0.0661436617 0.167655766 0.171587214
      0.20867008 0.273752302 0.0430445746 0.00964784808 0.0186743829
      0.0583473183 0.0157948304 0.273752302 0.273752302 0.273752302
      0.159240082 0.0589425191 0.0200987197 0.0980877429 0.273752302
      0.0639189482 0.102443635 0.0855227783 0.144768015 0.273752302
      0.0894700289 0.0653899536 0.131916225 0.207333118 0.0213186536
      0.15782693 0.237980708 0.273752302 0.212198734 0.0278723873
      0.0128143802 0.0122556342 0.0998977944 0.0403134711 0.25838542
      0.25838542 0.25838542 0.109143235 0.0147671914 0.0173692964
      0.017042404 0.25838542 0.0965528637 0.25838542 0.190398484
      0.128621683 0.175400525 0.0652982369 0.101128995 0.060928423
      0.25838542 0.0817711502 0.25838542 0.252408683 0.25838542
      0.0797519311 0.0494143255 0.0900615752 0.0407092795 0.25838542
      0.181621939 0.25838542 0.128498927 0.09893924</_>
    <_>
      0.14986071 0.0907855183 0.086819157 0.164331153 0.22446838
      0.0917250216 0.0909223258 0.22446838 0.22446838 0.115255535
      0.0663123131 0.0707133412 0.100502275 0.18322508 0.0980750248
      0.0645143837 0.106063955 0.0572397783 0.22446838 0.206583709
      0.210810289 0.201930374 0.22446838 0.118492633 0.0857804865
      0.192674369 0.184042647 0.22446838 0.22446838 0.186562479
      0.21682319 0.22446838 0.187723637 0.156067654 0.167353109
      0.168448702 0.122988679 0.0652082488 0.0533969775 0.0421618633
      0.0880219936 0.0765888244 0.0560236052 0.0777792335 0.0759527907
      0.072088778 0.0528312512 0.05585327 0.0420290418 0.0305118896
      0.0243500266 0.0236950852 0.0512349047 0.0855375007 0.272725195
      0.272725195 0.151943266 0.272725195 0.272725195 0.272725195
      0.272725195 0.272725195 0.272725195 0.133921772 0.0795120001
      0.0514704585 0.140280008 0.0810205117 0.159343421 0.272725195
      0.272725195 0.272725195 0.104808226 0.128186926 0.10731101
      0.121244803 0.115027554 0.0792355761 0.0613656193 0.0795965195
      0.0979691222 0.133311003 0.200332001 0.145572275 0.173383519
      0.157342061 0.067682974 0.0530762821 0.103163332 0.0983059704
      0.118839927 0.248257324 0.138647616 0.243862957 0.160780564
      0.161034301 0.248257324 0.248257324 0.248257324 0.17983453
      0.248257324 0.226921991 0.248257324 0.181773439 0.116131023
      0.146797776 0.187975392 0.203528449 0.0998465568 0.174407095
      0.236203775 0.199844703 0.236203775 0.116432138 0.0352254063
      0.0915467888 0.0956591293 0.197635069 0.230875298 0.128670111
      0.169457898 0.236203775 0.199504435 0.110312343 0.105876796
      0.189288601 0.0563346222 0.0869796798 0.236203775 0.236203775
      0.236203775 0.205172509 0.0684769675 0.0466699153 0.0750477687
      0.0567025989 0.125803515 0.12073309 0.127712831 0.236203775
      0.236203775 0.169454455 0.147950202 0.190091819 0.120607764
      0.155745566 0.0580511279 0.158502221 0.231866807 0.21291846
      0.240698844 0.179393739 0.236038461 0.0298036858 0.0381132104
      0.0140046384 0.0726408884 0.130228728 0.210004181 0.240698844
      0.240698844 0.123529255 0.0534642525 0.0894995108 0.0501468927
      0.0993679836 0.17413798 0.240698844 0.240698844 0.226496458
      0.205697045 0.0313100219 0.032145638 0.0188450702 0.057510294
      0.240698844 0.240698844 0.240698844 0.202724904 0.0414382219
      0.0446374677 0.0558723435 0.0415696539 0.139285356 0.30658859
      0.294106007 0.232498467 0.211689025 0.0849432424 0.110191666
      0.133518264 0.0977519453 0.154729337 0.208565816 0.121745065
      0.114532046 0.100339226 0.0733193234 0.0240172278 0.0145962248
      0.0239496008 0.0909214243 0.326770097 0.326770097 0.209875673
      0.115174308 0.0102908341 0.0731820986 0.0684246197 0.0497317649
      0.0866930336 0.326770097 0.326770097 0.103479736 0.0754371881
      0.0545552708 0.0534388162 0.03361772 0.097693637 0.125411227
      0.340308189 0.21526204 0.0458189845 0.0259062275 0.0522294231
      0.0300183576 0.0373591371 0.076568462 0.070595853 0.267873526
      0.237905383 0.130716726 0.169394508 0.0866323262 0.0279133972
      0.032359153 0.119600236 0.232546926 0.340308189 0.282316983
      0.0210629962 0.0207861494 0.0223230738 0.0224581715 0.0393063612
      0.0854012817 0.231128216 0.340308189 0.340308189 0.0779317766
      0.19245258 0.0179527663 0.0287034344 0.028811805 0.0468894057
      0.0798230767 0.225002855 0.206861898 0.258929193 0.264435679
      0.0960705951 0.0170922298 0.0128845368 0.0548925363 0.0751729012
      0.29197529 0.29197529 0.261532336 0.200230688 0.0184668191
      0.0157447476 0.0289433058 0.0790884718 0.178745642 0.29197529
      0.228307128 0.111296684 0.217344761 0.0215990432 0.00452903425
      0.0155398929 0.0728274956 0.0898586661 0.29197529 0.29197529
      0.124530293 0.148428097 0.0187373646 0.00251331949 0.00304789492
      0.0186394602 0.0237824526 0.348218977 0.348218977 0.070099093
      0.0467110053 0.00220111292 0.00883780885 0.00630157115
      0.00210480834 0.0219519194 0.348218977 0.348218977 0.0355283394
      0.0122374222 0.0109221861 2.57612792e-05 0.00208247406 0.012199359
      0.0247580707 0.348218977 0.348218977 0.0747162998 0.0538725629
      0.00809573382 0.00229225936 0.000262797257 9.80934274e-05
      0.0386306159 0.348218977 0.348218977 0.0739754289 0.00340376003
      0.00254104892 0.0262423102 0.0408902168 0.114069492 0.163994849
      0.346041054 0.180933222 0.0876867399 0.00485214684 0.0220727809
      0.0342712998 0.0621768162 0.0825510025 0.188187882 0.346041054
      0.244329989 0.159159556 0.0336307995 0.00286009465 0.0180182084
      0.0198095515 0.0401078314 0.0994095355 0.346041054 0.215462193
      0.148662418 0.00221837685 0.0197020061 0.0801685974 0.0615802333
      0.0520481803 0.159593239 0.346041054 0.302208006 0.29391247
      0.0126048625 0.0593885854 0.014869702 0.0452851616 0.0877790302
      0.184992731 0.324102819 0.179906994 0.0892911106 0.0531485751
      0.0124316858 0.00422417745 0.0342910402 0.0770457983 0.0791292489
      0.324102819 0.313925505 0.101883598 0.083511889 0.0226238966
      0.210920021 0.131748155 0.0989276692 0.209435657 0.324102819
      0.185981467 0.194107577 0.0369597077 0.144334599 0.107524149
      0.135236695 0.147452861 0.121997811 0.324102819 0.257636219
      0.0955705047 0.0519790798 0.0679554269 0.000700895267
      0.00890924782 0.0171107762 0.0261185858 0.350798726 0.350798726
      0.0658503771 0.0421149544 0.0101457993 0.00130073202 0. 0.
      0.0521610454 0.350798726 0.350798726 0.043773789 0.000343736989
      0.00137195806 0.00952767301 0.0284033809 0.0495186001 0.0354669914
      0.350798726 0.350798726 0.0431599654 0.019334266 0.00639968226
      0.000982011436 0. 0.000172670043 0.0772062093 0.350798726
      0.331380367 0.0225307792 0.00015284562 0.000982011436
      0.00273587555 0.00435906323 0.0216070097 0.0966934711 0.41783005
      0.156503901 0.047122933 0.00254234695 0.00550970575 0.112808816
      0.0491017364 0.0768819824 0.167606488 0.41783005 0.181221634
      0.124762811 0.0134429941 0.103970408 0.00185581844 0.00465276698
      0.0382431559 0.159343094 0.41783005 0.127394781 0.0262796264
      0.00551254861 0.00531326886 0.0384873077 0.0306414999 0.0942292958
      0.287556589 0.41783005 0.0976669267 0.0582594462 0.00892543141
      0.0388569534 0.302414894 0.138407454 0.111350127 0.229854643
      0.302414894 0.113604791 0.142224312 0.0316005945 0.268854022
      0.161773503 0.112055548 0.113247521 0.186036572 0.302414894
      0.164494127 0.0648233518 0.0140064945 0.102348402 0.11038924
      0.0747694969 0.120280258 0.278266639 0.302414894 0.0740572438
      0.0388370752 0.0136301843 0.0963601023 0.0581336357 0.0983278155
      0.104428671 0.21345903 0.302414894 0.145937622 0.0482523218
      0.0147050126 0.0361553542 0.00923590269 0.0158365741 0.0317487828
      0.0561406203 0.426789731 0.241772339 0.0384430811 0.00254640332
      0.00221516448 0.000559215317 0. 0.00193315186 0.0716405883
      0.426789731 0.270928413 0.00944936089 0.000188315127
      0.000559215317 0.0177573934 0.0266769733 0.0219992325 0.104832768
      0.426789731 0.180223301 0.0455548093 0.0059662885 0.000465060904
      0.00165612891 0.000295074075 0.00227335561 0.0804601386
      0.426789731 0.265486389 0.00375459553 0.000153730361
      0.000602697546 0.0139555726 0.0197234154 0.023814911 0.152391285
      0.406378418 0.142469749 0.0383084677 0.0194980707 0.0217519104
      0.0356571637 0.0825530961 0.0697910264 0.326496363 0.406378418
      0.102120645 0.0660261288 0.0234367885 0.0336528532 0.02028157
      0.0252785385 0.0345168933 0.149085149 0.406378418 0.14300029
      0.0242691003 0.0146126393 0.0533701219 0.0472626761 0.112912692
      0.131702915 0.243979603 0.406378418 0.100090638 0.0294224266
      0.0161057748 0.0279497672 0.0259383321 0.0691289678 0.0907630771
      0.261731118 0.300590575 0.0614919439 0.0207143072 0.0225689393
      0.0255551767 0.0737053081 0.109040558 0.0934044123 0.262003571
      0.300590575 0.083815895 0.0129352156 0.057551045 0.0207195505
      0.0602116287 0.172531679 0.295074999 0.300590575 0.300590575
      0.0981865376 0.0387414694 0.0359304175 0.0722906366 0.138842925
      0.215230048 0.19626452 0.300590575 0.300590575 0.0828320161
      0.0414773189 0.0686440095 0.0783668086 0.0520979762 0.0458556674
      0.021982614 0.149339765 0.360367268 0.136426032 0.0116486689
      0.0246688314 0.00497643044 0.00637484668 0.00122138835
      0.000572620949 0.0622840226 0.360367268 0.347471654 0.0308095925
      0.00217954698 0.00506484928 0.0645201504 0.0701849982 0.0299550407
      0.309862942 0.360367268 0.120356604 0.0133482963 0.0231487658
      0.0141431643 0.0113592204 0.000984132523 0.00716423756 0.122142069
      0.360367268 0.360367268 0.193940744 0.0128323529 0.0132911308
      0.0187713522 0.0590335988 0.0953426212 0.144110113 0.274048984
      0.151018143 0.0540002137 0.0306597482 0.0605624318 0.0440867916
      0.206401736 0.274048984 0.165502295 0.274048984 0.0923583433
      0.044107236 0.0205297247 0.021279769 0.0338327922 0.185759693
      0.228195474 0.166745409 0.274048984 0.147316203 0.169994652
      0.274048984 0.0904460698 0.0915648714 0.274048984 0.274048984
      0.172893971 0.247254103 0.154694661 0.0998276621 0.0810383111
      0.100230962 0.054958865 0.19212456 0.254336238 0.220377952
      0.277020901 0.0986949429 0.0561834015 0.0280148219 0.0454517975
      0.0355844982 0.0821043104 0.119453803 0.277020901 0.277020901
      0.10527882 0.0452476293 0.0169901028 0.0300998818 0.0902279764
      0.268624067 0.277020901 0.179615989 0.277020901 0.154724523
      0.113215536 0.0485859141 0.0844325498 0.0250149295 0.116995141
      0.222060904 0.277020901 0.277020901 0.158053115 0.0777583271
      0.0239417814 0.0218643025 0.0179861803 0.0249957927 0.156593114
      0.296758592 0.296758592 0.0651274025 0.0106933881 0.00380929373
      0.00572624244 0.00601713406 0.00310475985 0.0686242059 0.291620374
      0.296758592 0.283164471 0.168289706 0.0116434172 0.00838636886
      0.0335455574 0.121080376 0.296758592 0.296758592 0.296758592
      0.0633179396 0.00808373373 0.00489000743 0.0033414131 0.0352198146
      0.0769976601 0.172894552 0.296758592 0.270648539 0.141083241
      0.0386535451 0.0199104305 0.0138774682</_>
    <_>
      0.0970133245 0.0244996157 0.0179557689 0.0120228864 0.0388395488
      0.0697486326 0.123008288 0.215651065 0.17053251 0.125117481
      0.084150359 0.0347223207 0.149661317 0.275252819 0.275252819
      0.213105276 0.270742834 0.111903161 0.164511845 0.106130295
      0.0620372258 0.066692926 0.0620630756 0.105144054 0.119271055
      0.129181519 0.146641791 0.19610697 0.152324632 0.111933775
      0.275252819 0.275252819 0.275252819 0.244989619 0.190004915
      0.221406415 0.0390004963 0.0355712548 0.0733661652 0.0944396555
      0.185510829 0.102983214 0.0378133133 0.017107293 0.00991046149
      0.115256928 0.1334562 0.287765414 0.287765414 0.287765414
      0.184976578 0.0557198264 0.0470694043 0.0768828169 0.0650335029
      0.0649616793 0.150170103 0.213226542 0.287765414 0.188815683
      0.0451473333 0.0231014006 0.076164633 0.116225749 0.162087366
      0.287765414 0.287765414 0.287765414 0.287765414 0.0816428512
      0.0985883996 0.132385984 0.208324537 0.10264758 0.159440175
      0.190225288 0.189083189 0.136838049 0.108742468 0.126140043
      0.154091299 0.208324537 0.113965541 0.0662992075 0.138388902
      0.208324537 0.208324537 0.186277151 0.18149896 0.201993063
      0.157774553 0.12210653 0.208324537 0.201611564 0.20338507
      0.139658317 0.111895703 0.143055126 0.137170523 0.170893312
      0.15964143 0.148346543 0.0895798579 0.208324537 0.201842815
      0.208324537 0.158095211 0.16573748 0.0898198411 0.0797675252
      0.0505567007 0.060976997 0.0734188557 0.0694742575 0.0712685809
      0.0587837249 0.0638641566 0.107689515 0.111874275 0.161617994
      0.169491723 0.326767653 0.235856056 0.11451719 0.0862928852
      0.180773735 0.0640553534 0.0472029261 0.0456158146 0.0520400256
      0.0788524747 0.0492005013 0.227706254 0.234733656 0.160279408
      0.161869645 0.247403756 0.326194674 0.326767653 0.326767653
      0.263235003 0.109848224 0.0949610397 0.0919332951 0.0429251343
      0.0541120991 0.117930509 0.155139565 0.259356678 0.157459125
      0.0196570288 0.0146401543 0.0727732256 0.0936156511 0.0909423232
      0.259356678 0.259356678 0.259356678 0.240624025 0.0606874637
      0.0789766535 0.131244689 0.0741324574 0.0797198266 0.144223571
      0.212585762 0.259356678 0.177332908 0.0298344493 0.012329651
      0.0559395924 0.17049019 0.0985190198 0.210107476 0.259356678
      0.259356678 0.259356678 0.204701632 0.101207562 0.187719256
      0.084336035 0.0762734264 0.213217601 0.184945181 0.22179237
      0.117867693 0.134926796 0.147042841 0.131397545 0.0935942903
      0.153051183 0.166727781 0.10733179 0.22179237 0.203797385
      0.22179237 0.107899867 0.0984261408 0.15053533 0.141842335
      0.128205389 0.182783619 0.22179237 0.135777861 0.186495796
      0.139056906 0.188981727 0.137569204 0.22179237 0.212941438
      0.198622987 0.22179237 0.22179237 0.180471241 0.0944765732
      0.0968633741 0.026108427 0.0069783926 0.0288911592 0.0445682369
      0.0686755329 0.0403600745 0.0878923461 0.103619926 0.0738489032
      0.0623738095 0.158947214 0.202089399 0.294576973 0.331877232
      0.2107438 0.0504417643 0.0588408858 0.0427030064 0.0211755782
      0.00181394152 0.0270734169 0.187927291 0.202065185 0.0811055228
      0.02947741 0.0401326455 0.0459343828 0.0495759733 0.331877232
      0.331877232 0.331877232 0.331877232 0.331877232 0.0324950181
      0.0219573136 0.0225331094 0.0647750795 0.108101912 0.14005658
      0.171547577 0.229058787 0.164495543 0.0256715361 0.0250962265
      0.0448054858 0.15915063 0.118468337 0.108812757 0.192636892
      0.229058787 0.213550434 0.196696907 0.114848755 0.149251148
      0.0668863133 0.229058787 0.164553776 0.229058787 0.229058787
      0.229058787 0.0375169218 0.0269648992 0.0259283576 0.167481378
      0.229058787 0.101164281 0.146940559 0.229058787 0.229058787
      0.229058787 0.212918341 0.173519149 0.150914043 0.145273864
      0.0685709119 0.141514704 0.231097251 0.129197061 0.176693603
      0.0921636969 0.143164068 0.123353675 0.177017465 0.187467352
      0.216728926 0.231097251 0.185740009 0.093243815 0.0505025201
      0.067661494 0.13548854 0.117581576 0.101446845 0.11730355
      0.231097251 0.209265992 0.231097251 0.21110177 0.211667553
      0.113742195 0.103301838 0.231097251 0.231097251 0.231097251
      0.183224946 0.192653805 0.0917349532 0.0851175785 0.00748661766
      0.0041561164 0.022716146 0.167821199 0.131283656 0.0250906479
      0.0103629827 0.00688038813 0.0086627258 0.0314260013 0.249344081
      0.261789858 0.295460939 0.295460939 0.219786242 0.028389737
      0.00146522501 0.0127661889 0.0113079855 0.0687376186 0.102176115
      0.267387718 0.222039744 0.0470470414 0.0246456042 0.00646226853
      0.0090968525 0.0600292087 0.295460939 0.295460939 0.295460939
      0.295460939 0.295460939 0.118995912 0.0221921727 0.0292654429
      0.0672407448 0.229527816 0.157689705 0.229527816 0.229527816
      0.208394036 0.0507399887 0.024444852 0.0242934804 0.105297707
      0.229527816 0.0848979726 0.174471527 0.229527816 0.167785481
      0.181616127 0.137194678 0.121252574 0.0854698196 0.229527816
      0.170867413 0.229527816 0.229527816 0.186472505 0.123788901
      0.0697926059 0.065610379 0.0977271721 0.229527816 0.150622308
      0.206076324 0.229527816 0.130535305 0.146997035 0.124452256
      0.162136763 0.059924487 0.09105362 0.159075171 0.15364261
      0.247469023 0.240313485 0.212461561 0.16020523 0.167935088
      0.0539735891 0.0581629463 0.247469023 0.229871318 0.247469023
      0.226670578 0.118028134 0.0871799812 0.0790058896 0.0631671846
      0.156339675 0.193667471 0.211803839 0.247469023 0.247469023
      0.0756637231 0.0802299902 0.141311169 0.0856717974 0.0740926191
      0.133156911 0.170135468 0.247469023 0.247469023 0.0548072346
      0.0333103836 0.080308497 0.0273298603 0.125827178 0.136588976
      0.180378914 0.16146268 0.0694030151 0.0298624188 0.00810358487
      0.00702943141 0.111553684 0.259339005 0.259339005 0.259339005
      0.259339005 0.259339005 0.129042923 0.0375091508 0.01268698
      0.047004506 0.220643193 0.183025107 0.197765172 0.201378271
      0.0958060622 0.02317697 0.0211287066 0.0316404141 0.114875801
      0.259339005 0.259339005 0.259339005 0.259339005 0.259339005
      0.0705040246 0.02092769 0.0261991043 0.104614511 0.239613727
      0.133489877 0.173518136 0.239613727 0.16019927 0.176950112
      0.0973052308 0.0503659658 0.102323122 0.222925484 0.154593438
      0.160219491 0.239613727 0.164369971 0.168500692 0.117946953
      0.124656551 0.0719676539 0.222201377 0.1682785 0.206993073
      0.239613727 0.233957365 0.105750859 0.0361220799 0.0288412459
      0.0655896962 0.183989525 0.167201295 0.239613727 0.239613727
      0.239613727 0.110767074 0.0274635702 0.0186357871 0.0775351301
      0.155866817 0.193627283 0.263500124 0.289458126 0.224343106
      0.06709636 0.0557815991 0.101397656 0.102593422 0.0439079739
      0.109943435 0.219453022 0.289458126 0.168050826 0.0445359834
      0.0288741775 0.101380676 0.0609768629 0.1159482 0.206031144
      0.289458126 0.289458126 0.225019678 0.0447600037 0.0323457755
      0.0454355367 0.140758321 0.0215884335 0.115772426 0.289458126
      0.289458126 0.0971683189 0.019930521 0.0379869342 0.12073414
      0.0241080467 0.160202384 0.213591829 0.225307584 0.197266668
      0.101872072 0.00752265193 0.013018541 0.0195945762 0.0546716787
      0.23848632 0.23848632 0.23848632 0.23848632 0.23848632
      0.0617023148 0.0184083432 0.0350847393 0.0220721625 0.189185038
      0.220737845 0.23848632 0.23848632 0.16187714 0.0201120749
      0.00754429027 0.00492641423 0.0749874413 0.23848632 0.23848632
      0.23848632 0.23848632 0.23848632 0.116791554 0.0402292199
      0.0404218659 0.0461869314 0.159497738 0.173754096 0.19135575
      0.244419873 0.214546189 0.0690683499 0.0144790672 0.034312468
      0.0523861237 0.165752336 0.187134877 0.261062056 0.261062056
      0.261062056 0.0552817881 0.00372754736 0.0130526582 0.077013351
      0.160993472 0.193770483 0.120332181 0.233614266 0.218151867
      0.0805413276 0.026671093 0.0868044198 0.0544681475 0.191811457
      0.261062056 0.261062056 0.261062056 0.261062056 0.0270354468
      0.0115546873 0.0642787665 0.0614005141 0.0942768604 0.189563438
      0.301003486 0.301003486 0.190174565 0.0357575342 0.0151597373
      0.0242352206 0.164899364 0.0252747517 0.0792269856 0.283086807
      0.301003486 0.0968211964 0.0386081748 0.0190133993 0.0782858804
      0.0493300855 0.0802332014 0.223240688 0.301003486 0.301003486
      0.200186312 0.0517772473 0.0485030897 0.0137497755 0.0826609954
      0.0381190777 0.0846471339 0.262183577 0.301003486 0.0846337602
      0.122013383 0.119893968 0.101478979 0.0425287932 0.193930343
      0.154773682 0.247659713 0.247659713 0.172023535 0.0210384503
      0.0259509012 0.00581313204 0.102147624 0.218075559 0.176450878
      0.208123878 0.247659713 0.247659713 0.0713226199 0.058428295
      0.0366865359 0.0524549037 0.195994198 0.209227741 0.247659713
      0.247659713 0.186375722 0.04158004 0.0540245622 0.00934062898
      0.0933203772 0.247659713 0.195054412 0.160722941 0.247659713
      0.247659713 0.051151365 0.0917917117 0.0326028392 0.0459290408
      0.152578592 0.134227633 0.100511983 0.256210923 0.177990526
      0.0344570726 0.0146603007 0.0549594015 0.0293547828 0.170110896
      0.275595367 0.278318614 0.278318614 0.245260537 0.0182318371
      0.0043974896 0.0418019183 0.0229142476 0.222121015 0.163637578
      0.166928247 0.278318614 0.193820313 0.0288638473 0.0132545093
      0.0110957958 0.0133671071 0.188940242 0.278318614 0.278318614
      0.278318614 0.169448867 0.0366594382 0.00470112823 0.00556485029
      0.0302343071 0.0647338554 0.211953029 0.26373598 0.26373598
      0.129373789 0.0326532274 0.0324467644 0.021574039 0.0637929216
      0.0694174916 0.12578316 0.193440855 0.256913334 0.105095729
      0.142149523 0.199229598 0.155103475 0.0417618006 0.103180811
      0.26373598 0.26373598 0.26373598 0.113698021 0.0586687028
      0.041539181 0.0202405099 0.11649701 0.169858307 0.26373598
      0.202911392 0.26373598 0.20599556 0.144459412 0.163981736
      0.115319498</_>
    <_>
      0.0436586142 0.0504568852 0.0575241446 0.0540171377 0.251152873
      0.171294928 0.0657590553 0.0321823731 0.0950192958 0.147338778
      0.109031737 0.0997440517 0.152231202 0.251152873 0.217631429
      0.0932022333 0.0916085914 0.204652607 0.138402522 0.141843706
      0.180100366 0.088510938 0.251152873 0.137819692 0.108137295
      0.07939668 0.149376526 0.2369221 0.222390071 0.251152873
      0.188327819 0.251152873 0.24706383 0.17889294 0.136450857
      0.251152873 0.0710437968 0.0317320786 0.0738345906 0.110242859
      0.321307361 0.228509411 0.108933248 0.0613976158 0.0852047056
      0.0470719822 0.0262327231 0.0738968924 0.125104427 0.321307361
      0.321307361 0.118249759 0.0215372462 0.0341458246 0.0862115845
      0.0653178915 0.190307498 0.167126104 0.321307361 0.264157087
      0.0905285552 0.0610847101 0.0838671848 0.0656904653 0.077777274
      0.126575902 0.193874583 0.321307361 0.321307361 0.0992143974
      0.0177170746 0.0155455489 0.0169600621 0.0120727681 0.0199316721
      0.0702695474 0.38286075 0.377227992 0.0335182212 0.00204859884
      0.00754685933 0.000970574387 0.00196437235 0.00479190284
      0.0236008894 0.38286075 0.141539738 0.00545749906 0.00247910852
      0.00121698948 0.0255636461 0.0362060405 0.0275585297 0.100252748
      0.38286075 0.38286075 0.0552259497 0.0045922799 0.00192441908
      0.00125948642 0.00391339371 0.00740468642 0.0220746491 0.38286075
      0.27730301 0.0066691204 0.0015330927 0.00130962732 0.0755603537
      0.108629376 0.14932929 0.0556140095 0.269671291 0.0831146762
      0.129396319 0.128685609 0.131279483 0.11548347 0.174403295
      0.270180762 0.114413418 0.270180762 0.157200098 0.149059579
      0.128597185 0.15909937 0.08148285 0.108396702 0.0998865589
      0.035908673 0.270180762 0.101875149 0.262816966 0.148888424
      0.0919834748 0.12268953 0.112828016 0.153339699 0.05910521
      0.270180762 0.18640843 0.270180762 0.248843685 0.149735913
      0.0618603714 0.0573730692 0.131768063 0.127909914 0.309540689
      0.207292497 0.103067338 0.0337738171 0.0413731337 0.0734345764
      0.0409937911 0.115672596 0.112138107 0.309540689 0.309540689
      0.132727861 0.0182973072 0.0335951224 0.0442695357 0.0309327394
      0.11055126 0.0849644467 0.309540689 0.218987942 0.308653235
      0.0787649527 0.0530312844 0.0467344373 0.0193550196 0.105837628
      0.102526486 0.309540689 0.309540689 0.259840369 0.0563211106
      0.0553292446 0.0263377633 0.0141822277 0.0320059769 0.047268942
      0.40123263 0.332497388 0.0372046642 0.00544667616 0.0143330386
      0.00336150196 0.00305958814 0.00464029517 0.0161682293 0.40123263
      0.182899237 0.00367939076 0.00068679126 0.0023492889 0.0169918891
      0.0041495082 0.0401449092 0.0508663766 0.40123263 0.40123263
      0.0689700991 0.0192891732 0.0270519815 0.00708150724 0.00473663537
      0.00639616139 0.0220308118 0.40123263 0.172853887 0.00569294812
      0.00103571347 0.00863427669 0.0811420754 0.0670786723 0.083690457
      0.0425457135 0.250462741 0.0883910805 0.161790699 0.0845746323
      0.0702812821 0.158607766 0.0688294396 0.189153582 0.0614682399
      0.250462741 0.141306341 0.250462741 0.250462741 0.213595003
      0.06465929 0.049438633 0.107519753 0.075611718 0.250462741
      0.115508996 0.133027405 0.0893801227 0.116935752 0.19469592
      0.0940030664 0.250462741 0.173922867 0.250462741 0.124755137
      0.250462741 0.250462741 0.250462741 0.0530051738 0.0355152935
      0.139383137 0.0653549284 0.275212139 0.215844125 0.274799883
      0.163376451 0.101823933 0.0206467602 0.0284214206 0.0912739858
      0.102156788 0.275212139 0.275212139 0.170540556 0.0702506453
      0.0556872189 0.090642564 0.056057658 0.157610491 0.155455053
      0.271712929 0.174044415 0.148625761 0.275212139 0.169208199
      0.0257993918 0.0446350239 0.114569895 0.190724179 0.275212139
      0.275212139 0.105566725 0.11053811 0.0895300284 0.00825462677
      0.0106393062 0.0408526137 0.0646894723 0.37984404 0.37984404
      0.0558512658 0.0296940338 0.0202308148 0.00320233055 0.0019993009
      0.00414063456 0.0244369749 0.37984404 0.241803914 0.00541205425
      0.00189066492 0.00629181881 0.0135121131 0.0198996644 0.0558465496
      0.096618481 0.37984404 0.350265205 0.0341399424 0.032118544
      0.0418685637 0.00624466408 0.006020803 0.00422240328 0.0359766111
      0.37984404 0.253171206 0.0017558228 0.00206488045 0.00482781045
      0.0490214825 0.0233798604 0.0628165826 0.0824872479 0.243460819
      0.148948237 0.10944207 0.126715735 0.104916319 0.163098216
      0.0947868228 0.243460819 0.165698856 0.243460819 0.165487707
      0.145415097 0.243460819 0.243460819 0.0340131558 0.0636923835
      0.0787379295 0.0859824419 0.243460819 0.1349314 0.104738355
      0.097604163 0.0597558953 0.12610355 0.20812501 0.243460819
      0.14056249 0.243460819 0.184203908 0.243460819 0.234246492
      0.220791683 0.076251097 0.045820713 0.173105448 0.14628835
      0.319481224 0.117753163 0.0676211342 0.128071621 0.13150245
      0.0479906574 0.0262034088 0.147586405 0.19881016 0.319481224
      0.275522918 0.0632749945 0.0682119131 0.0648782253 0.0671270937
      0.0936711654 0.209857136 0.116846085 0.319481224 0.140476927
      0.131437033 0.099356845 0.118200414 0.0569756366 0.0327850692
      0.152880177 0.164744496 0.319481224 0.319481224 0.172556534
      0.0521926247 0.053082604 0.024821585 0.0115425838 0.0602417961
      0.0831575245 0.386732429 0.290237069 0.0187875312 0.018802667
      0.0348679088 0.00733161485 0.00772318523 0.00943666045
      0.0245793294 0.386732429 0.167194128 0.00128948619 0.00207872759
      0.00506497547 0.0257060789 0.00749439513 0.0685786381 0.0743480176
      0.386732429 0.386732429 0.0813461021 0.0177458599 0.0243622754
      0.00263334904 0.00848992076 0.0225018114 0.0205491371 0.386732429
      0.319981992 0.0138390176 0.002195996 0.00392387481 0.0295010488
      0.0966575816 0.120967597 0.0642402992 0.245501742 0.0865863338
      0.0657183006 0.0372186713 0.0482251234 0.164405212 0.245501742
      0.245501742 0.157937676 0.245501742 0.113594592 0.224387661
      0.196784168 0.183698162 0.0399289876 0.0839022771 0.13988477
      0.0848525167 0.245501742 0.18454574 0.0417906791 0.0225709751
      0.0696851909 0.241522133 0.245501742 0.245501742 0.245501742
      0.245501742 0.155414149 0.135249302 0.122553959 0.174761236
      0.115208313 0.127261147 0.160256878 0.121384665 0.311610073
      0.123784415 0.134680241 0.116690286 0.112190269 0.0394239202
      0.0522047542 0.0815195069 0.154358983 0.311610073 0.284474999
      0.160326436 0.0377344154 0.0331207328 0.194586575 0.175775245
      0.177951977 0.205753416 0.311610073 0.137960136 0.0921811163
      0.0747708976 0.103318751 0.0837571919 0.0753341541 0.0634574294
      0.129024133 0.311610073 0.311610073 0.124112196 0.0277968533
      0.0427840203 0.00748978369 0.0167751629 0.0419400893 0.0860683098
      0.400917917 0.328142613 0.0753388926 0.0123355696 0.00855102763
      0.00248149759 0.00586708402 0.0134685459 0.0180148073 0.400917917
      0.31280759 0.0129230917 0.00241221348 0.00350924232 0.0308735911
      0.035890352 0.0220098235 0.0645823702 0.400917917 0.278566003
      0.0698468089 0.012458181 0.00747002615 0.0173775516 0.0105512133
      0.00528040435 0.0205043759 0.400917917 0.202117667 0.00664102938
      0.0020779951 0.0066446322 0.028923301 0.0721670911 0.121957384
      0.0963287503 0.284773588 0.160845414 0.0254772604 0.0471273251
      0.0666154101 0.132625952 0.264940917 0.284773588 0.225542396
      0.284773588 0.132910609 0.0687508956 0.11129275 0.134212166
      0.037513949 0.0813201815 0.0907029808 0.0735866949 0.284773588
      0.160795003 0.0482049733 0.0817147791 0.0779179037 0.14777194
      0.22336477 0.284773588 0.200161174 0.284773588 0.166917741
      0.10135144 0.133735865 0.159238547 0.0937923938 0.0859075338
      0.120295063 0.137248769 0.372072786 0.112944514 0.0542714186
      0.0576425269 0.079663828 0.0492168479 0.0269611981 0.0595037341
      0.07466764 0.372072786 0.295523137 0.127696231 0.0336669832
      0.0422420315 0.0578974597 0.0630349368 0.224438488 0.171863109
      0.372072786 0.119022034 0.0913263336 0.0679794252 0.0752846226
      0.0278244559 0.0288741384 0.10476283 0.189365268 0.372072786
      0.260524869 0.100327268 0.0409010686 0.0276760329 0.0266829077
      0.0204969402 0.0382203236 0.0372711569 0.394747108 0.262856215
      0.0706771612 0.0143809374 0.0103423549 0.0166667942 0.0072285966
      0.00403673388 0.0178806391 0.394747108 0.163792297 0.00656813942
      0.00151603715 0.0100053884 0.0329833254 0.0363156013 0.0429737158
      0.0826704353 0.394747108 0.35670501 0.0576229431 0.0165032241
      0.0114472052 0.0134042948 0.0102277528 0.00527163129 0.0279388614
      0.394747108 0.35137555 0.00852662511 0.00326847634 0.00635546399
      0.0460079275 0.0967670903 0.0901396275 0.0528989285 0.28057
      0.0942276865 0.0608572476 0.052045729 0.0357257761 0.179124817
      0.206739515 0.28057 0.147005752 0.28057 0.123329662 0.242850229
      0.127610147 0.127914995 0.0433664769 0.0868123397 0.0990146771
      0.0808550641 0.28057 0.168074474 0.0667163432 0.0325810499
      0.0162785221 0.181014508 0.249176562 0.28057 0.218909398 0.28057
      0.0990289003 0.221662223 0.115764149 0.0879373774 0.117827892
      0.0779326335 0.182836354 0.150766373 0.294900596 0.108155668
      0.212648898 0.0688227639 0.0652107075 0.0913511664 0.0474483222
      0.0887307897 0.216798246 0.294900596 0.203970209 0.120201893
      0.0271892864 0.0253293961 0.185015216 0.16658482 0.294900596
      0.147269517 0.294900596 0.0757894814 0.145449206 0.0697124451
      0.0734991133 0.146297187 0.1107217 0.19692786 0.227417961
      0.294900596 0.183512256 0.117471777 0.0355482362 0.0596807525
      0.0624045171 0.0643577054 0.0405164473 0.117278047 0.404835284
      0.281745046 0.0486764573 0.00877610035 0.00861380436 0.0189196523
      0.0240299087 0.0104971016 0.0251693968 0.404835284 0.328330308
      0.00937493052 0.00197504926 0.00329555711 0.053633254 0.0973834321
      0.0869589821 0.135434136 0.404835284 0.20911184 0.0766307712
      0.0235212818 0.0211599637 0.0178460069 0.035333138 0.0140985893
      0.02160611 0.404835284 0.184429809 0.0160817355 0.00631176634
      0.00795717817</_>
    <_>
      0.143445656 0.0567722991 0.0553758219 0.0601047017 0.251574874
      0.0933226347 0.0666240081 0.0364708789 0.0813775584 0.251574874
      0.213008448 0.0550161041 0.0485594198 0.186759874 0.104121342
      0.0841546282 0.181163311 0.251574874 0.249851599 0.0947354063
      0.0783559084 0.143602669 0.251574874 0.0874887332 0.125511721
      0.0720778555 0.231334716 0.251574874 0.251574874 0.10599646
      0.199726552 0.251574874 0.18804583 0.113941364 0.153157264
      0.251574874 0.182161301 0.139906541 0.0408503264 0.0218031425
      0.0683671609 0.0543559752 0.0792301446 0.193711966 0.234674767
      0.234674767 0.116596356 0.105578683 0.0887237042 0.11934378
      0.0674974695 0.0809771568 0.129443556 0.234674767 0.234674767
      0.215420425 0.141087711 0.106695622 0.184121102 0.101688325
      0.0905211344 0.15544267 0.234674767 0.234674767 0.14377363
      0.234674767 0.193610236 0.234674767 0.185745463 0.163496181
      0.217408955 0.234674767 0.193586051 0.113280684 0.151063874
      0.172524527 0.170879275 0.135894001 0.121047541 0.051104676
      0.146485567 0.188481376 0.0946574211 0.0891957954 0.17099373
      0.25028944 0.136281341 0.14512369 0.0413476788 0.25028944
      0.143788382 0.108979017 0.174456507 0.25028944 0.25028944
      0.25028944 0.15334022 0.143341839 0.150304183 0.18417801
      0.0540829115 0.0663934574 0.154152334 0.25028944 0.20349279
      0.0901027843 0.0499637574 0.25028944 0.137477025 0.0776628032
      0.137418643 0.133626252 0.228486896 0.106473871 0.121259563
      0.0838831887 0.114843592 0.217267603 0.138237357 0.126641989
      0.205094397 0.228486896 0.228486896 0.190609038 0.157469854
      0.176263109 0.0578347743 0.10644947 0.162247255 0.143896028
      0.228486896 0.139688537 0.133432314 0.0599047318 0.105579853
      0.228486896 0.172038257 0.201082557 0.146392122 0.228486896
      0.228486896 0.228486896 0.142490566 0.173176691 0.185014829
      0.105937377 0.119599998 0.111350641 0.116339989 0.173956513
      0.113898635 0.148367882 0.163838431 0.193478644 0.110668443
      0.211116865 0.134955853 0.211116865 0.157075524 0.156171814
      0.203097329 0.168901533 0.211116865 0.132862329 0.112723686
      0.0807348862 0.104209229 0.204449534 0.194334358 0.138498917
      0.194134697 0.211116865 0.211116865 0.211116865 0.113860302
      0.190928832 0.15895851 0.195652455 0.163420349 0.205205649
      0.116504826 0.116939716 0.198512584 0.236842558 0.264184415
      0.197047979 0.108127125 0.101293691 0.0879893899 0.203055784
      0.0356226452 0.0455160365 0.163577974 0.264184415 0.122575752
      0.024616424 0.0346646346 0.195384398 0.241407946 0.243238702
      0.189695016 0.200745866 0.264184415 0.10977079 0.102969088
      0.0591335371 0.101525418 0.261053383 0.0729318336 0.0495780371
      0.190863073 0.264184415 0.108913623 0.0595703907 0.0648410991
      0.196022078 0.0386388041 0.0901216716 0.110960945 0.16623275
      0.211002737 0.1155077 0.115717866 0.109682553 0.127691671
      0.2029064 0.127389953 0.163607657 0.166324392 0.211002737
      0.154826432 0.185595021 0.16489327 0.188160345 0.106194377
      0.0944851786 0.135169208 0.157283261 0.211002737 0.188820764
      0.101291902 0.190482765 0.201145127 0.202286199 0.147545621
      0.195802048 0.180315524 0.211002737 0.205352157 0.194929659
      0.211002737 0.195530161 0.219464377 0.128572986 0.0978371575
      0.0896778405 0.119424313 0.107935429 0.144977286 0.114643686
      0.173750073 0.219464377 0.219464377 0.157206684 0.0939718857
      0.159183592 0.104304463 0.145722643 0.111253783 0.17894803
      0.20927839 0.208144635 0.176594377 0.155382261 0.219464377
      0.111931294 0.163215816 0.144799292 0.17662546 0.216057643
      0.219464377 0.185823604 0.219464377 0.219464377 0.108606718
      0.137882441 0.13353458 0.192913502 0.259165406 0.204502195
      0.166591778 0.0975731388 0.259165406 0.0599794015 0.0694790855
      0.0537424013 0.142770216 0.248448849 0.0859315172 0.0980470553
      0.0721120164 0.259165406 0.0507885702 0.0800313801 0.0742619112
      0.236828342 0.259165406 0.115717776 0.131315559 0.169449896
      0.259165406 0.076583609 0.0984169617 0.106289342 0.185896918
      0.259165406 0.118498951 0.155290544 0.105990686 0.259165406
      0.0789113045 0.10712561 0.0832239315 0.259165406 0.0650330484
      0.0765567571 0.143199757 0.098379679 0.197077408 0.166586176
      0.119904771 0.105148114 0.131936446 0.10846132 0.116966173
      0.121464834 0.198119894 0.222582012 0.196226656 0.222582012
      0.158634514 0.179124996 0.0839919895 0.103908539 0.111030266
      0.129824132 0.222582012 0.17725642 0.216543168 0.143641621
      0.142667294 0.135045424 0.185984448 0.173739523 0.222582012
      0.222582012 0.189807624 0.222582012 0.201725826 0.222582012
      0.125862271 0.183674887 0.11736612 0.170997575 0.206105158
      0.129615232 0.192170843 0.0904208645 0.117444292 0.133044839
      0.207827255 0.193648234 0.207827255 0.207827255 0.134479776
      0.159312353 0.0958304629 0.109897316 0.152676597 0.201555714
      0.132798836 0.180142358 0.206099421 0.143160924 0.207827255
      0.118996136 0.152359888 0.143006474 0.207827255 0.207319885
      0.154037535 0.158997416 0.146649376 0.207827255 0.207827255
      0.128710926 0.20371525 0.10778369 0.151228219 0.176332846
      0.245320112 0.114140473 0.154576704 0.111159526 0.138774857
      0.245320112 0.0451580882 0.0764667019 0.160659164 0.245320112
      0.123617336 0.146915346 0.0783453435 0.165245354 0.16961734
      0.146415755 0.200165361 0.139102906 0.208661914 0.1405579
      0.187239468 0.245320112 0.166651249 0.245320112 0.0530777462
      0.0985674039 0.136555821 0.245320112 0.134335756 0.181435332
      0.114438295 0.16074802 0.105890945 0.206430286 0.103087187
      0.113943852 0.215200767 0.135731652 0.180785954 0.141820118
      0.135514766 0.155253738 0.215200767 0.215200767 0.186987743
      0.215200767 0.162258744 0.215200767 0.158342063 0.208176747
      0.10471718 0.154633418 0.0547528975 0.111856326 0.215200767
      0.10062664 0.114633411 0.108424023 0.11227046 0.139083967
      0.215200767 0.143285379 0.147575811 0.215200767 0.180723548
      0.172615871 0.201692715 0.209111124 0.134664595 0.177254274
      0.187756091 0.152639493 0.185059831 0.106728084 0.203745648
      0.167663485 0.186678693 0.138093382 0.181206793 0.185274646
      0.132500276 0.117926389 0.125438884 0.211740404 0.211740404
      0.186562762 0.103283428 0.123191901 0.148573443 0.165721983
      0.149377361 0.118879735 0.173528612 0.211740404 0.159509972
      0.126541287 0.162675217 0.191720992 0.211740404 0.16365914
      0.158862755 0.211740404 0.194412276 0.104062699 0.205922574
      0.140371442 0.157476172 0.095180057 0.116995141 0.180152655
      0.156528205 0.23025392 0.162177682 0.23025392 0.0827254355
      0.11078725 0.0917591229 0.23025392 0.171355352 0.133352265
      0.0846284032 0.15692386 0.222122148 0.144346863 0.148938626
      0.130361304 0.193696797 0.216680646 0.22005412 0.134185418
      0.156852186 0.23025392 0.109458581 0.166754499 0.084495604
      0.23025392 0.188117146 0.106836028 0.0404280834 0.23025392
      0.0709244311 0.0535813868 0.0465121083 0.149239898 0.285104603
      0.13700676 0.0583932474 0.0743228644 0.141663834 0.13004829
      0.176449805 0.196614176 0.191702887 0.285104603 0.139343649
      0.110214666 0.173819706 0.175564066 0.104009733 0.074895516
      0.10341958 0.163070098 0.285104603 0.231405035 0.09128654
      0.0775400177 0.124484085 0.151020706 0.232930303 0.285104603
      0.157377735 0.285104603 0.129299179 0.10580346 0.11576166
      0.119637802 0.0840471685 0.106879406 0.183738708 0.185367271
      0.128413633 0.0921661109 0.108656757 0.154514387 0.114639923
      0.077053763 0.0834772587 0.16251345 0.220353529 0.195493057
      0.195737556 0.220353529 0.220353529 0.0752816498 0.130771235
      0.188048273 0.220353529 0.119757742 0.117854655 0.136129379
      0.189313695 0.189317182 0.157818377 0.127669036 0.0997232199
      0.214242265 0.220353529 0.198339477 0.220353529 0.220353529
      0.220353529 0.14186582 0.14227055 0.0908395126 0.106129684
      0.122112036 0.242049187 0.221205965 0.233985931 0.15897955
      0.112650692 0.242193446 0.0956444964 0.118226036 0.0640713125
      0.242193446 0.173003569 0.110242844 0.036525175 0.227068037
      0.154661387 0.0384549126 0.133793026 0.210625261 0.242193446
      0.240689203 0.190245241 0.162991911 0.0951866806 0.242193446
      0.0437392108 0.0536541454 0.145709962 0.242193446 0.17394264
      0.0771079585 0.0323616005 0.215628207 0.101960666 0.053950306
      0.0778926834 0.157270908 0.259842783 0.171097577 0.0766501948
      0.0725012869 0.0525102951 0.148479417 0.240472436 0.259842783
      0.139331445 0.259842783 0.0940955207 0.0660752356 0.06648577
      0.0887859464 0.156267345 0.0762255564 0.05733753 0.115053974
      0.259842783 0.239547655 0.0590738319 0.0576205254 0.196379945
      0.259842783 0.251486093 0.259842783 0.124777965 0.259842783
      0.114536643 0.0456178039 0.0406064801 0.259842783 0.19906652
      0.222630963 0.222630963 0.0739214346 0.0729990453 0.0740533397
      0.15281336 0.129957721 0.156866342 0.213293508 0.144011691
      0.187135771 0.183638275 0.168945596 0.191768348 0.222630963
      0.222630963 0.206180289 0.222630963 0.164138436 0.202469185
      0.0581356771 0.0699921697 0.0331654176 0.10336867 0.106722884
      0.222630963 0.222630963 0.14152129 0.170147672 0.126716897
      0.132909805 0.0503995605 0.165564701 0.160189256 0.222630963
      0.145130619 0.0807832107 0.166521341 0.224837065 0.225817904
      0.206193179 0.225817904 0.172270223 0.0999566019 0.225817904
      0.0350226313 0.0788130388 0.156226799 0.225817904 0.110052407
      0.111828364 0.0725794062 0.189470559 0.175573215 0.186035484
      0.225817904 0.202696338 0.225817904 0.0933423489 0.149829865
      0.166303366 0.225817904 0.176708788 0.112143561 0.148490623
      0.132764325 0.225817904 0.0913697928 0.0896776617 0.160532907
      0.11459358</_>
    <_>
      0.172940224 0.191590711 0.239605665 0.140497819 0.176993623
      0.0841639116 0.145180374 0.214291841 0.161106661 0.127080932
      0.151292384 0.184601277 0.22033976 0.239605665 0.14703159
      0.239605665 0.21825543 0.129939884 0.104561038 0.0901946202
      0.11779429 0.204121426 0.181549191 0.0623982213 0.0795494989
      0.0974400714 0.097137779 0.0712419152 0.0432581007 0.186968371
      0.239605665 0.239605665 0.235087812 0.171531603 0.124386244
      0.0790025815 0.0597887412 0.0764625371 0.0806003585 0.166793153
      0.310633153 0.156856701 0.16495885 0.0933540687 0.0642671213
      0.0297827944 0.102905378 0.122750014 0.216462702 0.310633153
      0.241655231 0.242315993 0.15730381 0.095640339 0.0285970103
      0.0293775629 0.136408731 0.161368921 0.310633153 0.182081819
      0.0982288718 0.0505771525 0.0336927064 0.0153619051 0.0799527764
      0.187262267 0.168454021 0.310633153 0.236519545 0.204192668
      0.127335027 0.0370554365 0.0486332104 0.136690021 0.153123796
      0.180083394 0.279895246 0.279895246 0.279895246 0.202009365
      0.181068003 0.0249524824 0.0125653269 0.0201350767 0.0366378017
      0.21475862 0.0556322671 0.104538366 0.051142659 0.0635586455
      0.0888966471 0.11292477 0.249563962 0.161382943 0.279895246
      0.279895246 0.279895246 0.223618969 0.156687632 0.0685287192
      0.0128622074 0.0283557009 0.0411655381 0.279895246 0.0588671863
      0.150189757 0.0676520094 0.0864215046 0.0517910086 0.0548087098
      0.0956029743 0.165376365 0.145975128 0.0685158521 0.0573103353
      0.0433523394 0.018728191 0.0227274224 0.0610251389 0.258187473
      0.290226668 0.318787843 0.253188431 0.132153079 0.0663307756
      0.0122808293 0.0362114348 0.0750553086 0.287333965 0.229572982
      0.21367754 0.082689099 0.0399598107 0.0102526499 0.0142920753
      0.0588229336 0.132778823 0.318787843 0.318787843 0.318787843
      0.225208223 0.0762233213 0.00994349457 0.032207761 0.0133781098
      0.0442574322 0.158868968 0.105481565 0.357214779 0.15858756
      0.0944840983 0.034979485 0.0048060487 0.0331374481 0.105832353
      0.23481819 0.130231246 0.357214779 0.173361659 0.152479112
      0.114001244 0.0359584689 0.0207034796 0.0610627569 0.106521502
      0.088091068 0.357214779 0.184530795 0.0752905607 0.0220848322
      0.0110145537 0.0542247258 0.115378045 0.236406729 0.135881498
      0.357214779 0.264840692 0.137458965 0.105968021 0.075760588
      0.0656517074 0.0994123966 0.298348993 0.182356447 0.298348993
      0.244406581 0.164313376 0.145763904 0.107327588 0.0324799865
      0.00719040306 0.0281667858 0.0491367951 0.267355025 0.0543900132
      0.0460408069 0.0181201715 0.0529843457 0.174521551 0.0993459448
      0.298348993 0.230843961 0.298348993 0.298348993 0.173981786
      0.132658795 0.194788843 0.0907501131 0.014529747 0.0187783111
      0.0644104853 0.298348993 0.109366998 0.0490074642 0.0201633461
      0.0696272999 0.0289568305 0.041532483 0.198379785 0.149046764
      0.413824886 0.105970353 0.0169605818 0.0122614689 0.0157448798
      0.0478017069 0.0709787011 0.27673611 0.177228451 0.429673433
      0.181607634 0.0166309141 0.00153500133 0.0245283525 0.0202210862
      0.0181769449 0.0360730998 0.0873668119 0.429673433 0.0856915787
      0.0208905209 0.0188652426 0.0117903706 0.0211112909 0.0184678305
      0.0491058603 0.104429796 0.429673433 0.114855453 0.00862515997
      0.00216808193 0.00709008146 0.0100346934 0.0409418344 0.0740131214
      0.061109975 0.362232625 0.143624008 0.0162231382 0.0167793892
      0.0139994565 0.0493325703 0.133437917 0.234729081 0.159323052
      0.362232625 0.232520133 0.066527389 0.0779738575 0.0542791747
      0.00976314116 0.0417896584 0.0571050495 0.13184686 0.362232625
      0.132394314 0.0431444831 0.0363115817 0.00813095737 0.0369767174
      0.130988359 0.170025766 0.254795045 0.362232625 0.26366061
      0.137245893 0.161672816 0.0287760142 0.214147478 0.130544052
      0.279006958 0.224956363 0.279586136 0.279586136 0.111680359
      0.0616981834 0.106506132 0.127403677 0.0336759463 0.080681473
      0.0937089548 0.279586136 0.0649086013 0.0351255052 0.0143113723
      0.0508297347 0.110379674 0.171291187 0.274337292 0.269086629
      0.279586136 0.279586136 0.126225486 0.140862525 0.0560118631
      0.0603543743 0.0597755387 0.128508464 0.100703277 0.279586136
      0.0589955412 0.0279193856 0.0324430019 0.0322567821 0.010467682
      0.0266489219 0.0149193183 0.0580297336 0.475741953 0.0380808488
      0.0232693162 0.0159235168 0.0030642529 7.4021933e-05
      0.000990574597 0.00730791967 0.116619855 0.475741953 0.0860883221
      0.0139401611 0.00275978493 0.000416320749 0.0203649793 0.023787627
      0.0177514646 0.0636671856 0.475741953 0.0616904125 0.0204418097
      0.0155114736 0.00715760328 0.00140022184 0.00138595817
      0.0188593194 0.200606793 0.475741953 0.1066266 0.00848413724
      0.00573694659 0.00727797486 0.0236070622 0.0387280472 0.0484521315
      0.178060219 0.294189245 0.133455098 0.047370635 0.0257478878
      0.00469321012 0.0662238598 0.0786615908 0.104223631 0.232098937
      0.294189245 0.218551561 0.129822105 0.11156904 0.0211306792
      0.0711267292 0.0542953387 0.0945287421 0.263750106 0.294189245
      0.147764817 0.0325807743 0.0369872935 0.0467062704 0.269250125
      0.234884247 0.275627971 0.233334959 0.294189245 0.139121249
      0.0764072686 0.110617846 0.18094112 0.0689767748 0.0813851804
      0.109012283 0.186772183 0.262843132 0.262843132 0.170822904
      0.225301936 0.0684024766 0.0268616341 0.031937819 0.0507846512
      0.0501130447 0.262843132 0.0958197489 0.0729422942 0.132879317
      0.0520686656 0.262843132 0.262843132 0.262843132 0.137851804
      0.262843132 0.139298424 0.111194178 0.20094566 0.262843132
      0.151965767 0.11774914 0.138436362 0.0468593799 0.262843132
      0.0947739258 0.0586136058 0.1350054 0.104928114 0.0906094238
      0.0037625893 0.0129278889 0.0616421923 0.3284114 0.0808520541
      0.0431913212 0.0279802065 0.0643906519 0.0439771861 0.0138171976
      0.0434990823 0.133654594 0.3284114 0.134711042 0.0235554539
      0.0138640497 0.0747508034 0.198571727 0.0353255197 0.012849628
      0.174715087 0.3284114 0.17415978 0.175813571 0.0681887344
      0.204057544 0.193581119 0.0505807176 0.0807637423 0.214555636
      0.3284114 0.311694294 0.207018659 0.0656632259 0.278578848
      0.0862270147 0.0523772351 0.108650908 0.243828014 0.262325466
      0.13559185 0.0428753942 0.02325291 0.0834541693 0.262325466
      0.205293998 0.262325466 0.226440951 0.259679794 0.0698400214
      0.0688582584 0.0608484633 0.262325466 0.101147436 0.0341695324
      0.0619235039 0.152914017 0.262325466 0.232795343 0.123586141
      0.0419184864 0.162213743 0.231457114 0.0781992674 0.0365922153
      0.110560529 0.262325466 0.0920943245 0.0949879959 0.073672615
      0.262325466 0.267217636 0.267217636 0.23320742 0.0814866945
      0.238405913 0.0460572541 0.0677838922 0.0793062001 0.267217636
      0.189497158 0.0862296373 0.0750836357 0.0311437156 0.229794592
      0.041186206 0.056622453 0.046111241 0.150766879 0.267217636
      0.168944016 0.02957399 0.198610961 0.267217636 0.0864306688
      0.168677688 0.0970940441 0.267217636 0.148865268 0.0531065464
      0.0171057694 0.225373864 0.267217636 0.0595780052 0.152539045
      0.0526609384 0.119316891 0.130434871 0.0586910136 0.0336564369
      0.167558536 0.236281738 0.161713988 0.203025505 0.091417335
      0.198900402 0.139300451 0.0489393994 0.0550749265 0.245184287
      0.251671612 0.251671612 0.251671612 0.145388767 0.176991135
      0.178619444 0.16446732 0.117672704 0.126533017 0.159413517
      0.104285441 0.131309956 0.117548257 0.150134042 0.0960803479
      0.158337966 0.162614614 0.251671612 0.251671612 0.138342723
      0.196733132 0.152598724 0.0449453406 0.103688695 0.0414874516
      0.0553098433 0.270583004 0.323931009 0.276807576 0.199523747
      0.0911829695 0.115136586 0.122191086 0.0677615181 0.0291835386
      0.133405969 0.323931009 0.111005664 0.0866171122 0.0534958467
      0.106600143 0.0426636152 0.121403582 0.149676532 0.323931009
      0.323931009 0.14327389 0.136041746 0.0848381519 0.0260534491
      0.0586843342 0.114663377 0.105688021 0.200906962 0.323931009
      0.105277538 0.0553447194 0.0335057676 0.0621960238 0.15515013
      0.0949459597 0.0178479962 0.337596387 0.337596387 0.0794059634
      0.117105201 0.0520265661 0.0987658799 0.0594114773 0.0337144509
      0.0153299049 0.337596387 0.337596387 0.0488939956 0.0923807994
      0.0252996385 0.0295371506 0.0896151215 0.101701565 0.127639726
      0.320498228 0.337596387 0.0857085213 0.0441423096 0.0419924222
      0.0507699959 0.0421247929 0.0334259309 0.064991653 0.261496454
      0.337596387 0.0457726344 0.0206183679 0.0163840447 0.0164230894
      0.186313063 0.194806457 0.0958678797 0.0939131305 0.213814303
      0.0988359526 0.107140817 0.136175156 0.128183186 0.0781296566
      0.171019152 0.191860661 0.217235819 0.190451786 0.1586418
      0.240644798 0.0975260437 0.0560326576 0.139690012 0.124040172
      0.162258506 0.11532601 0.240644798 0.151591524 0.197087929
      0.197151601 0.218969524 0.0810472593 0.0833685771 0.177715674
      0.173190951 0.240644798 0.201722354 0.240644798 0.154233128
      0.130982667 0.0413905904 0.0991022959 0.18990925 0.235816106
      0.185029984 0.115139395 0.18932128 0.0491462238 0.0443647131
      0.139372855 0.173197791 0.232278973 0.129578426 0.138585269
      0.0579373576 0.0533792526 0.0340978839 0.167856753 0.104547352
      0.067480728 0.177902699 0.169871375 0.224352524 0.184087604
      0.235816106 0.235816106 0.149197981 0.227849871 0.170860738
      0.235816106 0.117065243 0.160616025 0.167034343 0.235816106
      0.1508926 0.235816106 0.27520591 0.27520591 0.27520591 0.151244745
      0.27520591 0.0629582554 0.0574966557 0.0420658216 0.207968876
      0.096568875 0.0934596732 0.172338754 0.0730832145 0.27520591
      0.0394635685 0.020522939 0.0139700565 0.0363502428 0.27520591
      0.22437647 0.27520591 0.051165849 0.27520591 0.133891389
      0.158573002 0.0392464325 0.27520591 0.128157064 0.0556838289
      0.0726722851 0.0235907566 0.223365143 0.0257135667 0.0217380486
      0.00920669921 0.0989662781</_>
    <_>
      0.0103988647 0.0935997143 0.288502902 0.288502902 0.288502902
      0.00858522858 0.00186330872 0.000914278382 0.0099606039
      0.0043749609 0.055375699 0.226262957 0.243160889 0.226305157
      0.0175546147 0.00258987118 0.000240070687 0.00322123268
      0.108188398 0.0670962483 0.288502902 0.288502902 0.288502902
      0.00972530246 0.0700192824 0.0543940477 0.0969897434 0.0521651208
      0.156505734 0.288502902 0.288502902 0.288502902 0.095602423
      0.0444254242 0.0273416936 0.0370462388 0.0355887264 0.101336107
      0.240107492 0.207642958 0.192726105 0.0506242625 0.0458401181
      0.0570233688 0.0291188806 0.0936383232 0.128140405 0.240107492
      0.156337842 0.167542547 0.0943749472 0.240107492 0.240107492
      0.126033068 0.101603664 0.18163693 0.240107492 0.220818743
      0.240107492 0.154135644 0.056707155 0.0901946798 0.0606786646
      0.152678967 0.160891071 0.169262424 0.0974583477 0.185225233
      0.240107492 0.240107492 0.240107492 0.152206615 0.0474835001
      0.0376256332 0.0573775694 0.0341322161 0.0515319891 0.0495035462
      0.353018045 0.335965931 0.0917092562 0.0161354598 0.0119591001
      0.0181748364 0.0290043242 0.0317989327 0.00982705131 0.164626226
      0.0931662619 0.0201044474 0.0872360989 0.0550953522 0.0683898404
      0.029436972 0.0623479411 0.297090709 0.353018045 0.353018045
      0.170319334 0.0472728685 0.0177716948 0.08974123 0.116053976
      0.0763675272 0.168593124 0.353018045 0.353018045 0.0655889511
      0.0962875187 0.0542519018 0.0965380147 0.151507825 0.088370733
      0.0547358692 0.237961367 0.13614586 0.0974078178 0.0586234406
      0.127280414 0.23566024 0.178954288 0.225061953 0.076906763
      0.216979742 0.084405005 0.0603165738 0.0738516524 0.110401943
      0.185770527 0.180504873 0.191373125 0.149873033 0.237961367
      0.237796158 0.107759126 0.117419377 0.228451192 0.237961367
      0.137501836 0.237961367 0.158438072 0.237961367 0.237961367
      0.175999716 0.121826842 0.18076098 0.2243402 0.17000252 0.2243402
      0.119835578 0.0616843924 0.0546331964 0.0855169222 0.119308494
      0.126695216 0.0866353661 0.0936448127 0.176472083 0.2243402
      0.2243402 0.169334784 0.106801227 0.151137546 0.21691446 0.2243402
      0.184776649 0.2243402 0.130998909 0.111543745 0.108442999
      0.152845904 0.146714985 0.151042297 0.105488487 0.206565633
      0.218953803 0.2243402 0.2243402 0.200223088 0.132427901
      0.0921115503 0.0464968309 0.0454912633 0.0635434911 0.0969178528
      0.226762637 0.252208024 0.180920437 0.0950376466 0.0742402449
      0.0205436666 0.0591602623 0.0786327794 0.115667492 0.247644529
      0.252208024 0.243149638 0.069100894 0.170380399 0.0811051354
      0.0933426619 0.152671352 0.189310834 0.224730015 0.252208024
      0.136406913 0.0876720846 0.177915797 0.130918697 0.139024153
      0.134509102 0.252208024 0.252208024 0.252208024 0.252208024
      0.110391073 0.0691579357 0.105809815 0.12214651 0.0825719759
      0.223835304 0.217267558 0.251641124 0.095913291 0.0637960732
      0.141980886 0.251641124 0.251641124 0.118622012 0.228464648
      0.121722251 0.143329412 0.158721119 0.12472102 0.116656721
      0.133824334 0.158792883 0.0892298073 0.168805331 0.251641124
      0.251641124 0.0361455567 0.0533685982 0.174317658 0.251641124
      0.251641124 0.174200356 0.200720161 0.0859314427 0.116280377
      0.0901866034 0.126456231 0.137904808 0.201672062 0.221342951
      0.129446626 0.204380766 0.13263613 0.139677972 0.108516529
      0.103260517 0.144303188 0.117320873 0.14417772 0.214905113
      0.139829025 0.190317392 0.221342951 0.194587782 0.134425715
      0.107729964 0.221342951 0.216614008 0.111044891 0.163711458
      0.0646599084 0.129547969 0.140931368 0.159867942 0.145637706
      0.124029577 0.221342951 0.159054369 0.160656065 0.10985864
      0.221342951 0.221342951 0.221342951 0.14614886 0.0811682716
      0.130912915 0.168581814 0.147882864 0.184338301 0.22064276
      0.113711923 0.0931666568 0.201575235 0.22064276 0.22064276
      0.153375417 0.22064276 0.204786673 0.211480603 0.15924871
      0.140865684 0.182720438 0.0807838663 0.182222679 0.124993183
      0.183983654 0.11862433 0.178518116 0.134994701 0.15743342
      0.184319988 0.179111391 0.22064276 0.218053669 0.204986975
      0.130308285 0.0542165525 0.0436331742 0.135665461 0.098435469
      0.150815651 0.235870957 0.117798619 0.233952627 0.171302572
      0.235870957 0.0287442766 0.0578377582 0.154307112 0.235870957
      0.235870957 0.122779787 0.164430037 0.0805917233 0.117675707
      0.114391804 0.0998440459 0.165419161 0.20805645 0.235870957
      0.172635779 0.235870957 0.130547062 0.0861577615 0.0424900241
      0.0826449394 0.137447774 0.224354491 0.235870957 0.122712672
      0.203070238 0.121888041 0.235870957 0.172131002 0.07153292
      0.124304362 0.190569833 0.210397154 0.0925295427 0.128256634
      0.0638489351 0.123580933 0.171696216 0.148836911 0.181180671
      0.158208519 0.216302499 0.110749744 0.175344884 0.0890761092
      0.216302499 0.203137413 0.216302499 0.0965865031 0.163738668
      0.216302499 0.120520391 0.1657985 0.102660187 0.216302499
      0.188680828 0.0545832328 0.216302499 0.14759852 0.216302499
      0.216302499 0.216302499 0.105145268 0.184006751 0.151252106
      0.133466676 0.189921111 0.153333306 0.213937923 0.112338938
      0.163188249 0.104340419 0.105955265 0.151480466 0.138541609
      0.140491381 0.21689871 0.236152768 0.225202292 0.198303089
      0.118787132 0.0236222111 0.0468553826 0.0752990544 0.222638011
      0.230361119 0.236152768 0.236152768 0.180939347 0.101661399
      0.127864167 0.135087624 0.112023413 0.10498561 0.236152768
      0.236152768 0.236152768 0.225617647 0.106753707 0.0663331151
      0.0430365577 0.0488945618 0.147733703 0.203938991 0.247431904
      0.126353323 0.247431904 0.109829687 0.130790412 0.0856220275
      0.113425463 0.0809195191 0.120354332 0.17304112 0.104614928
      0.0990308002 0.115300506 0.247431904 0.208697438 0.0874417052
      0.103978686 0.212237462 0.247431904 0.110125624 0.16421026
      0.162148371 0.247431904 0.205963537 0.110457398 0.104800887
      0.1471349 0.167927921 0.11660926 0.111486331 0.152089596
      0.247431904 0.247431904 0.134712562 0.0622593127 0.0703726113
      0.127818123 0.141069919 0.0917279944 0.0877374262 0.252305716
      0.161513656 0.0523322411 0.170076519 0.14483434 0.252305716
      0.252305716 0.137502372 0.0458251946 0.150283933 0.137228385
      0.110246025 0.150269285 0.10561201 0.153009042 0.2049613
      0.192006886 0.121553205 0.252305716 0.14794223 0.0907370672
      0.19659254 0.252305716 0.252305716 0.252305716 0.252305716
      0.120970704 0.104753077 0.14230755 0.0911229253 0.188355133
      0.278777748 0.278777748 0.278777748 0.164203346 0.0441761687
      0.0896694511 0.125901937 0.121809222 0.078993082 0.219350204
      0.278777748 0.277963012 0.157102779 0.0510579646 0.0620908886
      0.0440127514 0.0480650701 0.111892626 0.278777748 0.278777748
      0.278777748 0.190923825 0.117074072 0.0434227884 0.0830048397
      0.0714862049 0.0357506461 0.100726292 0.219148934 0.182976753
      0.0547441803 0.046832189 0.0702830926 0.0452407002 0.0373362228
      0.065615356 0.0798813105 0.119501628 0.0666435584 0.0801934227
      0.103604235 0.291878015 0.291878015 0.0467704087 0.17715776
      0.140751749 0.182739928 0.0909419581 0.194735005 0.109998584
      0.291878015 0.291878015 0.093320027 0.0399039499 0.0125353877
      0.0228277221 0.0123002389 0.0178715605 0.0224359389 0.291878015
      0.272608101 0.0173836965 0.189319164 0.115428574 0.13300249
      0.0572865158 0.202531517 0.0800014138 0.291878015 0.291878015
      0.0704620779 0.204181924 0.140052825 0.134557649 0.127466142
      0.234021664 0.0767710432 0.116286136 0.0690147132 0.0665093809
      0.178996071 0.234021664 0.234021664 0.22109355 0.234021664
      0.160665572 0.0396496542 0.0385220759 0.0346881337 0.234021664
      0.215643212 0.234021664 0.148518145 0.234021664 0.11506661
      0.151045933 0.127146438 0.0885233209 0.15280351 0.234021664
      0.234021664 0.203669921 0.234021664 0.136674419 0.0281182621
      0.0142783532 0.040267691 0.129001185 0.283605546 0.283605546
      0.283605546 0.283605546 0.28183198 0.136714667 0.0766003281
      0.0352229588 0.043893639 0.0842196345 0.151729703 0.0880608782
      0.051810246 0.0831582919 0.25707525 0.10762208 0.0357551873
      0.0844023004 0.283605546 0.283605546 0.153878361 0.227342099
      0.146952271 0.201562271 0.0727315173 0.0150213037 0.0319575518
      0.0442946441 0.0192924421 0.0134460684 0.0292307865 0.0768464208
      0.283605546 0.151883408 0.0183789972 0.017024897 0.0121917604
      0.0603206418 0.0416572765 0.0407480635 0.00405650074 0.172612458
      0.0995110646 0.0121746892 0.0997574404 0.0981273502 0.336675137
      0.162176952 0.285645664 0.0606634319 0.336675137 0.336675137
      0.0497020595 0.0131451208 0.0168186966 0.162590489 0.149314836
      0.192630351 0.00943560712 0.00916592125 0.0178463813 0.00779543724
      0.0207234211 0.109613508 0.336675137 0.336675137 0.336675137
      0.0562280789 0.141252518 0.114328183 0.0100058438 0.132988498
      0.185371906 0.29322803 0.190146476 0.29322803 0.0973375812
      0.284170806 0.206602305 0.0649610907 0.0641745105 0.160284936
      0.29322803 0.166730732 0.178995654 0.0685320795 0.0433907993
      0.017958397 0.0264436509 0.0278599281 0.137876749 0.29322803
      0.29322803 0.29322803 0.0663990527 0.128574401 0.0694504678
      0.0132975234 0.0145425471 0.0708037764 0.271228582 0.125450984
      0.125421688 0.0289414618 0.0339584649 0.0222029872 0.0109265307
      0.0728511363 0.167217791 0.317518324 0.209154233 0.214453176
      0.129452839 0.317518324 0.180106074 0.0366908647 0.0295787454
      0.0121024549 0.00469699921 0.00716389716 0.0431084335 0.094308354
      0.317518324 0.317518324 0.0363171473 0.0224318467 0.0516455583
      0.153070241 0.0920580924 0.085517019 0.106545947 0.300646394
      0.217848256 0.0519996658 0.0308484659 0.00673098117 0.00588031393
      0.00684025977 0.0536479168 0.068633005 0.317518324 0.317518324
      0.0474246852</_>
    <_>
      0.0755615607 0.240975246 0.0496900007 0.128372133 0.102962285
      0.112882696 0.184280455 0.142380074 0.0634058565 0.141474232
      0.240975246 0.203387439 0.240975246 0.139115438 0.11857406
      0.230873853 0.223560765 0.085915938 0.0655450225 0.184280112
      0.0983217806 0.131701693 0.0912027955 0.16560021 0.238060609
      0.105564795 0.0445631444 0.236103252 0.240975246 0.240975246
      0.240975246 0.233928367 0.150031313 0.117301099 0.0953667909
      0.104033448 0.115801737 0.211837858 0.222702011 0.240495637
      0.127951905 0.0384390317 0.0613271073 0.0456979312 0.0311670918
      0.107454121 0.144817919 0.240495637 0.240495637 0.194805503
      0.134242892 0.105284788 0.0479240268 0.0755140781 0.145657271
      0.21089828 0.240495637 0.240495637 0.184823006 0.105626628
      0.0593333878 0.0291581992 0.0756847635 0.166395411 0.160078764
      0.187017366 0.240495637 0.195950463 0.237490281 0.234276697
      0.116908327 0.194149867 0.120856881 0.103494897 0.210307837
      0.229424521 0.229424521 0.211693391 0.214639574 0.0987258554
      0.13903816 0.0393263772 0.0478619337 0.0863256827 0.0861194059
      0.168145537 0.0779040828 0.0553996712 0.0298623219 0.0434071682
      0.229424521 0.16582936 0.215959772 0.0949755758 0.229424521
      0.210622281 0.229424521 0.229424521 0.229424521 0.101812504
      0.0723167583 0.229424521 0.229424521 0.229424521 0.106739305
      0.105449572 0.122474961 0.205717295 0.0536627844 0.0931940004
      0.111714087 0.0905878767 0.06586878 0.106822968 0.175611749
      0.0983024389 0.0241216701 0.24981384 0.276885033 0.276885033
      0.276885033 0.269326776 0.0763236582 0.10246142 0.0593680516
      0.0544880517 0.131833881 0.0576977395 0.0873698443 0.137901887
      0.128678903 0.0755141899 0.0954731181 0.0581552051 0.0543584377
      0.276885033 0.276885033 0.276885033 0.276885033 0.276885033
      0.0500558577 0.0970976949 0.15390718 0.127947927 0.11989788
      0.166337147 0.221834466 0.221834466 0.160870954 0.0775558054
      0.0808015838 0.0718563497 0.0809914023 0.141158551 0.112951487
      0.201120079 0.139954492 0.132411674 0.178170413 0.213378817
      0.142802134 0.199036598 0.116990261 0.163888708 0.199035287
      0.221834466 0.221834466 0.0652753636 0.0856977105 0.196106002
      0.116882421 0.216000944 0.0975950658 0.214924425 0.122512251
      0.221834466 0.18369405 0.1969565 0.17026414 0.221834466
      0.158435032 0.0760906488 0.17594628 0.0599113591 0.167443067
      0.105557062 0.226668 0.148481637 0.227118388 0.0725030974
      0.0281504989 0.130255818 0.222969264 0.216320604 0.0848583654
      0.131198034 0.180527017 0.136877269 0.206741601 0.0376616605
      0.127230987 0.0786315724 0.229529545 0.173111349 0.229529545
      0.159493655 0.229529545 0.0752566382 0.00886057038 0.0561040752
      0.229529545 0.229529545 0.222213924 0.229529545 0.229529545
      0.154348701 0.156239524 0.0559047125 0.088847436 0.194307625
      0.153229848 0.0514344871 0.0677175 0.0272838138 0.0630772486
      0.209127352 0.205561087 0.201443642 0.243956491 0.243956491
      0.0455141775 0.0807914063 0.233789325 0.134614214 0.189021766
      0.16711919 0.170713753 0.243956491 0.205588162 0.0452678837
      0.0749522671 0.0761918724 0.0871074349 0.160607398 0.200074196
      0.208644897 0.243956491 0.243956491 0.0616629198 0.0931237713
      0.243956491 0.214356378 0.113146946 0.133633971 0.17615445
      0.170503244 0.230715469 0.0616186894 0.057278052 0.223016277
      0.116789512 0.214207679 0.0835741609 0.179853708 0.106779441
      0.230715469 0.130958885 0.175926164 0.138344288 0.189043954
      0.108148664 0.130830348 0.213643461 0.132573649 0.230715469
      0.0821224526 0.122978158 0.230715469 0.13783066 0.203017101
      0.0999365821 0.224488556 0.0918232575 0.230715469 0.0972188488
      0.230715469 0.148439899 0.207586572 0.1650251 0.024802126
      0.0435578637 0.0484221689 0.255382031 0.126208499 0.226351187
      0.152056128 0.236025244 0.102610707 0.0137827443 0.0500252694
      0.17358838 0.255382031 0.158671185 0.188270703 0.173161641
      0.166285068 0.142475352 0.0318174586 0.0958268344 0.0512580238
      0.255382031 0.0824505165 0.255382031 0.184603468 0.204293147
      0.106572233 0.0806507096 0.255382031 0.255382031 0.255382031
      0.0773082599 0.0969474837 0.196351513 0.116993323 0.0727929845
      0.154486209 0.180665269 0.234981731 0.164989769 0.0225936938
      0.0405457318 0.105261624 0.0894114226 0.113326252 0.12747848
      0.154874697 0.201561674 0.234981731 0.0428889394 0.0849349424
      0.234981731 0.220463008 0.0611346029 0.143439785 0.173074529
      0.234981731 0.234981731 0.0386008061 0.0616028048 0.162622929
      0.192965806 0.146768764 0.147101089 0.234981731 0.173838988
      0.234981731 0.060090676 0.197077602 0.234981731 0.234981731
      0.1169926 0.0822560489 0.126190051 0.106581077 0.227579951
      0.0795386061 0.187309504 0.164929986 0.127134234 0.172428057
      0.0911786035 0.198448822 0.0959114879 0.227579951 0.115183435
      0.227579951 0.216266245 0.1921179 0.167789608 0.0776019394
      0.16942279 0.102960572 0.227579951 0.0732312128 0.183546215
      0.118899904 0.160257027 0.16990298 0.161780044 0.227579951
      0.113343127 0.227579951 0.147368804 0.198615566 0.225750804
      0.196253836 0.093840085 0.0777349845 0.205881163 0.131812558
      0.249052599 0.106436744 0.231204569 0.158823058 0.155084118
      0.0415722579 0.115823194 0.249052599 0.249052599 0.249052599
      0.089498356 0.0318848751 0.0719123036 0.0529055111 0.095144555
      0.242313728 0.249052599 0.249052599 0.249052599 0.156883612
      0.0915739089 0.131384522 0.127836451 0.0473727174 0.177062988
      0.196622357 0.249052599 0.249052599 0.096406579 0.0145100513
      0.0131023601 0.0463950038 0.0708332658 0.100581281 0.108522199
      0.132801279 0.220154703 0.0796163529 0.0623747446 0.179926619
      0.186827853 0.130172744 0.106528364 0.157734662 0.0604844056
      0.243157938 0.10560526 0.243157938 0.237902358 0.243157938
      0.101513192 0.076366879 0.0963871032 0.0698519573 0.153709561
      0.167497873 0.243157938 0.243157938 0.227236569 0.137308806
      0.072697185 0.0626241863 0.026546834 0.185126305 0.181098774
      0.243157938 0.243157938 0.243157938 0.137084216 0.045574896
      0.118146986 0.0374718681 0.238807544 0.058546558 0.238807544
      0.130041614 0.164233148 0.140587553 0.184357852 0.178611264
      0.161357269 0.238807544 0.15049313 0.139391586 0.109267026
      0.107616492 0.130225629 0.0240188986 0.0802288055 0.0379433408
      0.238807544 0.0927164406 0.238807544 0.232409984 0.189767644
      0.115958512 0.167921394 0.183823332 0.238807544 0.238807544
      0.211132422 0.238807544 0.177625641 0.0703642741 0.130627587
      0.252384573 0.252384573 0.252384573 0.252384573 0.165573418
      0.0640004128 0.0911384895 0.075159438 0.0767908022 0.168939501
      0.164443687 0.252384573 0.252384573 0.0524223335 0.0215852018
      0.0120700551 0.0379774608 0.0837518647 0.252384573 0.23458758
      0.252384573 0.252384573 0.19284752 0.0960561708 0.103639647
